{"learner":{"attributes":{"best_iteration":"104","best_score":"0.6275371762096882","scikit_learn":"{\"_estimator_type\": \"classifier\"}"},"feature_names":[],"feature_types":[],"gradient_booster":{"model":{"cats":{"enc":[],"feature_segments":[],"sorted_idx":[]},"gbtree_model_param":{"num_parallel_tree":"1","num_trees":"405"},"iteration_indptr":[0,3,6,9,12,15,18,21,24,27,30,33,36,39,42,45,48,51,54,57,60,63,66,69,72,75,78,81,84,87,90,93,96,99,102,105,108,111,114,117,120,123,126,129,132,135,138,141,144,147,150,153,156,159,162,165,168,171,174,177,180,183,186,189,192,195,198,201,204,207,210,213,216,219,222,225,228,231,234,237,240,243,246,249,252,255,258,261,264,267,270,273,276,279,282,285,288,291,294,297,300,303,306,309,312,315,318,321,324,327,330,333,336,339,342,345,348,351,354,357,360,363,366,369,372,375,378,381,384,387,390,393,396,399,402,405],"tree_info":[0,1,2,0,1,2,0,1,2,0,1,2,0,1,2,0,1,2,0,1,2,0,1,2,0,1,2,0,1,2,0,1,2,0,1,2,0,1,2,0,1,2,0,1,2,0,1,2,0,1,2,0,1,2,0,1,2,0,1,2,0,1,2,0,1,2,0,1,2,0,1,2,0,1,2,0,1,2,0,1,2,0,1,2,0,1,2,0,1,2,0,1,2,0,1,2,0,1,2,0,1,2,0,1,2,0,1,2,0,1,2,0,1,2,0,1,2,0,1,2,0,1,2,0,1,2,0,1,2,0,1,2,0,1,2,0,1,2,0,1,2,0,1,2,0,1,2,0,1,2,0,1,2,0,1,2,0,1,2,0,1,2,0,1,2,0,1,2,0,1,2,0,1,2,0,1,2,0,1,2,0,1,2,0,1,2,0,1,2,0,1,2,0,1,2,0,1,2,0,1,2,0,1,2,0,1,2,0,1,2,0,1,2,0,1,2,0,1,2,0,1,2,0,1,2,0,1,2,0,1,2,0,1,2,0,1,2,0,1,2,0,1,2,0,1,2,0,1,2,0,1,2,0,1,2,0,1,2,0,1,2,0,1,2,0,1,2,0,1,2,0,1,2,0,1,2,0,1,2,0,1,2,0,1,2,0,1,2,0,1,2,0,1,2,0,1,2,0,1,2,0,1,2,0,1,2,0,1,2,0,1,2,0,1,2,0,1,2,0,1,2,0,1,2,0,1,2,0,1,2,0,1,2,0,1,2,0,1,2,0,1,2,0,1,2,0,1,2,0,1,2,0,1,2,0,1,2,0,1,2,0,1,2,0,1,2,0,1,2,0,1,2,0,1,2,0,1,2,0,1,2,0,1,2,0,1,2,0,1,2,0,1,2,0,1,2,0,1,2,0,1,2,0,1,2],"trees":[{"base_weights":[-3.339374E-3,-1.15609474E-1,8.4951974E-2,-9.311702E-2,-2.9061142E-1,1.1435638E-1,-6.4879395E-2,-1.728842E-1,-5.2704252E-2,1.2497557E-1,-3.0756027E-1,1.8926716E-1,7.3288195E-2,-2.5375885E-1,2.8433122E-2,-5.0917594E-3,-1.0865874E-2,1.0704966E-2,-3.4835392E-3,-2.4206333E-2,1.993843E-2,-1.6471583E-2,1.9948545E-3,1.5706573E-2,6.5743783E-3,6.101907E-3,-1.923885E-4,1.4474886E-2,-1.3827874E-2,1.11286985E-2,-6.0856924E-4],"categories":[],"categories_nodes":[],"categories_segments":[],"categories_sizes":[],"default_left":[0,0,0,0,0,0,0,0,0,0,0,0,0,0,0,0,0,0,0,0,0,0,0,0,0,0,0,0,0,0,0],"id":0,"left_children":[1,3,5,7,9,11,13,15,17,19,21,23,25,27,29,-1,-1,-1,-1,-1,-1,-1,-1,-1,-1,-1,-1,-1,-1,-1,-1],"loss_changes":[1.1371936E2,1.9815308E1,2.8302826E1,1.4401958E1,4.101513E0,1.6476723E1,1.8597967E1,4.6951447E0,1.3463462E1,4.0171E0,4.238941E0,1.3619003E1,1.3061546E1,4.399147E0,5.5867906E0,0E0,0E0,0E0,0E0,0E0,0E0,0E0,0E0,0E0,0E0,0E0,0E0,0E0,0E0,0E0,0E0],"parents":[2147483647,0,0,1,1,2,2,3,3,4,4,5,5,6,6,7,7,8,8,9,9,10,10,11,11,12,12,13,13,14,14],"right_children":[2,4,6,8,10,12,14,16,18,20,22,24,26,28,30,-1,-1,-1,-1,-1,-1,-1,-1,-1,-1,-1,-1,-1,-1,-1,-1],"split_conditions":[9.547146E1,1.9100327E-2,1.5156797E-2,1E0,6.257512E-2,1.3846153E-2,-9.07564E-2,-4.412726E-3,8.61696E-3,-5.252113E-3,1.14813E-1,-3.6210057E-3,5.4298774E-3,-1.4510041E-2,-3.594673E-2,-5.0917594E-3,-1.0865874E-2,1.0704966E-2,-3.4835392E-3,-2.4206333E-2,1.993843E-2,-1.6471583E-2,1.9948545E-3,1.5706573E-2,6.5743783E-3,6.101907E-3,-1.923885E-4,1.4474886E-2,-1.3827874E-2,1.11286985E-2,-6.0856924E-4],"split_indices":[30,23,19,111,38,41,26,18,23,18,39,18,21,71,26,0,0,0,0,0,0,0,0,0,0,0,0,0,0,0,0],"split_type":[0,0,0,0,0,0,0,0,0,0,0,0,0,0,0,0,0,0,0,0,0,0,0,0,0,0,0,0,0,0,0],"sum_hessian":[1.1470044E4,5.049716E3,6.420328E3,4.476472E3,5.732436E2,5.3678013E3,1.052527E3,1.5033636E3,2.9731084E3,2.1981522E1,5.512621E2,1.8986E3,3.4692012E3,3.4782526E2,7.047017E2,5.8057074E2,9.2279285E2,1.7671419E2,2.7963943E3,6.465153E0,1.5516368E1,5.189363E2,3.2325768E1,5.986732E2,1.2999268E3,2.1261733E3,1.3430278E3,1.3361317E1,3.3446393E2,1.2154488E2,5.831568E2],"tree_param":{"num_deleted":"0","num_feature":"113","num_nodes":"31","size_leaf_vector":"1"}},{"base_weights":[-6.7496323E-4,-1.2516688E-1,8.460596E-2,-1.5408434E-1,4.812265E-2,3.5261095E-2,1.991234E-1,-1.7261E-1,-3.2036785E-2,2.083948E-1,-2.5105214E-2,-1.6908474E-2,9.3884155E-2,2.8769845E-1,1.438104E-1,8.904145E-3,-9.028896E-3,2.5690475E-3,-8.842339E-3,2.8427923E-2,8.054526E-3,-1.0976277E-2,1.4845076E-3,-1.0061387E-2,1.2665936E-3,8.317063E-3,1.790102E-3,2.7051629E-3,1.5748264E-2,-1.19726015E-2,7.842349E-3],"categories":[],"categories_nodes":[],"categories_segments":[],"categories_sizes":[],"default_left":[0,0,0,0,0,0,0,0,0,0,0,0,0,0,0,0,0,0,0,0,0,0,0,0,0,0,0,0,0,0,0],"id":1,"left_children":[1,3,5,7,9,11,13,15,17,19,21,23,25,27,29,-1,-1,-1,-1,-1,-1,-1,-1,-1,-1,-1,-1,-1,-1,-1,-1],"loss_changes":[1.2243653E2,2.351339E1,3.863998E1,9.0607605E0,7.8962235E0,1.4641485E1,1.0007835E1,9.779747E0,6.442905E0,3.42865E0,4.935502E0,1.9731941E1,9.459259E0,4.9790344E0,6.3785496E0,0E0,0E0,0E0,0E0,0E0,0E0,0E0,0E0,0E0,0E0,0E0,0E0,0E0,0E0,0E0,0E0],"parents":[2147483647,0,0,1,1,2,2,3,3,4,4,5,5,6,6,7,7,8,8,9,9,10,10,11,11,12,12,13,13,14,14],"right_children":[2,4,6,8,10,12,14,16,18,20,22,24,26,28,30,-1,-1,-1,-1,-1,-1,-1,-1,-1,-1,-1,-1,-1,-1,-1,-1],"split_conditions":[9.307178E-3,1.5156797E-2,1.3740683E-2,7.0029157E-3,-1.00391954E-1,1.1327168E-3,5.870497E1,-9.645062E-3,8.403362E-3,-4.8452875E-1,3E0,9.67185E-1,2.023E3,1E0,-5.055364E-1,8.904145E-3,-9.028896E-3,2.5690475E-3,-8.842339E-3,2.8427923E-2,8.054526E-3,-1.0976277E-2,1.4845076E-3,-1.0061387E-2,1.2665936E-3,8.317063E-3,1.790102E-3,2.7051629E-3,1.5748264E-2,-1.19726015E-2,7.842349E-3],"split_indices":[24,19,23,18,26,18,30,99,42,26,1,25,0,3,26,0,0,0,0,0,0,0,0,0,0,0,0,0,0,0,0],"split_type":[0,0,0,0,0,0,0,0,0,0,0,0,0,0,0,0,0,0,0,0,0,0,0,0,0,0,0,0,0,0,0],"sum_hessian":[1.1529975E4,4.6876753E3,6.842299E3,4.0178843E3,6.69791E2,4.78336E3,2.0589395E3,3.4873096E3,5.305745E2,2.0990234E2,4.598887E2,2.5304653E3,2.2528943E3,7.891811E2,1.2697583E3,7.671995E1,3.4105898E3,3.3661957E2,1.9395493E2,2.284358E1,1.8705876E2,1.0085657E2,3.5903214E2,4.71526E2,2.0589395E3,1.00080743E3,1.2520868E3,8.318511E1,7.05996E2,4.094604E1,1.2288123E3],"tree_param":{"num_deleted":"0","num_feature":"113","num_nodes":"31","size_leaf_vector":"1"}},{"base_weights":[0E0],"categories":[],"categories_nodes":[],"categories_segments":[],"categories_sizes":[],"default_left":[0],"id":2,"left_children":[-1],"loss_changes":[0E0],"parents":[2147483647],"right_children":[-1],"split_conditions":[0E0],"split_indices":[0],"split_type":[0],"sum_hessian":[5.321577E-2],"tree_param":{"num_deleted":"0","num_feature":"113","num_nodes":"1","size_leaf_vector":"1"}},{"base_weights":[-3.5150785E-3,1.07494436E-1,-1.14879034E-1,1.7218399E-1,3.713819E-2,-6.2103014E-2,-2.280569E-1,3.5694954E-1,1.3462994E-1,1.00263216E-1,-4.0160865E-2,-2.3105165E-2,-1.445861E-1,9.853359E-2,-2.3657197E-1,2.5985867E-2,8.463983E-3,1.0010176E-2,2.7335319E-3,2.198818E-3,1.0284035E-2,-8.739487E-3,-4.2582033E-4,1.241924E-3,-4.7992035E-3,-9.125903E-3,-1.5072747E-3,-1.4524228E-2,1.9235035E-2,-1.0614054E-2,-1.654139E-2],"categories":[],"categories_nodes":[],"categories_segments":[],"categories_sizes":[],"default_left":[0,0,0,0,0,0,0,0,0,0,0,0,0,0,0,0,0,0,0,0,0,0,0,0,0,0,0,0,0,0,0],"id":3,"left_children":[1,3,5,7,9,11,13,15,17,19,21,23,25,27,29,-1,-1,-1,-1,-1,-1,-1,-1,-1,-1,-1,-1,-1,-1,-1,-1],"loss_changes":[1.4242125E2,2.6228981E1,3.43107E1,2.0750069E1,1.3504084E1,1.2603285E1,5.1208954E0,1.5313812E1,1.3066547E1,9.004635E0,5.276364E0,9.326761E0,5.4375896E0,5.3377366E0,3.9559555E0,0E0,0E0,0E0,0E0,0E0,0E0,0E0,0E0,0E0,0E0,0E0,0E0,0E0,0E0,0E0,0E0],"parents":[2147483647,0,0,1,1,2,2,3,3,4,4,5,5,6,6,7,7,8,8,9,9,10,10,11,11,12,12,13,13,14,14],"right_children":[2,4,6,8,10,12,14,16,18,20,22,24,26,28,30,-1,-1,-1,-1,-1,-1,-1,-1,-1,-1,-1,-1,-1,-1,-1,-1],"split_conditions":[1.6288307E-2,2.1364959E-1,2.275612E-2,9.636278E-1,1.3906804E-2,5.7615894E1,1.5518914E-2,-5.375314E-4,1.6194332E-2,1.5542857E-2,4.9678057E-2,1.2391575E-3,4.8480105E-1,6.721993E-2,2.9568302E-3,2.5985867E-2,8.463983E-3,1.0010176E-2,2.7335319E-3,2.198818E-3,1.0284035E-2,-8.739487E-3,-4.2582033E-4,1.241924E-3,-4.7992035E-3,-9.125903E-3,-1.5072747E-3,-1.4524228E-2,1.9235035E-2,-1.0614054E-2,-1.654139E-2],"split_indices":[36,28,36,25,36,33,41,101,41,42,66,18,102,66,99,0,0,0,0,0,0,0,0,0,0,0,0,0,0,0,0],"split_type":[0,0,0,0,0,0,0,0,0,0,0,0,0,0,0,0,0,0,0,0,0,0,0,0,0,0,0,0,0,0,0],"sum_hessian":[1.1518404E4,5.7679497E3,5.750455E3,3.0034954E3,2.764454E3,3.923376E3,1.827079E3,5.0546182E2,2.4980337E3,1.522294E3,1.2421603E3,2.665585E3,1.2577911E3,4.585922E1,1.7812197E3,2.6945703E2,2.3600478E2,1.3709669E3,1.1270668E3,9.939484E2,5.2834546E2,2.3494049E2,1.0072197E3,1.6074231E3,1.0581619E3,9.435707E2,3.1422046E2,1.928224E1,2.657698E1,1.4196672E3,3.6155246E2],"tree_param":{"num_deleted":"0","num_feature":"113","num_nodes":"31","size_leaf_vector":"1"}},{"base_weights":[-2.7093145E-3,-8.2298234E-2,1.4581913E-1,-1.5049563E-1,-2.0328762E-2,8.256801E-2,2.2115746E-1,-2.4119358E-1,-9.2041954E-2,-8.262707E-2,5.168814E-2,2.8657537E-2,1.6146052E-1,2.718933E-1,1.5809058E-1,5.839113E-4,-1.3670879E-2,-7.850464E-3,-5.3232326E-4,-6.3081863E-3,1.3508353E-3,3.7692714E-4,7.3726065E-3,-1.6457304E-2,2.44883E-3,1.7147336E-2,5.2207075E-3,1.1029719E-2,1.9783681E-2,-9.572076E-3,9.004179E-3],"categories":[],"categories_nodes":[],"categories_segments":[],"categories_sizes":[],"default_left":[0,0,0,0,0,0,0,0,0,0,0,0,0,0,0,0,0,0,0,0,0,0,0,0,0,0,0,0,0,0,0],"id":4,"left_children":[1,3,5,7,9,11,13,15,17,19,21,23,25,27,29,-1,-1,-1,-1,-1,-1,-1,-1,-1,-1,-1,-1,-1,-1,-1,-1],"loss_changes":[1.3572713E2,3.1576855E1,1.9039192E1,1.8810234E1,1.7590307E1,9.24741E0,5.7594147E0,1.1382805E1,1.1436394E1,1.0049362E1,7.668144E0,9.416896E0,9.070721E0,6.265129E0,6.3192787E0,0E0,0E0,0E0,0E0,0E0,0E0,0E0,0E0,0E0,0E0,0E0,0E0,0E0,0E0,0E0,0E0],"parents":[2147483647,0,0,1,1,2,2,3,3,4,4,5,5,6,6,7,7,8,8,9,9,10,10,11,11,12,12,13,13,14,14],"right_children":[2,4,6,8,10,12,14,16,18,20,22,24,26,28,30,-1,-1,-1,-1,-1,-1,-1,-1,-1,-1,-1,-1,-1,-1,-1,-1],"split_conditions":[1.8313903E-2,1.435999E-2,2.275612E-2,-4.841052E-4,3.2102757E-3,4.587783E-3,3.0191304E-2,5.0163917E-2,2.8826771E-3,2.2825848E-3,9.291945E-4,-3.7307966E-1,-1.3652152E-1,1.5315376E-3,-4.098984E-1,5.839113E-4,-1.3670879E-2,-7.850464E-3,-5.3232326E-4,-6.3081863E-3,1.3508353E-3,3.7692714E-4,7.3726065E-3,-1.6457304E-2,2.44883E-3,1.7147336E-2,5.2207075E-3,1.1029719E-2,1.9783681E-2,-9.572076E-3,9.004179E-3],"split_indices":[36,36,36,99,21,19,108,66,18,19,67,26,26,65,26,0,0,0,0,0,0,0,0,0,0,0,0,0,0,0,0],"split_type":[0,0,0,0,0,0,0,0,0,0,0,0,0,0,0,0,0,0,0,0,0,0,0,0,0,0,0,0,0,0,0],"sum_hessian":[1.1480176E4,7.4755327E3,4.0046428E3,3.5574822E3,3.9180505E3,2.1788167E3,1.825826E3,1.3923091E3,2.165173E3,2.1014392E3,1.8166113E3,1.2959036E3,8.8291315E2,1.00911755E3,8.167085E2,1.5709221E2,1.2352169E3,1.202899E3,9.62274E2,1.5047172E3,5.967219E2,1.2448345E3,5.717769E2,6.8556366E1,1.2273472E3,2.0953569E2,6.7337744E2,7.159802E2,2.9313733E2,4.7621094E1,7.690874E2],"tree_param":{"num_deleted":"0","num_feature":"113","num_nodes":"31","size_leaf_vector":"1"}},{"base_weights":[0E0],"categories":[],"categories_nodes":[],"categories_segments":[],"categories_sizes":[],"default_left":[0],"id":5,"left_children":[-1],"loss_changes":[0E0],"parents":[2147483647],"right_children":[-1],"split_conditions":[0E0],"split_indices":[0],"split_type":[0],"sum_hessian":[5.3172823E-2],"tree_param":{"num_deleted":"0","num_feature":"113","num_nodes":"1","size_leaf_vector":"1"}},{"base_weights":[4.401893E-3,8.6699285E-2,-1.3777946E-1,1.3636683E-1,-1.3176411E-3,-7.352586E-2,-2.0572844E-1,2.3168814E-1,8.5803345E-2,-2.0996855E-1,4.430799E-2,4.1065347E-1,-8.086939E-2,-1.5024501E-1,-2.66238E-1,1.2423734E-2,-1.6507859E-3,5.37615E-3,-7.0651346E-3,8.2116565E-3,-1.2709567E-2,7.7232816E-3,1.1915473E-4,4.474724E-2,-1.2420159E-2,-6.6200653E-3,-9.059796E-4,-3.7942536E-3,-1.2956293E-2,8.652971E-3,-1.3758615E-2],"categories":[],"categories_nodes":[],"categories_segments":[],"categories_sizes":[],"default_left":[0,0,0,0,0,0,0,0,0,0,0,0,0,0,0,0,0,0,0,0,0,0,0,0,0,0,0,0,0,0,0],"id":6,"left_children":[1,3,5,7,9,11,13,15,17,19,21,23,25,27,29,-1,-1,-1,-1,-1,-1,-1,-1,-1,-1,-1,-1,-1,-1,-1,-1],"loss_changes":[1.3343338E2,3.1591599E1,1.820845E1,2.2208214E1,2.4834656E1,7.6480875E0,6.7351837E0,7.13694E0,1.4908297E1,7.798168E0,9.861852E0,1.053151E1,6.83731E0,8.548262E0,3.8613052E0,0E0,0E0,0E0,0E0,0E0,0E0,0E0,0E0,0E0,0E0,0E0,0E0,0E0,0E0,0E0,0E0],"parents":[2147483647,0,0,1,1,2,2,3,3,4,4,5,5,6,6,7,7,8,8,9,9,10,10,11,11,12,12,13,13,14,14],"right_children":[2,4,6,8,10,12,14,16,18,20,22,24,26,28,30,-1,-1,-1,-1,-1,-1,-1,-1,-1,-1,-1,-1,-1,-1,-1,-1],"split_conditions":[1.7947206E-2,3.3143098E-3,2.2077674E-2,1.3661202E-2,-1.8248647E-1,-5.528596E-1,-5.858231E-4,1.1254791E-2,1.4366977E-2,-1.1816436E0,1.3041501E-2,-2.5775766E-3,2.023E3,3.5E1,-1.9669309E0,1.2423734E-2,-1.6507859E-3,5.37615E-3,-7.0651346E-3,8.2116565E-3,-1.2709567E-2,7.7232816E-3,1.1915473E-4,4.474724E-2,-1.2420159E-2,-6.6200653E-3,-9.059796E-4,-3.7942536E-3,-1.2956293E-2,8.652971E-3,-1.3758615E-2],"split_indices":[36,18,36,41,26,26,19,23,19,29,36,19,0,5,29,0,0,0,0,0,0,0,0,0,0,0,0,0,0,0,0],"split_type":[0,0,0,0,0,0,0,0,0,0,0,0,0,0,0,0,0,0,0,0,0,0,0,0,0,0,0,0,0,0,0],"sum_hessian":[1.1401853E4,7.2224487E3,4.1794033E3,4.6174375E3,2.6050115E3,2.1499404E3,2.0294629E3,1.5984707E3,3.0189666E3,4.6717233E2,2.1378394E3,3.1096922E1,2.1188435E3,1.0613801E3,9.6808276E2,1.5035596E3,9.4911156E1,2.7563276E3,2.6263892E2,4.8849075E1,4.1832324E2,5.879449E2,1.5498944E3,1.7806253E1,1.3290667E1,1.16193E3,9.569134E2,6.322214E2,4.2915875E2,1.8706863E1,9.493759E2],"tree_param":{"num_deleted":"0","num_feature":"113","num_nodes":"31","size_leaf_vector":"1"}},{"base_weights":[-4.1115438E-3,-8.344091E-2,1.2977523E-1,-1.4335753E-1,-1.5165184E-2,6.852426E-2,2.1260154E-1,-2.1570794E-1,-1.0237209E-1,-9.876973E-2,5.6996383E-2,-1.4514606E-1,8.44672E-2,1.5123391E-1,2.630053E-1,-9.130623E-3,-2.0184515E-2,-8.785155E-3,-2.703495E-3,-8.502731E-3,1.3420642E-3,9.904474E-3,9.858287E-4,-1.5495948E-2,1.5308107E-3,2.265732E-3,8.684085E-3,3.8709908E-3,1.1024699E-2,1.6229346E-2,9.425931E-3],"categories":[],"categories_nodes":[],"categories_segments":[],"categories_sizes":[],"default_left":[0,0,0,0,0,0,0,0,0,0,0,0,0,0,0,0,0,0,0,0,0,0,0,0,0,0,0,0,0,0,0],"id":7,"left_children":[1,3,5,7,9,11,13,15,17,19,21,23,25,27,29,-1,-1,-1,-1,-1,-1,-1,-1,-1,-1,-1,-1,-1,-1,-1,-1],"loss_changes":[1.2176108E2,2.943372E1,2.1594582E1,1.1313751E1,2.0322306E1,8.365889E0,5.5235977E0,8.481316E0,8.645571E0,1.3994354E1,9.47953E0,4.9701605E0,7.950613E0,4.1471977E0,4.440666E0,0E0,0E0,0E0,0E0,0E0,0E0,0E0,0E0,0E0,0E0,0E0,0E0,0E0,0E0,0E0,0E0],"parents":[2147483647,0,0,1,1,2,2,3,3,4,4,5,5,6,6,7,7,8,8,9,9,10,10,11,11,12,12,13,13,14,14],"right_children":[2,4,6,8,10,12,14,16,18,20,22,24,26,28,30,-1,-1,-1,-1,-1,-1,-1,-1,-1,-1,-1,-1,-1,-1,-1,-1],"split_conditions":[1.788851E-2,8.858706E-3,2.275612E-2,-1.1639849E-2,-5.5417017E-4,9.397034E-1,1E1,-4.90918E-4,-8.5477397E-4,1.5910112E0,-1.5963049E-1,3E1,8.925265E-4,9.965703E-1,2.3513936E-2,-9.130623E-3,-2.0184515E-2,-8.785155E-3,-2.703495E-3,-8.502731E-3,1.3420642E-3,9.904474E-3,9.858287E-4,-1.5495948E-2,1.5308107E-3,2.265732E-3,8.684085E-3,3.8709908E-3,1.1024699E-2,1.6229346E-2,9.425931E-3],"split_indices":[36,24,36,51,18,25,4,40,18,31,26,5,65,25,108,0,0,0,0,0,0,0,0,0,0,0,0,0,0,0,0],"split_type":[0,0,0,0,0,0,0,0,0,0,0,0,0,0,0,0,0,0,0,0,0,0,0,0,0,0,0,0,0,0,0],"sum_hessian":[1.1462436E4,7.198418E3,4.264017E3,3.8325386E3,3.3658792E3,2.4530183E3,1.8109989E3,1.38353E3,2.4490085E3,1.5597777E3,1.8061014E3,1.6932443E2,2.2836938E3,8.1937573E2,9.9162317E2,1.1785435E3,2.0498666E2,9.7066486E2,1.4783438E3,9.953524E2,5.644253E2,3.7601178E2,1.4300897E3,8.729404E1,8.203039E1,1.5889834E3,6.9471045E2,3.9837164E2,4.210041E2,5.402625E2,4.513607E2],"tree_param":{"num_deleted":"0","num_feature":"113","num_nodes":"31","size_leaf_vector":"1"}},{"base_weights":[0E0],"categories":[],"categories_nodes":[],"categories_segments":[],"categories_sizes":[],"default_left":[0],"id":8,"left_children":[-1],"loss_changes":[0E0],"parents":[2147483647],"right_children":[-1],"split_conditions":[0E0],"split_indices":[0],"split_type":[0],"sum_hessian":[5.3192623E-2],"tree_param":{"num_deleted":"0","num_feature":"113","num_nodes":"1","size_leaf_vector":"1"}},{"base_weights":[-1.9200877E-3,6.0509853E-2,-1.6458416E-1,1.2498624E-1,6.287992E-3,-1.3246872E-1,-2.5836357E-1,1.8706575E-1,7.0912346E-2,9.199028E-2,-4.116293E-2,-1.0753766E-1,-2.65294E-1,3.3021957E-1,-2.6706192E-1,1.2092731E-2,2.6787962E-3,6.026807E-3,-1.5188921E-5,1.5616518E-2,2.7886373E-3,-9.579481E-3,-9.792367E-4,-9.7183725E-3,-2.7881542E-3,-1.3759169E-2,3.4789022E-2,-0E0,5.7404358E-2,-1.3711594E-2,2.1712475E-2],"categories":[],"categories_nodes":[],"categories_segments":[],"categories_sizes":[],"default_left":[0,0,0,0,0,0,0,0,0,0,0,0,0,0,0,0,0,0,0,0,0,0,0,0,0,0,0,0,0,0,0],"id":9,"left_children":[1,3,5,7,9,11,13,15,17,19,21,23,25,27,29,-1,-1,-1,-1,-1,-1,-1,-1,-1,-1,-1,-1,-1,-1,-1,-1],"loss_changes":[1.1598048E2,2.8835833E1,9.467224E0,1.261208E1,1.8245474E1,7.75758E0,4.209564E0,1.2778614E1,7.1391287E0,1.2707229E1,9.343817E0,8.916937E0,3.6854763E0,3.360827E0,4.101738E0,0E0,0E0,0E0,0E0,0E0,0E0,0E0,0E0,0E0,0E0,0E0,0E0,0E0,0E0,0E0,0E0],"parents":[2147483647,0,0,1,1,2,2,3,3,4,4,5,5,6,6,7,7,8,8,9,9,10,10,11,11,12,12,13,13,14,14],"right_children":[2,4,6,8,10,12,14,16,18,20,22,24,26,28,30,-1,-1,-1,-1,-1,-1,-1,-1,-1,-1,-1,-1,-1,-1,-1,-1],"split_conditions":[1.9540153E-2,8.769281E-3,1.4656758E-3,1.512605E-2,-3.7177095E-1,2.2520027E-1,1.6754761E-6,3.3143098E-3,7.079894E-4,-2.2913954E-1,-2.4354272E-1,2.022E3,2.1987207E0,2.1364959E-1,1.05321884E2,1.2092731E-2,2.6787962E-3,6.026807E-3,-1.5188921E-5,1.5616518E-2,2.7886373E-3,-9.579481E-3,-9.792367E-4,-9.7183725E-3,-2.7881542E-3,-1.3759169E-2,3.4789022E-2,-0E0,5.7404358E-2,-1.3711594E-2,2.1712475E-2],"split_indices":[36,24,65,41,27,26,100,18,70,26,26,0,29,28,30,0,0,0,0,0,0,0,0,0,0,0,0,0,0,0,0],"split_type":[0,0,0,0,0,0,0,0,0,0,0,0,0,0,0,0,0,0,0,0,0,0,0,0,0,0,0,0,0,0,0],"sum_hessian":[1.1417895E4,8.2511455E3,3.1667495E3,3.7677192E3,4.4834263E3,2.3615115E3,8.0523804E2,1.752013E3,2.0157064E3,1.5981451E3,2.8852808E3,1.990467E3,3.710444E2,1.102113E1,7.942169E2,1.2410726E3,5.109403E2,1.1883612E3,8.2734515E2,2.2413977E2,1.3740054E3,3.603918E2,2.5248892E3,7.4177313E2,1.248694E3,3.6807468E2,2.9697387E0,8.476894E0,2.544235E0,7.869232E2,7.2936606E0],"tree_param":{"num_deleted":"0","num_feature":"113","num_nodes":"31","size_leaf_vector":"1"}},{"base_weights":[3.8706432E-3,-9.121017E-2,1.01345815E-1,-1.390482E-1,-1.5659738E-2,5.1851016E-2,1.8833032E-1,-3.8420254E-1,-1.272907E-1,1.2372272E-1,-7.0331015E-2,-6.6406E-3,1.0676229E-1,2.3987202E-1,1.3078701E-1,-3.706518E-2,-4.060612E-3,-9.089024E-3,-3.460379E-3,1.5452993E-3,1.1544014E-2,-1.1921735E-2,-1.5978588E-3,-3.34155E-3,4.476465E-3,2.4892061E-3,7.4610435E-3,7.83485E-3,1.46452235E-2,3.4332913E-3,1.3489447E-2],"categories":[],"categories_nodes":[],"categories_segments":[],"categories_sizes":[],"default_left":[0,0,0,0,0,0,0,0,0,0,0,0,0,0,0,0,0,0,0,0,0,0,0,0,0,0,0,0,0,0,0],"id":10,"left_children":[1,3,5,7,9,11,13,15,17,19,21,23,25,27,29,-1,-1,-1,-1,-1,-1,-1,-1,-1,-1,-1,-1,-1,-1,-1,-1],"loss_changes":[1.0623834E2,2.0952438E1,2.4336807E1,1.0137413E1,1.7159908E1,1.1605141E1,6.016777E0,1.7348694E1,1.0694786E1,6.2739954E0,1.0404624E1,1.0122128E1,4.479351E0,4.673847E0,8.345509E0,0E0,0E0,0E0,0E0,0E0,0E0,0E0,0E0,0E0,0E0,0E0,0E0,0E0,0E0,0E0,0E0],"parents":[2147483647,0,0,1,1,2,2,3,3,4,4,5,5,6,6,7,7,8,8,9,9,10,10,11,11,12,12,13,13,14,14],"right_children":[2,4,6,8,10,12,14,16,18,20,22,24,26,28,30,-1,-1,-1,-1,-1,-1,-1,-1,-1,-1,-1,-1,-1,-1,-1,-1],"split_conditions":[1.6288307E-2,4.587783E-3,2.1959014E-2,-4.3678612E-1,-1.18934326E-1,-4.8069973E-4,1.67615E-2,-1.4319041E0,6.4339325E-2,1.4883241E-2,1.1918677E-2,9.972238E-3,2.3921752E-4,9.92133E-1,2.0063728E-2,-3.706518E-2,-4.060612E-3,-9.089024E-3,-3.460379E-3,1.5452993E-3,1.1544014E-2,-1.1921735E-2,-1.5978588E-3,-3.34155E-3,4.476465E-3,2.4892061E-3,7.4610435E-3,7.83485E-3,1.46452235E-2,3.4332913E-3,1.3489447E-2],"split_indices":[36,19,36,26,26,69,108,28,38,19,36,22,67,25,21,0,0,0,0,0,0,0,0,0,0,0,0,0,0,0,0],"split_type":[0,0,0,0,0,0,0,0,0,0,0,0,0,0,0,0,0,0,0,0,0,0,0,0,0,0,0,0,0,0,0],"sum_hessian":[1.1460791E4,5.8011636E3,5.659627E3,3.5507124E3,2.2504512E3,3.6088894E3,2.0507378E3,1.6065848E2,3.3900537E3,6.331545E2,1.6172968E3,1.7470189E3,1.8618705E3,1.0791941E3,9.715436E2,7.2928764E1,8.772971E1,1.7471454E3,1.6429084E3,3.4047052E2,2.9268396E2,2.9912134E2,1.3181754E3,1.0753367E3,6.716822E2,7.9693506E2,1.0649354E3,4.2245865E2,6.567355E2,6.729912E2,2.9855234E2],"tree_param":{"num_deleted":"0","num_feature":"113","num_nodes":"31","size_leaf_vector":"1"}},{"base_weights":[0E0],"categories":[],"categories_nodes":[],"categories_segments":[],"categories_sizes":[],"default_left":[0],"id":11,"left_children":[-1],"loss_changes":[0E0],"parents":[2147483647],"right_children":[-1],"split_conditions":[0E0],"split_indices":[0],"split_type":[0],"sum_hessian":[5.3190686E-2],"tree_param":{"num_deleted":"0","num_feature":"113","num_nodes":"1","size_leaf_vector":"1"}},{"base_weights":[5.3884387E-3,9.383453E-2,-8.734671E-2,1.4459577E-1,2.4778487E-2,-3.4390092E-2,-1.7882727E-1,1.8754913E-1,5.633207E-2,-1.7716004E-1,6.3971646E-2,3.718454E-2,-8.230383E-2,-1.4739563E-1,-2.943748E-1,3.661574E-2,8.83932E-3,6.9995127E-3,-2.2011572E-3,-1.0145879E-2,2.025842E-2,8.446152E-3,1.6492673E-3,6.993428E-3,-2.6143289E-3,-1.265125E-2,-2.9087465E-3,-4.5335414E-3,-1.0478298E-2,-1.7480923E-2,-6.453067E-3],"categories":[],"categories_nodes":[],"categories_segments":[],"categories_sizes":[],"default_left":[0,0,0,0,0,0,0,0,0,0,0,0,0,0,0,0,0,0,0,0,0,0,0,0,0,0,0,0,0,0,0],"id":12,"left_children":[1,3,5,7,9,11,13,15,17,19,21,23,25,27,29,-1,-1,-1,-1,-1,-1,-1,-1,-1,-1,-1,-1,-1,-1,-1,-1],"loss_changes":[9.420945E1,2.0589207E1,2.7133331E1,1.2808037E1,1.9730438E1,1.2191816E1,7.374611E0,1.3132767E1,9.343996E0,6.137398E0,6.76735E0,1.3103499E1,8.725623E0,5.656822E0,3.9043655E0,0E0,0E0,0E0,0E0,0E0,0E0,0E0,0E0,0E0,0E0,0E0,0E0,0E0,0E0,0E0,0E0],"parents":[2147483647,0,0,1,1,2,2,3,3,4,4,5,5,6,6,7,7,8,8,9,9,10,10,11,11,12,12,13,13,14,14],"right_children":[2,4,6,8,10,12,14,16,18,20,22,24,26,28,30,-1,-1,-1,-1,-1,-1,-1,-1,-1,-1,-1,-1,-1,-1,-1,-1],"split_conditions":[1.637765E-2,3.205131E-3,2.1959014E-2,3.4843206E-3,-2.1087629E-1,-3.565865E-1,3.0630115E-2,-5.8393043E-1,1.3975156E-2,2.7366154E0,1.2208899E-2,-2.8011288E-2,-2.387618E-1,-4.2417817E-4,2.5231719E-2,3.661574E-2,8.83932E-3,6.9995127E-3,-2.2011572E-3,-1.0145879E-2,2.025842E-2,8.446152E-3,1.6492673E-3,6.993428E-3,-2.6143289E-3,-1.265125E-2,-2.9087465E-3,-4.5335414E-3,-1.0478298E-2,-1.7480923E-2,-6.453067E-3],"split_indices":[36,19,36,53,26,27,36,26,36,102,36,26,26,19,42,0,0,0,0,0,0,0,0,0,0,0,0,0,0,0,0],"split_type":[0,0,0,0,0,0,0,0,0,0,0,0,0,0,0,0,0,0,0,0,0,0,0,0,0,0,0,0,0,0,0],"sum_hessian":[1.1483993E4,5.8784717E3,5.605522E3,3.3865598E3,2.4919119E3,3.5518706E3,2.0536514E3,2.276465E3,1.1100948E3,4.040445E2,2.0878672E3,1.4235204E3,2.12835E3,1.6169454E3,4.3670596E2,4.2624996E1,2.23384E3,6.057394E2,5.0435544E2,3.877182E2,1.6326288E1,4.741683E2,1.613699E3,6.6307654E2,7.604438E2,2.6187244E2,1.8664778E3,8.476282E2,7.6931726E2,3.260338E2,1.10672165E2],"tree_param":{"num_deleted":"0","num_feature":"113","num_nodes":"31","size_leaf_vector":"1"}},{"base_weights":[1.7640182E-3,-8.864072E-2,9.7651996E-2,-1.3681872E-1,-1.8826189E-2,5.0043043E-2,1.9765115E-1,-4.903962E-2,-1.7730425E-1,1.5352324E-1,-6.935523E-2,-2.3829449E-2,9.365922E-2,2.4274099E-1,1.423154E-1,-5.0613587E-3,1.405662E-3,-1.0712908E-2,-2.9378596E-3,8.333968E-3,-2.9507732E-2,-1.0157137E-2,-1.961313E-3,-6.2067457E-3,3.2432042E-3,5.6179534E-3,-2.992531E-3,1.2406432E-2,-2.7570346E-2,4.2090598E-3,1.3459414E-2],"categories":[],"categories_nodes":[],"categories_segments":[],"categories_sizes":[],"default_left":[0,0,0,0,0,0,0,0,0,0,0,0,0,0,0,0,0,0,0,0,0,0,0,0,0,0,0,0,0,0,0],"id":13,"left_children":[1,3,5,7,9,11,13,15,17,19,21,23,25,27,29,-1,-1,-1,-1,-1,-1,-1,-1,-1,-1,-1,-1,-1,-1,-1,-1],"loss_changes":[9.936454E1,1.982436E1,2.6449951E1,1.2369728E1,2.0996876E1,1.2158689E1,4.4012604E0,4.453718E0,1.0416733E1,5.4020786E0,7.486867E0,1.246711E1,6.82094E0,4.32386E0,5.9056606E0,0E0,0E0,0E0,0E0,0E0,0E0,0E0,0E0,0E0,0E0,0E0,0E0,0E0,0E0,0E0,0E0],"parents":[2147483647,0,0,1,1,2,2,3,3,4,4,5,5,6,6,7,7,8,8,9,9,10,10,11,11,12,12,13,13,14,14],"right_children":[2,4,6,8,10,12,14,16,18,20,22,24,26,28,30,-1,-1,-1,-1,-1,-1,-1,-1,-1,-1,-1,-1,-1,-1,-1,-1],"split_conditions":[1.637765E-2,3.748331E-3,2.275612E-2,5.3482126E-2,-1.5303981E-1,-4.6772832E-1,3.347139E-2,7.3972836E-2,9.307178E-3,1.1837202E-1,1.1918677E-2,-2.8011288E-2,8.433509E-2,3.6286658E-1,2.2386283E-2,-5.0613587E-3,1.405662E-3,-1.0712908E-2,-2.9378596E-3,8.333968E-3,-2.9507732E-2,-1.0157137E-2,-1.961313E-3,-6.2067457E-3,3.2432042E-3,5.6179534E-3,-2.992531E-3,1.2406432E-2,-2.7570346E-2,4.2090598E-3,1.3459414E-2],"split_indices":[36,19,36,66,26,27,108,29,24,40,36,26,45,109,51,0,0,0,0,0,0,0,0,0,0,0,0,0,0,0,0],"split_type":[0,0,0,0,0,0,0,0,0,0,0,0,0,0,0,0,0,0,0,0,0,0,0,0,0,0,0,0,0,0,0],"sum_hessian":[1.14603125E4,5.898317E3,5.5619956E3,3.488536E3,2.4097808E3,3.7697446E3,1.7922509E3,1.1026013E3,2.3859346E3,5.4541345E2,1.8643674E3,1.3987871E3,2.3709575E3,9.846907E2,8.075602E2,6.582998E2,4.4430145E2,1.8176726E3,5.6826196E2,5.3682697E2,8.586453E0,3.4101785E2,1.5233495E3,6.56765E2,7.420221E2,2.1143206E3,2.5663705E2,9.7886334E2,5.827324E0,5.554843E2,2.5207587E2],"tree_param":{"num_deleted":"0","num_feature":"113","num_nodes":"31","size_leaf_vector":"1"}},{"base_weights":[0E0],"categories":[],"categories_nodes":[],"categories_segments":[],"categories_sizes":[],"default_left":[0],"id":14,"left_children":[-1],"loss_changes":[0E0],"parents":[2147483647],"right_children":[-1],"split_conditions":[0E0],"split_indices":[0],"split_type":[0],"sum_hessian":[5.319756E-2],"tree_param":{"num_deleted":"0","num_feature":"113","num_nodes":"1","size_leaf_vector":"1"}},{"base_weights":[-1.9541862E-3,6.1288442E-2,-1.2631021E-1,1.2363759E-1,1.4032125E-2,-1.0147939E-1,-2.7338353E-1,1.6210386E-1,5.7542834E-2,1.4218083E-1,-1.4321263E-2,-7.328598E-2,-1.845741E-1,-1.5676077E-1,-3.3918136E-1,4.495838E-3,1.0277931E-2,-6.230689E-3,6.2840576E-3,2.4247414E-2,3.9844164E-3,8.626428E-4,-5.0829146E-3,-2.64011E-3,-1.1576835E-2,-1.1597725E-2,7.5642735E-4,5.1289357E-2,-8.6026E-3,-1.8812783E-2,-4.0736515E-3],"categories":[],"categories_nodes":[],"categories_segments":[],"categories_sizes":[],"default_left":[0,0,0,0,0,0,0,0,0,0,0,0,0,0,0,0,0,0,0,0,0,0,0,0,0,0,0,0,0,0,0],"id":15,"left_children":[1,3,5,7,9,11,13,15,17,19,21,23,25,27,29,-1,-1,-1,-1,-1,-1,-1,-1,-1,-1,-1,-1,-1,-1,-1,-1],"loss_changes":[9.02349E1,2.2390516E1,1.4061157E1,8.301899E0,1.5740037E1,7.7188606E0,4.1757584E0,6.446415E0,1.5013062E1,1.6715916E1,9.783336E0,7.982915E0,7.948612E0,3.771268E0,3.315853E0,0E0,0E0,0E0,0E0,0E0,0E0,0E0,0E0,0E0,0E0,0E0,0E0,0E0,0E0,0E0,0E0],"parents":[2147483647,0,0,1,1,2,2,3,3,4,4,5,5,6,6,7,7,8,8,9,9,10,10,11,11,12,12,13,13,14,14],"right_children":[2,4,6,8,10,12,14,16,18,20,22,24,26,28,30,-1,-1,-1,-1,-1,-1,-1,-1,-1,-1,-1,-1,-1,-1,-1,-1],"split_conditions":[1.8313903E-2,1.4051698E-2,2.9454457E-2,5.5089664E-1,1.6299576E1,2.9617442E-2,7E0,5.4237906E-2,-1.1206386E-1,-2.4354272E-1,1.6466508E-3,1.8691149E0,2.984988E-1,-6.1921424E-1,8.7633885E-2,4.495838E-3,1.0277931E-2,-6.230689E-3,6.2840576E-3,2.4247414E-2,3.9844164E-3,8.626428E-4,-5.0829146E-3,-2.64011E-3,-1.1576835E-2,-1.1597725E-2,7.5642735E-4,5.1289357E-2,-8.6026E-3,-1.8812783E-2,-4.0736515E-3],"split_indices":[36,36,36,27,34,52,4,66,26,26,101,68,74,26,40,0,0,0,0,0,0,0,0,0,0,0,0,0,0,0,0],"split_type":[0,0,0,0,0,0,0,0,0,0,0,0,0,0,0,0,0,0,0,0,0,0,0,0,0,0,0,0,0,0,0],"sum_hessian":[1.1470738E4,7.6035645E3,3.8671738E3,3.2766624E3,4.3269023E3,3.3106045E3,5.565692E2,2.0693577E3,1.2073047E3,7.838139E2,3.5430884E3,2.4742095E3,8.36395E2,2.025188E2,3.540504E2,7.796207E2,1.2897369E3,3.2804196E2,8.7926276E2,1.1957767E2,6.642362E2,2.6020513E3,9.410371E2,2.192394E3,2.8181537E2,6.7628296E2,1.6011203E2,1.658208E0,2.008606E2,3.087807E2,4.5269703E1],"tree_param":{"num_deleted":"0","num_feature":"113","num_nodes":"31","size_leaf_vector":"1"}},{"base_weights":[2.559476E-3,-4.5801397E-2,1.7391081E-1,-1.23091854E-1,6.9085024E-3,1.4794745E-1,2.724165E-1,-2.0022263E-1,-5.8936544E-2,-4.9503088E-2,7.8586966E-2,7.293877E-2,1.8743286E-1,-4.7862887E-1,2.8382516E-1,-2.0228988E-2,-7.847321E-3,6.0294005E-3,-4.5251744E-3,-6.2072696E-3,-1.5384509E-4,1.1553389E-2,2.7370404E-3,1.3089687E-2,1.6139491E-3,7.751917E-3,1.6958807E-2,2.2149255E-2,-4.4257157E-2,1.6736168E-2,6.4071477E-3],"categories":[],"categories_nodes":[],"categories_segments":[],"categories_sizes":[],"default_left":[0,0,0,0,0,0,0,0,0,0,0,0,0,0,0,0,0,0,0,0,0,0,0,0,0,0,0,0,0,0,0],"id":16,"left_children":[1,3,5,7,9,11,13,15,17,19,21,23,25,27,29,-1,-1,-1,-1,-1,-1,-1,-1,-1,-1,-1,-1,-1,-1,-1,-1],"loss_changes":[9.494262E1,3.6408348E1,6.367676E0,1.7890652E1,2.1484465E1,5.8805084E0,4.606823E0,1.4420059E1,1.1228899E1,1.0286652E1,8.468844E0,5.2748404E0,6.3277893E0,3.4645386E0,4.007408E0,0E0,0E0,0E0,0E0,0E0,0E0,0E0,0E0,0E0,0E0,0E0,0E0,0E0,0E0,0E0,0E0],"parents":[2147483647,0,0,1,1,2,2,3,3,4,4,5,5,6,6,7,7,8,8,9,9,10,10,11,11,12,12,13,13,14,14],"right_children":[2,4,6,8,10,12,14,16,18,20,22,24,26,28,30,-1,-1,-1,-1,-1,-1,-1,-1,-1,-1,-1,-1,-1,-1,-1,-1],"split_conditions":[2.0718303E-2,1.4396839E-2,2.9836977E-2,-8.5477397E-4,2.5288665E-1,2E1,-6.1921424E-1,-1.9021338E-1,-2.2913954E-1,-5.9138965E-2,-2.4354272E-1,-2.9473156E-1,2.5618034E-3,-2.0980598E-1,2.557403E-2,-2.0228988E-2,-7.847321E-3,6.0294005E-3,-4.5251744E-3,-6.2072696E-3,-1.5384509E-4,1.1553389E-2,2.7370404E-3,1.3089687E-2,1.6139491E-3,7.751917E-3,1.6958807E-2,2.2149255E-2,-4.4257157E-2,1.6736168E-2,6.4071477E-3],"split_indices":[36,36,36,18,28,5,26,26,26,26,26,108,99,74,42,0,0,0,0,0,0,0,0,0,0,0,0,0,0,0,0],"split_type":[0,0,0,0,0,0,0,0,0,0,0,0,0,0,0,0,0,0,0,0,0,0,0,0,0,0,0,0,0,0,0],"sum_hessian":[1.1453721E4,8.932758E3,2.5209631E3,3.6221008E3,5.310657E3,1.9978916E3,5.2307166E2,1.6430559E3,1.9790448E3,2.971206E3,2.3394512E3,6.908654E2,1.3070261E3,7.082809E0,5.159889E2,2.852762E2,1.3577797E3,2.9505386E2,1.6839908E3,1.1379017E3,1.8333042E3,3.146411E2,2.0248102E3,1.2099139E2,5.69874E2,1.0792961E3,2.2773001E2,2.0651557E0,5.0176535E0,3.8750647E2,1.284824E2],"tree_param":{"num_deleted":"0","num_feature":"113","num_nodes":"31","size_leaf_vector":"1"}},{"base_weights":[0E0],"categories":[],"categories_nodes":[],"categories_segments":[],"categories_sizes":[],"default_left":[0],"id":17,"left_children":[-1],"loss_changes":[0E0],"parents":[2147483647],"right_children":[-1],"split_conditions":[0E0],"split_indices":[0],"split_type":[0],"sum_hessian":[5.312806E-2],"tree_param":{"num_deleted":"0","num_feature":"113","num_nodes":"1","size_leaf_vector":"1"}},{"base_weights":[-2.4451227E-3,7.902984E-2,-9.507069E-2,1.3551855E-1,1.9070141E-2,-6.833059E-2,-2.422067E-1,3.1868196E-1,1.10661015E-1,-1.5193152E-1,5.1104423E-2,-2.6631389E-2,-1.23799436E-1,-5.59033E-1,-2.2275954E-1,2.028468E-2,8.72625E-5,4.193505E-3,1.061761E-2,6.827587E-3,-1.24194E-2,7.5877267E-3,-2.303376E-5,9.3286595E-4,-4.663481E-3,-1.9361175E-3,-8.067948E-3,-1.3825225E-2,-3.1411175E-2,-4.3828767E-3,-1.2863974E-2],"categories":[],"categories_nodes":[],"categories_segments":[],"categories_sizes":[],"default_left":[0,0,0,0,0,0,0,0,0,0,0,0,0,0,0,0,0,0,0,0,0,0,0,0,0,0,0,0,0,0,0],"id":18,"left_children":[1,3,5,7,9,11,13,15,17,19,21,23,25,27,29,-1,-1,-1,-1,-1,-1,-1,-1,-1,-1,-1,-1,-1,-1,-1,-1],"loss_changes":[8.65628E1,2.0649094E1,2.1073647E1,1.4221951E1,1.6223228E1,1.0493572E1,4.8780518E0,1.0280727E1,7.4924088E0,1.3042431E1,1.2969006E1,7.845831E0,6.201786E0,6.492882E-1,3.5754547E0,0E0,0E0,0E0,0E0,0E0,0E0,0E0,0E0,0E0,0E0,0E0,0E0,0E0,0E0,0E0,0E0],"parents":[2147483647,0,0,1,1,2,2,3,3,4,4,5,5,6,6,7,7,8,8,9,9,10,10,11,11,12,12,13,13,14,14],"right_children":[2,4,6,8,10,12,14,16,18,20,22,24,26,28,30,-1,-1,-1,-1,-1,-1,-1,-1,-1,-1,-1,-1,-1,-1,-1,-1],"split_conditions":[1.6554622E-2,1.7306167E-1,2.7437128E-2,-2.4882644E-1,-2.2913954E-1,2.904981E-4,-2.0388782E0,2.2132064E-3,1.9269102E-3,-1.7030943E-3,1.29125295E-2,3.5E1,-4.5173195E-1,-3.506502E-1,-1.977472E-1,2.028468E-2,8.72625E-5,4.193505E-3,1.061761E-2,6.827587E-3,-1.24194E-2,7.5877267E-3,-2.303376E-5,9.3286595E-4,-4.663481E-3,-1.9361175E-3,-8.067948E-3,-1.3825225E-2,-3.1411175E-2,-4.3828767E-3,-1.2863974E-2],"split_indices":[36,28,36,26,26,67,27,18,39,18,36,5,27,73,26,0,0,0,0,0,0,0,0,0,0,0,0,0,0,0,0],"split_type":[0,0,0,0,0,0,0,0,0,0,0,0,0,0,0,0,0,0,0,0,0,0,0,0,0,0,0,0,0,0,0],"sum_hessian":[1.146813E4,6.100818E3,5.367312E3,3.1398254E3,2.9609927E3,4.543697E3,8.2361523E2,3.733013E2,2.766524E3,4.6609177E2,2.4949011E3,2.5956653E3,1.9480316E3,4.572878E1,7.778864E2,2.9242383E2,8.087744E1,2.1918745E3,5.746495E2,1.1642724E2,3.4966452E2,8.4518256E2,1.6497185E3,1.5449232E3,1.0507422E3,5.980548E2,1.3499769E3,1.0263005E1,3.5465775E1,1.5961835E2,6.1826807E2],"tree_param":{"num_deleted":"0","num_feature":"113","num_nodes":"31","size_leaf_vector":"1"}},{"base_weights":[-9.3236676E-4,-7.758378E-2,8.036001E-2,-1.2125219E-1,-1.22463275E-2,1.3632633E-1,4.3855E-3,-2.040783E-1,-7.621045E-2,1.8457465E-1,-4.271332E-2,1.9242711E-2,1.718042E-1,-2.5944354E-2,1.3698027E-1,-1.730249E-2,-7.759485E-3,-9.798107E-3,-2.2294282E-3,-2.0598925E-3,1.3710841E-2,-5.831056E-3,4.6922397E-4,-6.749816E-3,5.825695E-3,7.2150216E-3,1.4667838E-2,9.948518E-3,-2.0943384E-3,7.5457953E-3,-2.5098775E-2],"categories":[],"categories_nodes":[],"categories_segments":[],"categories_sizes":[],"default_left":[0,0,0,0,0,0,0,0,0,0,0,0,0,0,0,0,0,0,0,0,0,0,0,0,0,0,0,0,0,0,0],"id":19,"left_children":[1,3,5,7,9,11,13,15,17,19,21,23,25,27,29,-1,-1,-1,-1,-1,-1,-1,-1,-1,-1,-1,-1,-1,-1,-1,-1],"loss_changes":[7.160381E1,1.6861984E1,2.3695309E1,1.3179409E1,1.4215394E1,1.3311939E1,9.534056E0,8.552429E0,8.670272E0,6.463582E0,7.924425E0,1.1240383E1,8.147469E0,6.9009967E0,3.971218E0,0E0,0E0,0E0,0E0,0E0,0E0,0E0,0E0,0E0,0E0,0E0,0E0,0E0,0E0,0E0,0E0],"parents":[2147483647,0,0,1,1,2,2,3,3,4,4,5,5,6,6,7,7,8,8,9,9,10,10,11,11,12,12,13,13,14,14],"right_children":[2,4,6,8,10,12,14,16,18,20,22,24,26,28,30,-1,-1,-1,-1,-1,-1,-1,-1,-1,-1,-1,-1,-1,-1,-1,-1],"split_conditions":[1.00309905E-2,3.3964762E-3,2.023E3,1.3661202E-2,-2.4354272E-1,1.9072166E-2,2.624672E-3,-3.772684E-3,-1.9021338E-1,-7.051734E-4,7.7493032E-3,-3.299548E-1,1.9100327E-2,-7.910101E-3,1.1808054E-3,-1.730249E-2,-7.759485E-3,-9.798107E-3,-2.2294282E-3,-2.0598925E-3,1.3710841E-2,-5.831056E-3,4.6922397E-4,-6.749816E-3,5.825695E-3,7.2150216E-3,1.4667838E-2,9.948518E-3,-2.0943384E-3,7.5457953E-3,-2.5098775E-2],"split_indices":[24,19,0,41,26,41,99,103,26,99,23,27,23,99,49,0,0,0,0,0,0,0,0,0,0,0,0,0,0,0,0],"split_type":[0,0,0,0,0,0,0,0,0,0,0,0,0,0,0,0,0,0,0,0,0,0,0,0,0,0,0,0,0,0,0],"sum_hessian":[1.1489263E4,5.914086E3,5.5751763E3,3.5434373E3,2.370649E3,3.2090972E3,2.3660793E3,1.246158E3,2.2972793E3,3.1665747E2,2.0539915E3,7.4728314E2,2.461814E3,1.9256536E3,4.4042572E2,3.1712103E2,9.290369E2,4.781545E2,1.8191248E3,8.983191E1,2.2682558E2,8.4951715E2,1.2044742E3,2.88463E2,4.5882013E2,2.0100161E3,4.5179785E2,1.2628456E2,1.799369E3,4.3192572E2,8.499995E0],"tree_param":{"num_deleted":"0","num_feature":"113","num_nodes":"31","size_leaf_vector":"1"}},{"base_weights":[0E0],"categories":[],"categories_nodes":[],"categories_segments":[],"categories_sizes":[],"default_left":[0],"id":20,"left_children":[-1],"loss_changes":[0E0],"parents":[2147483647],"right_children":[-1],"split_conditions":[0E0],"split_indices":[0],"split_type":[0],"sum_hessian":[5.304154E-2],"tree_param":{"num_deleted":"0","num_feature":"113","num_nodes":"1","size_leaf_vector":"1"}},{"base_weights":[1.4384378E-3,5.133729E-2,-1.3497339E-1,1.15140006E-1,1.0263593E-2,-1.06483646E-1,-2.1470742E-1,2.7653682E-1,7.293648E-2,5.920015E-2,-5.7498295E-2,6.7206967E-1,-1.1033119E-1,-4.9766445E-1,-1.9601555E-1,1.6055143E-2,1.0042208E-3,8.877109E-3,1.5683518E-3,-2.1293294E-3,5.292396E-3,-3.0793543E-3,4.8157554E-2,4.5639627E-2,-2.0285478E-2,9.933E-3,-5.879318E-3,-3.2270946E-2,-5.222875E-3,-5.438057E-3,-1.3034597E-2],"categories":[],"categories_nodes":[],"categories_segments":[],"categories_sizes":[],"default_left":[0,0,0,0,0,0,0,0,0,0,0,0,0,0,0,0,0,0,0,0,0,0,0,0,0,0,0,0,0,0,0],"id":21,"left_children":[1,3,5,7,9,11,13,15,17,19,21,23,25,27,29,-1,-1,-1,-1,-1,-1,-1,-1,-1,-1,-1,-1,-1,-1,-1,-1],"loss_changes":[7.838404E1,2.208541E1,6.950554E0,2.2433548E1,1.702226E1,6.8328476E0,4.116848E0,7.771412E0,1.1362203E1,1.416702E1,8.949166E0,3.3270621E0,5.0924835E0,2.7164326E0,4.233391E0,0E0,0E0,0E0,0E0,0E0,0E0,0E0,0E0,0E0,0E0,0E0,0E0,0E0,0E0,0E0,0E0],"parents":[2147483647,0,0,1,1,2,2,3,3,4,4,5,5,6,6,7,7,8,8,9,9,10,10,11,11,12,12,13,13,14,14],"right_children":[2,4,6,8,10,12,14,16,18,20,22,24,26,28,30,-1,-1,-1,-1,-1,-1,-1,-1,-1,-1,-1,-1,-1,-1,-1,-1],"split_conditions":[1.9626271E-2,-3.565865E-1,2.7437128E-2,-1.7195791E-1,1.4E1,-6.6727704E-1,-2.0388782E0,6.743238E-2,1.3513514E-2,-9.07564E-2,6.5032878E-6,5.96578E-1,-2.8146964E-2,-4.1986827E-2,-1.1643081E-2,1.6055143E-2,1.0042208E-3,8.877109E-3,1.5683518E-3,-2.1293294E-3,5.292396E-3,-3.0793543E-3,4.8157554E-2,4.5639627E-2,-2.0285478E-2,9.933E-3,-5.879318E-3,-3.2270946E-2,-5.222875E-3,-5.438057E-3,-1.3034597E-2],"split_indices":[36,27,36,26,4,26,27,45,41,26,100,38,50,40,20,0,0,0,0,0,0,0,0,0,0,0,0,0,0,0,0],"split_type":[0,0,0,0,0,0,0,0,0,0,0,0,0,0,0,0,0,0,0,0,0,0,0,0,0,0,0,0,0,0,0],"sum_hessian":[1.15147705E4,8.431809E3,3.0829622E3,3.3005657E3,5.1312427E3,2.2740217E3,8.0894037E2,6.825192E2,2.6180464E3,2.9804275E3,2.1508152E3,1.0200884E1,2.2638208E3,4.8207134E1,7.607333E2,5.809248E2,1.0159445E2,7.429086E2,1.8751378E3,9.359976E2,2.0444298E3,2.1432666E3,7.548438E0,8.5394535E0,1.66143E0,5.1013958E1,2.212807E3,3.4389088E1,1.38180485E1,3.2564108E2,4.3509216E2],"tree_param":{"num_deleted":"0","num_feature":"113","num_nodes":"31","size_leaf_vector":"1"}},{"base_weights":[1.9433099E-3,-6.3649796E-2,1.1616228E-1,-1.0974153E-1,-3.1465655E-3,6.811353E-2,1.8345687E-1,-1.459582E-1,-3.5844147E-2,4.5180216E-2,-7.600901E-2,-3.6213866E-3,1.0786635E-1,-1.3962723E-1,1.9208647E-1,-1.0372703E-2,-4.9471785E-3,-4.040091E-3,5.390595E-3,5.28603E-3,-1.0704875E-3,-8.504791E-3,-1.3989569E-3,-4.741305E-3,4.004158E-3,5.688003E-3,-2.15395E-2,-5.558823E-4,-4.3030962E-2,1.1941629E-2,6.834821E-3],"categories":[],"categories_nodes":[],"categories_segments":[],"categories_sizes":[],"default_left":[0,0,0,0,0,0,0,0,0,0,0,0,0,0,0,0,0,0,0,0,0,0,0,0,0,0,0,0,0,0,0],"id":22,"left_children":[1,3,5,7,9,11,13,15,17,19,21,23,25,27,29,-1,-1,-1,-1,-1,-1,-1,-1,-1,-1,-1,-1,-1,-1,-1,-1],"loss_changes":[8.603138E1,2.0327053E1,1.3507767E1,1.1053009E1,1.1117953E1,6.987563E0,4.893486E0,7.975479E0,8.811777E0,7.6583266E0,5.6673155E0,6.6694145E0,5.0178146E0,4.131893E0,4.3289757E0,0E0,0E0,0E0,0E0,0E0,0E0,0E0,0E0,0E0,0E0,0E0,0E0,0E0,0E0,0E0,0E0],"parents":[2147483647,0,0,1,1,2,2,3,3,4,4,5,5,6,6,7,7,8,8,9,9,10,10,11,11,12,12,13,13,14,14],"right_children":[2,4,6,8,10,12,14,16,18,20,22,24,26,28,30,-1,-1,-1,-1,-1,-1,-1,-1,-1,-1,-1,-1,-1,-1,-1,-1],"split_conditions":[1.788851E-2,2.502942E-1,2.275612E-2,9.16906E-3,9.9978524E-1,-5.3608817E-1,5.4087583E-2,1.4417395E-2,7.704095E-4,1.1489559E2,1.334466E-2,9.9687797E-1,1.0805032E-1,2.695836E-2,1.67615E-2,-1.0372703E-2,-4.9471785E-3,-4.040091E-3,5.390595E-3,5.28603E-3,-1.0704875E-3,-8.504791E-3,-1.3989569E-3,-4.741305E-3,4.004158E-3,5.688003E-3,-2.15395E-2,-5.558823E-4,-4.3030962E-2,1.1941629E-2,6.834821E-3],"split_indices":[36,27,36,23,25,27,43,41,65,30,36,25,42,20,108,0,0,0,0,0,0,0,0,0,0,0,0,0,0,0,0],"split_type":[0,0,0,0,0,0,0,0,0,0,0,0,0,0,0,0,0,0,0,0,0,0,0,0,0,0,0,0,0,0,0],"sum_hessian":[1.1480447E4,7.2922544E3,4.1881924E3,4.1376787E3,3.154576E3,2.4455518E3,1.7426407E3,2.7752275E3,1.3624509E3,1.896025E3,1.2585509E3,8.714296E2,1.5741222E3,4.4638794E1,1.698002E3,1.20003E3,1.5751975E3,1.0385627E3,3.2388818E2,9.936031E2,9.0242194E2,4.2377838E2,8.347725E2,4.1753937E2,4.5389026E2,1.5580492E3,1.607293E1,3.8865524E1,5.7732716E0,9.1807806E2,7.799239E2],"tree_param":{"num_deleted":"0","num_feature":"113","num_nodes":"31","size_leaf_vector":"1"}},{"base_weights":[0E0],"categories":[],"categories_nodes":[],"categories_segments":[],"categories_sizes":[],"default_left":[0],"id":23,"left_children":[-1],"loss_changes":[0E0],"parents":[2147483647],"right_children":[-1],"split_conditions":[0E0],"split_indices":[0],"split_type":[0],"sum_hessian":[5.311467E-2],"tree_param":{"num_deleted":"0","num_feature":"113","num_nodes":"1","size_leaf_vector":"1"}},{"base_weights":[3.3066174E-4,4.7011413E-2,-1.488292E-1,1.4814375E-1,1.7842097E-2,3.42336E-1,-1.5388228E-1,2.6434085E-1,9.661902E-2,6.5690726E-2,-4.18969E-2,8.185897E-1,-3.800282E-1,-1.2713298E-1,-2.3591226E-1,1.4560617E-2,-7.052819E-3,3.0850088E-3,1.4097581E-2,6.0261423E-3,7.394822E-4,-9.287907E-3,-9.5796026E-4,5.1556766E-2,-2.258244E-2,-2.653156E-2,2.1904113E-2,-9.011834E-3,-4.4595855E-3,-1.3381556E-2,-8.519968E-4],"categories":[],"categories_nodes":[],"categories_segments":[],"categories_sizes":[],"default_left":[0,0,0,0,0,0,0,0,0,0,0,0,0,0,0,0,0,0,0,0,0,0,0,0,0,0,0,0,0,0,0],"id":24,"left_children":[1,3,5,7,9,11,13,15,17,19,21,23,25,27,29,-1,-1,-1,-1,-1,-1,-1,-1,-1,-1,-1,-1,-1,-1,-1,-1],"loss_changes":[7.985391E1,2.5753006E1,6.8180313E0,1.1642048E1,1.9392797E1,9.968491E0,5.872505E0,6.585312E0,8.726827E0,1.0499651E1,9.842142E0,5.178544E0,1.6836007E0,4.075424E0,4.5729675E0,0E0,0E0,0E0,0E0,0E0,0E0,0E0,0E0,0E0,0E0,0E0,0E0,0E0,0E0,0E0,0E0],"parents":[2147483647,0,0,1,1,2,2,3,3,4,4,5,5,6,6,7,7,8,8,9,9,10,10,11,11,12,12,13,13,14,14],"right_children":[2,4,6,8,10,12,14,16,18,20,22,24,26,28,30,-1,-1,-1,-1,-1,-1,-1,-1,-1,-1,-1,-1,-1,-1,-1,-1],"split_conditions":[2.019535E-2,1.2862071E-2,-6.1921424E-1,-2.5943336E-3,2.5288665E-1,-1.8510085E-1,2.8367057E-2,8.354872E0,1.0209138E0,-2.5454715E-2,-2.4354272E-1,2.1888795E0,9.899493E-2,-4.5882277E-3,8.115299E-2,1.4560617E-2,-7.052819E-3,3.0850088E-3,1.4097581E-2,6.0261423E-3,7.394822E-4,-9.287907E-3,-9.5796026E-4,5.1556766E-2,-2.258244E-2,-2.653156E-2,2.1904113E-2,-9.011834E-3,-4.4595855E-3,-1.3381556E-2,-8.519968E-4],"split_indices":[36,36,26,103,28,27,36,31,25,26,26,68,39,71,40,0,0,0,0,0,0,0,0,0,0,0,0,0,0,0,0],"split_type":[0,0,0,0,0,0,0,0,0,0,0,0,0,0,0,0,0,0,0,0,0,0,0,0,0,0,0,0,0,0,0],"sum_hessian":[1.1467949E4,8.735471E3,2.7324788E3,1.9538411E3,6.7816294E3,2.6944033E1,2.705535E3,5.983617E2,1.3554794E3,3.7664348E3,3.0151948E3,1.6241356E1,1.0702678E1,2.0430742E3,6.6246063E2,5.6166077E2,3.6700924E1,1.1421561E3,2.1332323E2,1.8115974E3,1.9548374E3,4.099399E2,2.605255E3,1.4141977E1,2.0993788E0,9.438758E0,1.2639198E0,8.4875134E2,1.1943229E3,5.780153E2,8.4445305E1],"tree_param":{"num_deleted":"0","num_feature":"113","num_nodes":"31","size_leaf_vector":"1"}},{"base_weights":[-9.3505596E-4,-5.777593E-2,1.1270046E-1,-1.1926445E-1,-2.0824296E-2,9.22075E-2,2.3706397E-1,-2.0079108E-1,-6.713847E-2,-1.18150584E-1,9.836595E-3,5.852579E-2,1.753615E-1,1.19136155E-1,3.0447358E-1,2.86554E-2,-1.0397144E-2,-8.2191285E-3,-1.3886477E-3,-2.1656942E-2,-4.3491963E-3,-2.7396923E-3,2.2362273E-3,-1.4282031E-3,5.229689E-3,-2.494666E-2,9.228144E-3,-6.4559355E-3,1.1010307E-2,1.7024172E-2,3.046341E-3],"categories":[],"categories_nodes":[],"categories_segments":[],"categories_sizes":[],"default_left":[0,0,0,0,0,0,0,0,0,0,0,0,0,0,0,0,0,0,0,0,0,0,0,0,0,0,0,0,0,0,0],"id":25,"left_children":[1,3,5,7,9,11,13,15,17,19,21,23,25,27,29,-1,-1,-1,-1,-1,-1,-1,-1,-1,-1,-1,-1,-1,-1,-1,-1],"loss_changes":[7.394202E1,1.7323906E1,9.672157E0,1.2128872E1,1.4244156E1,9.150087E0,4.2030506E0,6.2570953E0,6.6714716E0,1.1135274E1,8.179483E0,9.383079E0,5.9171658E0,5.0076632E0,2.934372E0,0E0,0E0,0E0,0E0,0E0,0E0,0E0,0E0,0E0,0E0,0E0,0E0,0E0,0E0,0E0,0E0],"parents":[2147483647,0,0,1,1,2,2,3,3,4,4,5,5,6,6,7,7,8,8,9,9,10,10,11,11,12,12,13,13,14,14],"right_children":[2,4,6,8,10,12,14,16,18,20,22,24,26,28,30,-1,-1,-1,-1,-1,-1,-1,-1,-1,-1,-1,-1,-1,-1,-1,-1],"split_conditions":[1.8313903E-2,1.3699258E-2,2.9454457E-2,-4.841052E-4,1.3661202E-2,1.0502283E-3,7E0,-4.7476884E-2,-2.8223072E-3,-8.695707E-3,-5.653136E-1,9.907139E-1,-4.5877657E0,-1.3652152E-1,8.458193E-2,2.86554E-2,-1.0397144E-2,-8.2191285E-3,-1.3886477E-3,-2.1656942E-2,-4.3491963E-3,-2.7396923E-3,2.2362273E-3,-1.4282031E-3,5.229689E-3,-2.494666E-2,9.228144E-3,-6.4559355E-3,1.1010307E-2,1.7024172E-2,3.046341E-3],"split_indices":[36,36,36,99,41,65,4,105,104,18,27,25,34,26,40,0,0,0,0,0,0,0,0,0,0,0,0,0,0,0,0],"split_type":[0,0,0,0,0,0,0,0,0,0,0,0,0,0,0,0,0,0,0,0,0,0,0,0,0,0,0,0,0,0,0],"sum_hessian":[1.1446495E4,7.6308765E3,3.815619E3,2.8625618E3,4.768315E3,3.2780056E3,5.376133E2,1.1145701E3,1.7479918E3,1.1424058E3,3.6259092E3,2.3350818E3,9.429237E2,1.9708293E2,3.4053036E2,9.353085E0,1.1052169E3,5.0205536E2,1.2459365E3,1.01408356E2,1.0409974E3,1.2699224E3,2.3559866E3,8.0723773E2,1.5278441E3,1.1831038E1,9.3109265E2,5.665534E1,1.4042758E2,2.959619E2,4.456843E1],"tree_param":{"num_deleted":"0","num_feature":"113","num_nodes":"31","size_leaf_vector":"1"}},{"base_weights":[0E0],"categories":[],"categories_nodes":[],"categories_segments":[],"categories_sizes":[],"default_left":[0],"id":26,"left_children":[-1],"loss_changes":[0E0],"parents":[2147483647],"right_children":[-1],"split_conditions":[0E0],"split_indices":[0],"split_type":[0],"sum_hessian":[5.282243E-2],"tree_param":{"num_deleted":"0","num_feature":"113","num_nodes":"1","size_leaf_vector":"1"}},{"base_weights":[-7.916611E-4,4.489303E-2,-1.2772459E-1,1.05272725E-1,5.608843E-3,-6.8537675E-2,-1.7235006E-1,1.4403777E-1,3.6445186E-2,5.567068E-2,-5.8084007E-2,7.7881515E-1,-7.609155E-2,-5.345387E-1,-1.6418466E-1,6.932996E-3,4.0029816E-2,-7.568057E-3,4.6517537E-3,1.6695393E-2,2.1716473E-3,-9.704549E-3,-1.8223576E-3,5.3878706E-2,-9.568535E-3,1.5004783E-2,-4.3236013E-3,3.0400117E-3,-2.9014383E-2,8.389353E-3,-8.592009E-3],"categories":[],"categories_nodes":[],"categories_segments":[],"categories_sizes":[],"default_left":[0,0,0,0,0,0,0,0,0,0,0,0,0,0,0,0,0,0,0,0,0,0,0,0,0,0,0,0,0,0,0],"id":27,"left_children":[1,3,5,7,9,11,13,15,17,19,21,23,25,27,29,-1,-1,-1,-1,-1,-1,-1,-1,-1,-1,-1,-1,-1,-1,-1,-1],"loss_changes":[6.675303E1,2.0062645E1,8.011372E0,8.874378E0,1.6358242E1,8.388945E0,4.9747963E0,7.323021E0,1.2802067E1,9.731563E0,6.611546E0,3.6477408E0,5.0879683E0,1.1099186E0,4.3468323E0,0E0,0E0,0E0,0E0,0E0,0E0,0E0,0E0,0E0,0E0,0E0,0E0,0E0,0E0,0E0,0E0],"parents":[2147483647,0,0,1,1,2,2,3,3,4,4,5,5,6,6,7,7,8,8,9,9,10,10,11,11,12,12,13,13,14,14],"right_children":[2,4,6,8,10,12,14,16,18,20,22,24,26,28,30,-1,-1,-1,-1,-1,-1,-1,-1,-1,-1,-1,-1,-1,-1,-1,-1],"split_conditions":[1.9626271E-2,1.4051698E-2,2.275612E-2,5.5089664E-1,2.72086E-1,-6.1921424E-1,-9.063772E-2,6.321002E-6,-1.5303981E-1,-4.3678612E-1,-2.4354272E-1,1.2303909E-3,-2.8146964E-2,-1.4497659E1,1.5041322E-2,6.932996E-3,4.0029816E-2,-7.568057E-3,4.6517537E-3,1.6695393E-2,2.1716473E-3,-9.704549E-3,-1.8223576E-3,5.3878706E-2,-9.568535E-3,1.5004783E-2,-4.3236013E-3,3.0400117E-3,-2.9014383E-2,8.389353E-3,-8.592009E-3],"split_indices":[36,36,36,27,28,26,20,100,26,26,26,19,50,34,41,0,0,0,0,0,0,0,0,0,0,0,0,0,0,0,0],"split_type":[0,0,0,0,0,0,0,0,0,0,0,0,0,0,0,0,0,0,0,0,0,0,0,0,0,0,0,0,0,0,0],"sum_hessian":[1.1507926E4,8.462153E3,3.0457727E3,3.3338337E3,5.1283193E3,1.3113293E3,1.7344434E3,2.1310427E3,1.2027911E3,2.872368E3,2.2559514E3,1.0567655E1,1.3007617E3,3.654897E1,1.6978944E3,2.1150818E3,1.5961027E1,2.7770908E2,9.250821E2,1.19561455E2,2.7528064E3,3.0790448E2,1.948047E3,8.073795E0,2.4938595E0,3.392111E1,1.2668406E3,2.4287243E0,3.4120247E1,3.7506195E1,1.6603882E3],"tree_param":{"num_deleted":"0","num_feature":"113","num_nodes":"31","size_leaf_vector":"1"}},{"base_weights":[-1.7823829E-4,-6.823477E-2,9.095538E-2,-1.1363088E-1,-6.192777E-3,6.49603E-2,2.2389324E-1,-1.5210757E-1,-5.1801223E-2,1.654386E-1,-3.974371E-2,3.810698E-2,1.470887E-1,2.6493818E-1,8.817878E-2,-1.4351114E-2,-6.1126333E-3,-5.3496966E-3,9.868761E-4,-4.7261592E-2,8.756794E-3,4.5364364E-3,-3.7204132E-3,-2.1240255E-3,3.7915458E-3,8.20504E-3,-1.2392431E-2,1.0926011E-2,1.9666804E-2,-6.651727E-3,9.15461E-3],"categories":[],"categories_nodes":[],"categories_segments":[],"categories_sizes":[],"default_left":[0,0,0,0,0,0,0,0,0,0,0,0,0,0,0,0,0,0,0,0,0,0,0,0,0,0,0,0,0,0,0],"id":28,"left_children":[1,3,5,7,9,11,13,15,17,19,21,23,25,27,29,-1,-1,-1,-1,-1,-1,-1,-1,-1,-1,-1,-1,-1,-1,-1,-1],"loss_changes":[7.07501E1,1.8382366E1,1.6807743E1,8.941982E0,1.5896711E1,8.975685E0,4.3783035E0,9.27956E0,5.731632E0,4.9490995E0,1.0458915E1,9.362474E0,6.779516E0,3.4914513E0,3.9561625E0,0E0,0E0,0E0,0E0,0E0,0E0,0E0,0E0,0E0,0E0,0E0,0E0,0E0,0E0,0E0,0E0],"parents":[2147483647,0,0,1,1,2,2,3,3,4,4,5,5,6,6,7,7,8,8,9,9,10,10,11,11,12,12,13,13,14,14],"right_children":[2,4,6,8,10,12,14,16,18,20,22,24,26,28,30,-1,-1,-1,-1,-1,-1,-1,-1,-1,-1,-1,-1,-1,-1,-1,-1],"split_conditions":[1.6995484E-2,3.205131E-3,2.7437128E-2,2.6631157E-4,-2.1087629E-1,1.2536095E-3,2.557403E-2,-1.977472E-1,1.4430226E-2,-1.1448598E-1,3.6553524E-3,9.889009E-1,3.995414E-2,1.9395748E-2,4E0,-1.4351114E-2,-6.1126333E-3,-5.3496966E-3,9.868761E-4,-4.7261592E-2,8.756794E-3,4.5364364E-3,-3.7204132E-3,-2.1240255E-3,3.7915458E-3,8.20504E-3,-1.2392431E-2,1.0926011E-2,1.9666804E-2,-6.651727E-3,9.15461E-3],"split_indices":[36,19,36,99,26,65,42,26,36,44,39,25,104,52,4,0,0,0,0,0,0,0,0,0,0,0,0,0,0,0,0],"split_type":[0,0,0,0,0,0,0,0,0,0,0,0,0,0,0,0,0,0,0,0,0,0,0,0,0,0,0,0,0,0,0],"sum_hessian":[1.1405554E4,6.5302544E3,4.875299E3,3.7695977E3,2.7606567E3,4.0797693E3,7.9552954E2,2.3217144E3,1.4478833E3,4.50286E2,2.3103708E3,3.0765266E3,1.00324274E3,6.0950446E2,1.8602505E2,4.1850784E2,1.9032065E3,8.1782623E2,6.3005707E2,2.9731417E0,4.4731287E2,4.8403394E2,1.8263369E3,9.800737E2,2.096453E3,9.626153E2,4.0627388E1,4.5022244E2,1.5928204E2,5.541497E1,1.3061009E2],"tree_param":{"num_deleted":"0","num_feature":"113","num_nodes":"31","size_leaf_vector":"1"}},{"base_weights":[0E0],"categories":[],"categories_nodes":[],"categories_segments":[],"categories_sizes":[],"default_left":[0],"id":29,"left_children":[-1],"loss_changes":[0E0],"parents":[2147483647],"right_children":[-1],"split_conditions":[0E0],"split_indices":[0],"split_type":[0],"sum_hessian":[5.297579E-2],"tree_param":{"num_deleted":"0","num_feature":"113","num_nodes":"1","size_leaf_vector":"1"}},{"base_weights":[-3.1248347E-3,4.648397E-2,-1.03301145E-1,8.913708E-2,2.24137E-4,-1.3699295E-1,-1.4120661E-2,1.2936991E-1,2.5179094E-2,6.05918E-2,-3.849878E-2,-6.305606E-2,-1.9409922E-1,3.466208E-1,-3.6069784E-2,2.2340075E-3,8.197679E-3,-2.2536663E-3,6.0742632E-3,1.3174153E-2,7.185002E-4,-2.9688915E-3,4.5678527E-3,2.5101287E-2,-4.285156E-3,-1.3765802E-2,-7.46479E-3,2.4425862E-2,-9.47384E-3,1.7073127E-2,-2.5237E-3],"categories":[],"categories_nodes":[],"categories_segments":[],"categories_sizes":[],"default_left":[0,0,0,0,0,0,0,0,0,0,0,0,0,0,0,0,0,0,0,0,0,0,0,0,0,0,0,0,0,0,0],"id":30,"left_children":[1,3,5,7,9,11,13,15,17,19,21,23,25,27,29,-1,-1,-1,-1,-1,-1,-1,-1,-1,-1,-1,-1,-1,-1,-1,-1],"loss_changes":[5.7037247E1,1.5133881E1,1.1405193E1,1.0253042E1,8.6157E0,1.1607899E1,8.250263E0,7.1451836E0,1.0456844E1,1.3481571E1,6.085767E0,1.5412329E1,5.574707E0,4.666084E0,5.347787E0,0E0,0E0,0E0,0E0,0E0,0E0,0E0,0E0,0E0,0E0,0E0,0E0,0E0,0E0,0E0,0E0],"parents":[2147483647,0,0,1,1,2,2,3,3,4,4,5,5,6,6,7,7,8,8,9,9,10,10,11,11,12,12,13,13,14,14],"right_children":[2,4,6,8,10,12,14,16,18,20,22,24,26,28,30,-1,-1,-1,-1,-1,-1,-1,-1,-1,-1,-1,-1,-1,-1,-1,-1],"split_conditions":[1.8313903E-2,8.858706E-3,2.023E3,3.3964762E-3,-2.6673796E-3,-3.0020252E-1,-4.5092395E-4,5.3414047E-2,1.0006254E-2,-1.7875318E-1,1.0263844E0,-4.098984E-1,1.9071837E-3,1.3120624E-3,-5.055364E-1,2.2340075E-3,8.197679E-3,-2.2536663E-3,6.0742632E-3,1.3174153E-2,7.185002E-4,-2.9688915E-3,4.5678527E-3,2.5101287E-2,-4.285156E-3,-1.3765802E-2,-7.46479E-3,2.4425862E-2,-9.47384E-3,1.7073127E-2,-2.5237E-3],"split_indices":[36,24,0,19,18,27,50,66,42,26,25,26,37,65,26,0,0,0,0,0,0,0,0,0,0,0,0,0,0,0,0],"split_type":[0,0,0,0,0,0,0,0,0,0,0,0,0,0,0,0,0,0,0,0,0,0,0,0,0,0,0,0,0,0,0],"sum_hessian":[1.147406E4,7.6735435E3,3.8005159E3,3.9908025E3,3.682741E3,2.7572043E3,1.0433114E3,2.4481833E3,1.5426191E3,1.4399412E3,2.2427998E3,1.2032206E3,1.5539839E3,5.872917E1,9.845822E2,7.1136053E2,1.7368229E3,8.916681E2,6.5095105E2,2.65901E2,1.1740402E3,1.9332693E3,3.0953058E2,4.537811E1,1.1578424E3,5.4985846E2,1.00412537E3,4.66555E1,1.2073675E1,3.5095154E1,9.4948706E2],"tree_param":{"num_deleted":"0","num_feature":"113","num_nodes":"31","size_leaf_vector":"1"}},{"base_weights":[4.4672373E-3,7.872728E-2,-5.087264E-2,1.2604779E-1,7.219708E-3,-9.2139415E-2,-3.6186932E-4,-2.4244135E-2,1.4665353E-1,-2.42891E-2,1.22393616E-1,-5.589947E-1,-8.571445E-2,3.0360064E-1,-1.1478909E-2,-9.275238E-3,2.8135302E-3,4.619478E-3,1.0409652E-2,1.12679275E-2,-2.2538153E-3,6.9378554E-3,-2.7181584E-2,-4.6608504E-2,-2.2551813E-4,-7.104466E-4,-6.236618E-3,1.89124E-2,-1.9581905E-2,1.444477E-3,-3.5692581E-3],"categories":[],"categories_nodes":[],"categories_segments":[],"categories_sizes":[],"default_left":[0,0,0,0,0,0,0,0,0,0,0,0,0,0,0,0,0,0,0,0,0,0,0,0,0,0,0,0,0,0,0],"id":31,"left_children":[1,3,5,7,9,11,13,15,17,19,21,23,25,27,29,-1,-1,-1,-1,-1,-1,-1,-1,-1,-1,-1,-1,-1,-1,-1,-1],"loss_changes":[4.6896645E1,1.6475903E1,1.3618013E1,9.094959E0,7.0623856E0,1.0676929E1,9.914757E0,4.616538E0,8.56282E0,7.908402E0,4.591947E0,9.924983E0,9.8876E0,5.5188284E0,6.872383E0,0E0,0E0,0E0,0E0,0E0,0E0,0E0,0E0,0E0,0E0,0E0,0E0,0E0,0E0,0E0,0E0],"parents":[2147483647,0,0,1,1,2,2,3,3,4,4,5,5,6,6,7,7,8,8,9,9,10,10,11,11,12,12,13,13,14,14],"right_children":[2,4,6,8,10,12,14,16,18,20,22,24,26,28,30,-1,-1,-1,-1,-1,-1,-1,-1,-1,-1,-1,-1,-1,-1,-1,-1],"split_conditions":[9.547146E1,2.023E3,3.966292E-3,1.0243613E-2,2.7476286E-3,-6.1921424E-1,-4.8452875E-1,-7.6639634E-3,8.04829E-4,-7.542676E-3,8.9114025E-2,-8.5477397E-4,-1.9273536E-2,3.4766325E-1,1.2337386E2,-9.275238E-3,2.8135302E-3,4.619478E-3,1.0409652E-2,1.12679275E-2,-2.2538153E-3,6.9378554E-3,-2.7181584E-2,-4.6608504E-2,-2.2551813E-4,-7.104466E-4,-6.236618E-3,1.89124E-2,-1.9581905E-2,1.444477E-3,-3.5692581E-3],"split_indices":[30,0,21,23,101,26,26,105,18,99,52,18,44,75,30,0,0,0,0,0,0,0,0,0,0,0,0,0,0,0,0],"split_type":[0,0,0,0,0,0,0,0,0,0,0,0,0,0,0,0,0,0,0,0,0,0,0,0,0,0,0,0,0,0,0],"sum_hessian":[1.1408997E4,4.8722954E3,6.5367017E3,2.9307168E3,1.9415782E3,3.5960015E3,2.9407002E3,3.5276062E2,2.5779563E3,1.5244471E3,4.1713113E2,4.7438324E1,3.548563E3,1.0251188E2,2.8381882E3,1.1745382E2,2.353068E2,1.3721528E3,1.2058035E3,1.1605169E2,1.4083954E3,4.0804767E2,9.083465E0,2.784008E1,1.9598244E1,1.2541299E3,2.294433E3,9.311406E1,9.397817E0,1.6949064E3,1.1432819E3],"tree_param":{"num_deleted":"0","num_feature":"113","num_nodes":"31","size_leaf_vector":"1"}},{"base_weights":[0E0],"categories":[],"categories_nodes":[],"categories_segments":[],"categories_sizes":[],"default_left":[0],"id":32,"left_children":[-1],"loss_changes":[0E0],"parents":[2147483647],"right_children":[-1],"split_conditions":[0E0],"split_indices":[0],"split_type":[0],"sum_hessian":[5.309383E-2],"tree_param":{"num_deleted":"0","num_feature":"113","num_nodes":"1","size_leaf_vector":"1"}},{"base_weights":[-3.624743E-3,6.826034E-2,-5.565009E-2,9.194618E-2,-4.7661435E-2,-1.5649238E-1,-3.338115E-2,8.8475905E-2,6.85483E-1,-1.9295758E-1,2.9015557E-3,-3.9209697E-1,-1.3496736E-1,-7.1294904E-3,-1.074202E-1,6.5713623E-3,1.8028714E-3,-2.7585594E-2,4.7087107E-2,3.5143413E-2,-1.125193E-2,-1.0438538E-3,1.5620626E-2,1.3983777E-3,-2.2653203E-2,2.7385427E-2,-7.108019E-3,-1.7384687E-2,-3.3191787E-5,3.932869E-3,-6.280289E-3],"categories":[],"categories_nodes":[],"categories_segments":[],"categories_sizes":[],"default_left":[0,0,0,0,0,0,0,0,0,0,0,0,0,0,0,0,0,0,0,0,0,0,0,0,0,0,0,0,0,0,0],"id":33,"left_children":[1,3,5,7,9,11,13,15,17,19,21,23,25,27,29,-1,-1,-1,-1,-1,-1,-1,-1,-1,-1,-1,-1,-1,-1,-1,-1],"loss_changes":[4.2817596E1,1.3205688E1,1.4893589E1,8.084381E0,6.0099306E0,5.982727E0,1.0567917E1,8.916956E0,7.815302E0,6.1750975E0,4.491009E0,2.6055822E0,5.448406E0,8.81831E0,4.8325596E0,0E0,0E0,0E0,0E0,0E0,0E0,0E0,0E0,0E0,0E0,0E0,0E0,0E0,0E0,0E0,0E0],"parents":[2147483647,0,0,1,1,2,2,3,3,4,4,5,5,6,6,7,7,8,8,9,9,10,10,11,11,12,12,13,13,14,14],"right_children":[2,4,6,8,10,12,14,16,18,20,22,24,26,28,30,-1,-1,-1,-1,-1,-1,-1,-1,-1,-1,-1,-1,-1,-1,-1,-1],"split_conditions":[9.307178E-3,1.3399354E-2,2.022E3,1.8097793E0,1.0572687E-2,-1.2244223E-2,1.5822785E-3,1.6542034E-2,-4.5130295E-3,-3.5196245E-2,2.3996716E0,-1.812999E-1,1.203114E-2,-3.791982E-2,-1.2840669E0,6.5713623E-3,1.8028714E-3,-2.7585594E-2,4.7087107E-2,3.5143413E-2,-1.125193E-2,-1.0438538E-3,1.5620626E-2,1.3983777E-3,-2.2653203E-2,2.7385427E-2,-7.108019E-3,-1.7384687E-2,-3.3191787E-5,3.932869E-3,-6.280289E-3],"split_indices":[24,19,0,27,39,69,99,41,42,39,68,110,41,103,27,0,0,0,0,0,0,0,0,0,0,0,0,0,0,0,0],"split_type":[0,0,0,0,0,0,0,0,0,0,0,0,0,0,0,0,0,0,0,0,0,0,0,0,0,0,0,0,0,0,0],"sum_hessian":[1.1447348E4,4.805374E3,6.641973E3,3.9909822E3,8.143921E2,1.1995289E3,5.4424443E3,3.9690933E3,2.1888823E1,2.10027E2,6.0436505E2,9.858574E1,1.1009432E3,4.0196602E3,1.422784E3,2.179671E3,1.7894224E3,3.491074E0,1.8397749E1,6.430705E0,2.0359628E2,5.618125E2,4.255261E1,1.2355702E1,8.6230034E1,1.0550702E1,1.0903926E3,7.3620476E1,3.9460396E3,1.25885086E2,1.296899E3],"tree_param":{"num_deleted":"0","num_feature":"113","num_nodes":"31","size_leaf_vector":"1"}},{"base_weights":[-8.8321953E-4,-7.3267005E-2,5.515981E-2,-1.04992524E-1,2.7764637E-3,2.2154214E-2,1.425556E-1,-1.5482122E-1,-4.187733E-2,-2.1972361E-1,2.2130575E-2,7.6370863E-3,2.0723675E-1,1.5385036E-1,-1.066391E-1,-8.884418E-3,-2.1795833E-3,-3.7437615E-3,3.972396E-3,7.186004E-3,-1.9304246E-2,1.7321295E-3,-1.5047188E-2,4.7912407E-3,-8.998561E-4,-5.677694E-3,1.2597053E-2,4.0642237E-3,1.0407991E-2,7.545398E-4,-3.1059945E-2],"categories":[],"categories_nodes":[],"categories_segments":[],"categories_sizes":[],"default_left":[0,0,0,0,0,0,0,0,0,0,0,0,0,0,0,0,0,0,0,0,0,0,0,0,0,0,0,0,0,0,0],"id":34,"left_children":[1,3,5,7,9,11,13,15,17,19,21,23,25,27,29,-1,-1,-1,-1,-1,-1,-1,-1,-1,-1,-1,-1,-1,-1,-1,-1],"loss_changes":[4.62848E1,1.2023813E1,1.8527222E1,1.102713E1,6.297931E0,1.2522335E1,4.9792137E0,4.9624634E0,6.2222433E0,7.153252E0,5.440774E0,9.800498E0,4.9047318E0,6.598587E0,4.867232E0,0E0,0E0,0E0,0E0,0E0,0E0,0E0,0E0,0E0,0E0,0E0,0E0,0E0,0E0,0E0,0E0],"parents":[2147483647,0,0,1,1,2,2,3,3,4,4,5,5,6,6,7,7,8,8,9,9,10,10,11,11,12,12,13,13,14,14],"right_children":[2,4,6,8,10,12,14,16,18,20,22,24,26,28,30,-1,-1,-1,-1,-1,-1,-1,-1,-1,-1,-1,-1,-1,-1,-1,-1],"split_conditions":[9.16906E-3,2.5107681E-3,1.0502283E-3,7.475055E-2,5.3627603E-3,1.9100327E-2,3.995414E-2,8.925265E-4,7.0710677E-1,5.4237906E-2,1.01834354E-4,-1.2244898E-2,1E0,2.022537E-3,6.8997665E1,-8.884418E-3,-2.1795833E-3,-3.7437615E-3,3.972396E-3,7.186004E-3,-1.9304246E-2,1.7321295E-3,-1.5047188E-2,4.7912407E-3,-8.998561E-4,-5.677694E-3,1.2597053E-2,4.0642237E-3,1.0407991E-2,7.545398E-4,-3.1059945E-2],"split_indices":[23,103,65,38,23,23,104,65,7,66,48,37,3,99,33,0,0,0,0,0,0,0,0,0,0,0,0,0,0,0,0],"split_type":[0,0,0,0,0,0,0,0,0,0,0,0,0,0,0,0,0,0,0,0,0,0,0,0,0,0,0,0,0,0,0],"sum_hessian":[1.1407291E4,4.9785703E3,6.4287207E3,3.5136157E3,1.4649547E3,4.6681577E3,1.7605629E3,1.961778E3,1.5518378E3,1.1598942E2,1.3489653E3,4.3301035E3,3.380543E2,1.6849752E3,7.5587685E1,1.6259999E3,3.35778E2,1.2209675E3,3.3087024E2,3.627522E1,7.9714195E1,1.2998279E3,4.9137398E1,9.7545856E2,3.354645E3,4.088603E1,2.9716827E2,7.231165E2,9.618587E2,6.1754658E1,1.3833027E1],"tree_param":{"num_deleted":"0","num_feature":"113","num_nodes":"31","size_leaf_vector":"1"}},{"base_weights":[0E0],"categories":[],"categories_nodes":[],"categories_segments":[],"categories_sizes":[],"default_left":[0],"id":35,"left_children":[-1],"loss_changes":[0E0],"parents":[2147483647],"right_children":[-1],"split_conditions":[0E0],"split_indices":[0],"split_type":[0],"sum_hessian":[5.3120766E-2],"tree_param":{"num_deleted":"0","num_feature":"113","num_nodes":"1","size_leaf_vector":"1"}},{"base_weights":[1.5036189E-3,6.92182E-2,-7.145659E-2,1.2116884E-1,3.1427465E-2,-3.552212E-2,-1.3925098E-1,2.1917403E-1,6.981488E-2,5.354375E-1,2.6539661E-2,-8.366497E-3,-1.3324642E-1,-1.9045803E-1,-8.254694E-2,8.907273E-3,2.2537803E-2,1.2158348E-2,1.2546133E-3,4.472742E-2,-1.5611567E-3,-3.332279E-3,2.6623323E-3,1.0902245E-3,-4.6436205E-3,2.35674E-3,-8.744494E-3,-9.884008E-3,3.246052E-2,-1.4338661E-3,-9.994072E-3],"categories":[],"categories_nodes":[],"categories_segments":[],"categories_sizes":[],"default_left":[0,0,0,0,0,0,0,0,0,0,0,0,0,0,0,0,0,0,0,0,0,0,0,0,0,0,0,0,0,0,0],"id":36,"left_children":[1,3,5,7,9,11,13,15,17,19,21,23,25,27,29,-1,-1,-1,-1,-1,-1,-1,-1,-1,-1,-1,-1,-1,-1,-1,-1],"loss_changes":[5.6467525E1,1.16203E1,1.3378901E1,1.2513618E1,8.390483E0,9.531963E0,5.486664E0,7.997257E0,1.2676651E1,6.776376E0,8.470642E0,7.1918697E0,5.8910265E0,6.1413803E0,5.700448E0,0E0,0E0,0E0,0E0,0E0,0E0,0E0,0E0,0E0,0E0,0E0,0E0,0E0,0E0,0E0,0E0],"parents":[2147483647,0,0,1,1,2,2,3,3,4,4,5,5,6,6,7,7,8,8,9,9,10,10,11,11,12,12,13,13,14,14],"right_children":[2,4,6,8,10,12,14,16,18,20,22,24,26,28,30,-1,-1,-1,-1,-1,-1,-1,-1,-1,-1,-1,-1,-1,-1,-1,-1],"split_conditions":[1.6288307E-2,-1.7030943E-3,2.2077674E-2,1.3661202E-2,8.948985E-3,1.8E1,1.67615E-2,-9.893154E-4,-1.9021338E-1,-9.227971E-1,-1.5303981E-1,1.0502283E-3,-2.5957251E-2,3.4559155E-1,2.021884E-2,8.907273E-3,2.2537803E-2,1.2158348E-2,1.2546133E-3,4.472742E-2,-1.5611567E-3,-3.332279E-3,2.6623323E-3,1.0902245E-3,-4.6436205E-3,2.35674E-3,-8.744494E-3,-9.884008E-3,3.246052E-2,-1.4338661E-3,-9.994072E-3],"split_indices":[36,18,36,41,36,4,108,37,26,32,26,65,106,109,51,0,0,0,0,0,0,0,0,0,0,0,0,0,0,0,0],"split_type":[0,0,0,0,0,0,0,0,0,0,0,0,0,0,0,0,0,0,0,0,0,0,0,0,0,0,0,0,0,0,0],"sum_hessian":[1.142763E4,5.9276147E3,5.5000146E3,2.494118E3,3.433497E3,3.5966216E3,1.9033933E3,8.55756E2,1.6383618E3,3.173861E1,3.4017583E3,2.8161726E3,7.804489E2,9.980098E2,9.053834E2,7.288324E2,1.2692357E2,3.3462567E2,1.3037361E3,1.9180902E1,1.2557706E1,7.566025E2,2.6451558E3,2.0749246E3,7.4124786E2,1.4590765E2,6.345413E2,9.903751E2,7.634727E0,6.219402E2,2.8344324E2],"tree_param":{"num_deleted":"0","num_feature":"113","num_nodes":"31","size_leaf_vector":"1"}},{"base_weights":[-6.8197655E-3,-6.877405E-2,6.630728E-2,-1.1036406E-1,-1.2603406E-2,2.0620167E-2,1.2194757E-1,-1.4185438E-1,-4.3627445E-2,1.6622195E-1,-4.5494605E-2,-2.577437E-2,8.043785E-2,8.722823E-2,2.1922025E-1,-9.328197E-3,-3.8535593E-3,-1.1706837E-2,1.6503024E-4,-9.970838E-3,1.0532543E-2,3.1446263E-3,-4.1415333E-3,9.159184E-3,-2.1943876E-3,-7.813126E-3,4.985581E-3,3.2369073E-3,1.2443502E-2,1.2710549E-2,-5.8500376E-5],"categories":[],"categories_nodes":[],"categories_segments":[],"categories_sizes":[],"default_left":[0,0,0,0,0,0,0,0,0,0,0,0,0,0,0,0,0,0,0,0,0,0,0,0,0,0,0,0,0,0,0],"id":37,"left_children":[1,3,5,7,9,11,13,15,17,19,21,23,25,27,29,-1,-1,-1,-1,-1,-1,-1,-1,-1,-1,-1,-1,-1,-1,-1,-1],"loss_changes":[5.1654015E1,1.4406872E1,1.327412E1,7.42651E0,1.5454191E1,7.981265E0,7.907818E0,6.932274E0,1.0207957E1,6.6719036E0,8.995775E0,6.118024E0,5.7409534E0,6.2738934E0,4.794224E0,0E0,0E0,0E0,0E0,0E0,0E0,0E0,0E0,0E0,0E0,0E0,0E0,0E0,0E0,0E0,0E0],"parents":[2147483647,0,0,1,1,2,2,3,3,4,4,5,5,6,6,7,7,8,8,9,9,10,10,11,11,12,12,13,13,14,14],"right_children":[2,4,6,8,10,12,14,16,18,20,22,24,26,28,30,-1,-1,-1,-1,-1,-1,-1,-1,-1,-1,-1,-1,-1,-1,-1,-1],"split_conditions":[1.6554622E-2,3.001074E-3,2.0834517E-2,1.9823067E-2,-2.1926884E-1,1.5348801E-4,1.4656758E-3,1.3070187E-4,-2.4354272E-1,-1.5972622E-3,4.898959E-3,-6.3202125E-1,-2.3812197E-2,3.166828E-2,7.5653926E-2,-9.328197E-3,-3.8535593E-3,-1.1706837E-2,1.6503024E-4,-9.970838E-3,1.0532543E-2,3.1446263E-3,-4.1415333E-3,9.159184E-3,-2.1943876E-3,-7.813126E-3,4.985581E-3,3.2369073E-3,1.2443502E-2,1.2710549E-2,-5.8500376E-5],"split_indices":[36,19,36,41,26,65,65,99,26,20,39,107,19,36,44,0,0,0,0,0,0,0,0,0,0,0,0,0,0,0,0],"split_type":[0,0,0,0,0,0,0,0,0,0,0,0,0,0,0,0,0,0,0,0,0,0,0,0,0,0,0,0,0,0,0],"sum_hessian":[1.1399248E4,6.1718203E3,5.227428E3,3.5445847E3,2.6272354E3,2.8721934E3,2.3552346E3,2.406453E3,1.1381318E3,4.0705173E2,2.2201836E3,1.6169702E3,1.2552233E3,1.7378662E3,6.173684E2,1.4217919E3,9.84661E2,2.2457756E2,9.135543E2,4.3480343E1,3.6357138E2,5.6797656E2,1.652207E3,1.278176E2,1.4891526E3,9.35872E1,1.1616361E3,1.5273737E3,2.1049246E2,5.330395E2,8.432892E1],"tree_param":{"num_deleted":"0","num_feature":"113","num_nodes":"31","size_leaf_vector":"1"}},{"base_weights":[0E0],"categories":[],"categories_nodes":[],"categories_segments":[],"categories_sizes":[],"default_left":[0],"id":38,"left_children":[-1],"loss_changes":[0E0],"parents":[2147483647],"right_children":[-1],"split_conditions":[0E0],"split_indices":[0],"split_type":[0],"sum_hessian":[5.316297E-2],"tree_param":{"num_deleted":"0","num_feature":"113","num_nodes":"1","size_leaf_vector":"1"}},{"base_weights":[2.2140008E-3,4.8728913E-2,-9.211848E-2,7.0844695E-2,-2.8607542E-2,-4.627471E-2,-1.4728774E-1,1.1374739E-1,3.01307E-2,1.856704E-2,-1.1821252E-1,9.3917614E-1,-5.274171E-2,3.883169E-2,-1.7144412E-1,1.9671086E-3,8.189998E-3,-5.8830413E-3,2.2070608E-3,1.9350889E-3,-1.37490975E-2,1.9483382E-2,-6.5650116E-3,-2.4080316E-3,5.4722764E-2,1.7554251E-3,-5.042506E-3,-1.1950149E-2,6.3100965E-3,-9.212165E-3,4.107174E-3],"categories":[],"categories_nodes":[],"categories_segments":[],"categories_sizes":[],"default_left":[0,0,0,0,0,0,0,0,0,0,0,0,0,0,0,0,0,0,0,0,0,0,0,0,0,0,0,0,0,0,0],"id":39,"left_children":[1,3,5,7,9,11,13,15,17,19,21,23,25,27,29,-1,-1,-1,-1,-1,-1,-1,-1,-1,-1,-1,-1,-1,-1,-1,-1],"loss_changes":[5.0088806E1,1.3084881E1,9.507605E0,1.0371052E1,7.198847E0,1.3096825E1,7.7049522E0,1.0752457E1,6.3219433E0,6.5708356E0,3.9287167E0,2.2103262E0,8.669127E0,4.7937965E0,4.938095E0,0E0,0E0,0E0,0E0,0E0,0E0,0E0,0E0,0E0,0E0,0E0,0E0,0E0,0E0,0E0,0E0],"parents":[2147483647,0,0,1,1,2,2,3,3,4,4,5,5,6,6,7,7,8,8,9,9,10,10,11,11,12,12,13,13,14,14],"right_children":[2,4,6,8,10,12,14,16,18,20,22,24,26,28,30,-1,-1,-1,-1,-1,-1,-1,-1,-1,-1,-1,-1,-1,-1,-1,-1],"split_conditions":[1.8313903E-2,1.7979012E-3,6.074934E-2,-1.3779528E-3,1.5792646E-2,-6.6727704E-1,5.0370373E-2,-1.0283833E-2,-3.153617E-1,7.8070175E1,-1.4324221E1,-9.037959E-1,9.907139E-1,1.11E2,1.1164814E-1,1.9671086E-3,8.189998E-3,-5.8830413E-3,2.2070608E-3,1.9350889E-3,-1.37490975E-2,1.9483382E-2,-6.5650116E-3,-2.4080316E-3,5.4722764E-2,1.7554251E-3,-5.042506E-3,-1.1950149E-2,6.3100965E-3,-9.212165E-3,4.107174E-3],"split_indices":[36,101,27,51,36,26,66,42,26,33,32,68,25,2,40,0,0,0,0,0,0,0,0,0,0,0,0,0,0,0,0],"split_type":[0,0,0,0,0,0,0,0,0,0,0,0,0,0,0,0,0,0,0,0,0,0,0,0,0,0,0,0,0,0,0],"sum_hessian":[1.1414262E4,7.645731E3,3.768531E3,5.946575E3,1.6991554E3,2.0602146E3,1.7083164E3,2.8933914E3,3.053184E3,1.1129135E3,5.862419E2,1.23908415E1,2.0478239E3,1.957051E2,1.5126113E3,1.1651426E3,1.7282488E3,2.63118E2,2.7900662E3,1.042609E3,7.030448E1,1.3812719E1,5.7242914E2,1.6901187E0,1.0700723E1,7.239743E2,1.3238495E3,4.6130733E1,1.4957437E2,1.4405701E3,7.204127E1],"tree_param":{"num_deleted":"0","num_feature":"113","num_nodes":"31","size_leaf_vector":"1"}},{"base_weights":[-3.8000152E-3,-8.1623755E-2,3.9693445E-2,-1.1901434E-1,-2.236811E-2,8.445471E-2,-6.5715737E-3,-3.6930136E-2,-1.5270333E-1,1.4086333E-1,-5.8320496E-2,6.1769553E-2,1.92972E-1,-3.0290134E-2,8.209027E-2,1.5829928E-2,-2.8176229E-3,-8.814652E-3,1.9897248E-3,8.517586E-3,-3.661716E-2,2.1838553E-3,-5.1928884E-3,-7.5971247E-3,3.5868771E-3,1.6003428E-2,6.798041E-3,1.1786377E-2,-1.898724E-3,-3.5964765E-3,6.581357E-3],"categories":[],"categories_nodes":[],"categories_segments":[],"categories_sizes":[],"default_left":[0,0,0,0,0,0,0,0,0,0,0,0,0,0,0,0,0,0,0,0,0,0,0,0,0,0,0,0,0,0,0],"id":40,"left_children":[1,3,5,7,9,11,13,15,17,19,21,23,25,27,29,-1,-1,-1,-1,-1,-1,-1,-1,-1,-1,-1,-1,-1,-1,-1,-1],"loss_changes":[3.855763E1,9.032322E0,1.5137902E1,6.8966904E0,9.286325E0,9.106577E0,7.5519023E0,5.0076733E0,8.073536E0,7.417713E0,6.039281E0,6.552305E0,4.5555325E0,5.786104E0,5.7955136E0,0E0,0E0,0E0,0E0,0E0,0E0,0E0,0E0,0E0,0E0,0E0,0E0,0E0,0E0,0E0,0E0],"parents":[2147483647,0,0,1,1,2,2,3,3,4,4,5,5,6,6,7,7,8,8,9,9,10,10,11,11,12,12,13,13,14,14],"right_children":[2,4,6,8,10,12,14,16,18,20,22,24,26,28,30,-1,-1,-1,-1,-1,-1,-1,-1,-1,-1,-1,-1,-1,-1,-1,-1],"split_conditions":[8.884233E-3,3.205131E-3,2.023E3,5.3414047E-2,-1.9021338E-1,2.226024E-2,2.3594708E-3,-5.2564915E-2,1.9441318E-3,1.916197E-2,-1.1986034E-1,-3.8384345E-1,-1.0269032E-1,-5.0816514E-2,8.9745026E-4,1.5829928E-2,-2.8176229E-3,-8.814652E-3,1.9897248E-3,8.517586E-3,-3.661716E-2,2.1838553E-3,-5.1928884E-3,-7.5971247E-3,3.5868771E-3,1.6003428E-2,6.798041E-3,1.1786377E-2,-1.898724E-3,-3.5964765E-3,6.581357E-3],"split_indices":[24,19,0,66,26,19,101,52,67,103,74,26,26,105,67,0,0,0,0,0,0,0,0,0,0,0,0,0,0,0,0],"split_type":[0,0,0,0,0,0,0,0,0,0,0,0,0,0,0,0,0,0,0,0,0,0,0,0,0,0,0,0,0,0,0],"sum_hessian":[1.1388129E4,4.0832708E3,7.304858E3,2.5018784E3,1.5813925E3,3.7134463E3,3.5914119E3,7.2949854E2,1.7723799E3,2.8441025E2,1.2969822E3,3.0734443E3,6.4000183E2,2.834832E3,7.565798E2,3.6925434E1,6.925731E2,1.5794314E3,1.929484E2,2.760088E2,8.401446E0,3.9965393E2,8.973283E2,1.3588202E2,2.9375625E3,1.9621239E2,4.4378946E2,7.839103E1,2.756441E3,1.8351747E2,5.730623E2],"tree_param":{"num_deleted":"0","num_feature":"113","num_nodes":"31","size_leaf_vector":"1"}},{"base_weights":[0E0],"categories":[],"categories_nodes":[],"categories_segments":[],"categories_sizes":[],"default_left":[0],"id":41,"left_children":[-1],"loss_changes":[0E0],"parents":[2147483647],"right_children":[-1],"split_conditions":[0E0],"split_indices":[0],"split_type":[0],"sum_hessian":[5.321725E-2],"tree_param":{"num_deleted":"0","num_feature":"113","num_nodes":"1","size_leaf_vector":"1"}},{"base_weights":[-1.2328099E-3,3.6766853E-2,-1.1048295E-1,6.1479267E-2,-2.9417744E-2,-8.118189E-2,-1.9120982E-1,7.9537936E-2,-1.4369854E-2,-8.784128E-3,-2.2134447E-1,1.2298885E-1,-9.703364E-2,-2.6579025E-1,-7.526118E-2,1.4209007E-2,3.5901123E-3,4.4559967E-4,-1.0009968E-2,2.819613E-3,-2.8730845E-3,1.8285636E-2,-1.261033E-2,1.7740741E-2,-6.7862133E-3,-1.0500762E-2,-3.3464634E-3,-1.3996481E-2,2.58277E-2,4.677503E-2,-5.169159E-3],"categories":[],"categories_nodes":[],"categories_segments":[],"categories_sizes":[],"default_left":[0,0,0,0,0,0,0,0,0,0,0,0,0,0,0,0,0,0,0,0,0,0,0,0,0,0,0,0,0,0,0],"id":42,"left_children":[1,3,5,7,9,11,13,15,17,19,21,23,25,27,29,-1,-1,-1,-1,-1,-1,-1,-1,-1,-1,-1,-1,-1,-1,-1,-1],"loss_changes":[4.767623E1,1.3937834E1,6.967888E0,8.505531E0,9.144926E0,7.0558004E0,6.7570496E0,7.878559E0,5.181639E0,6.641378E0,4.1440315E0,9.477124E0,6.833397E0,5.413044E0,8.831806E0,0E0,0E0,0E0,0E0,0E0,0E0,0E0,0E0,0E0,0E0,0E0,0E0,0E0,0E0,0E0,0E0],"parents":[2147483647,0,0,1,1,2,2,3,3,4,4,5,5,6,6,7,7,8,8,9,9,10,10,11,11,12,12,13,13,14,14],"right_children":[2,4,6,8,10,12,14,16,18,20,22,24,26,28,30,-1,-1,-1,-1,-1,-1,-1,-1,-1,-1,-1,-1,-1,-1,-1,-1],"split_conditions":[1.9626271E-2,2.6377735E0,2.8998243E-2,1.1988336E-3,2.1E1,-3.2309833E-1,3.8636364E-2,-4.5123038E-1,2.8778965E-2,-2.766995E-4,-3.0531246E-2,-9.16889E-3,-8.0629736E-2,8.7239623E-1,-4.705153E0,1.4209007E-2,3.5901123E-3,4.4559967E-4,-1.0009968E-2,2.819613E-3,-2.8730845E-3,1.8285636E-2,-1.261033E-2,1.7740741E-2,-6.7862133E-3,-1.0500762E-2,-3.3464634E-3,-1.3996481E-2,2.58277E-2,4.677503E-2,-5.169159E-3],"split_indices":[36,31,51,65,4,26,39,26,20,65,72,19,22,107,31,0,0,0,0,0,0,0,0,0,0,0,0,0,0,0,0],"split_type":[0,0,0,0,0,0,0,0,0,0,0,0,0,0,0,0,0,0,0,0,0,0,0,0,0,0,0,0,0,0,0],"sum_hessian":[1.148043E4,8.517573E3,2.962856E3,6.20303E3,2.3145437E3,2.176211E3,7.86645E2,5.0111997E3,1.1918304E3,2.0912815E3,2.2326224E2,1.5584595E2,2.020365E3,4.7741046E2,3.0923453E2,1.8075642E2,4.830443E3,1.0595034E3,1.323271E2,8.931686E2,1.1981129E3,1.0447156E1,2.1281508E2,8.220199E1,7.364395E1,4.231157E2,1.5972493E3,4.696917E2,7.7187624E0,7.401128E0,3.018334E2],"tree_param":{"num_deleted":"0","num_feature":"113","num_nodes":"31","size_leaf_vector":"1"}},{"base_weights":[6.420483E-3,-3.1132061E-2,1.140392E-1,-1.1475792E-1,-5.5791694E-3,8.725187E-2,2.0370916E-1,-1.7142794E-1,-3.6764532E-2,-4.7653396E-2,5.2066486E-2,2.3652036E-2,1.4434467E-1,1.605488E-1,3.8608333E-1,-1.8198727E-2,-7.0904107E-3,-8.8333414E-4,-1.8525725E-2,-1.0080846E-3,-6.550924E-3,1.5094591E-3,6.7950026E-3,-2.334605E-2,2.228076E-3,1.0905131E-2,3.989085E-3,9.127966E-3,-8.364721E-3,2.1643644E-2,-1.4167413E-2],"categories":[],"categories_nodes":[],"categories_segments":[],"categories_sizes":[],"default_left":[0,0,0,0,0,0,0,0,0,0,0,0,0,0,0,0,0,0,0,0,0,0,0,0,0,0,0,0,0,0,0],"id":43,"left_children":[1,3,5,7,9,11,13,15,17,19,21,23,25,27,29,-1,-1,-1,-1,-1,-1,-1,-1,-1,-1,-1,-1,-1,-1,-1,-1],"loss_changes":[4.616892E1,1.8080044E1,7.0518303E0,8.727234E0,1.5736075E1,8.251923E0,5.2214317E0,6.434433E0,5.2802734E0,8.580381E0,4.998323E0,1.105355E1,5.6646633E0,4.00478E0,4.1664505E0,0E0,0E0,0E0,0E0,0E0,0E0,0E0,0E0,0E0,0E0,0E0,0E0,0E0,0E0,0E0,0E0],"parents":[2147483647,0,0,1,1,2,2,3,3,4,4,5,5,6,6,7,7,8,8,9,9,10,10,11,11,12,12,13,13,14,14],"right_children":[2,4,6,8,10,12,14,16,18,20,22,24,26,28,30,-1,-1,-1,-1,-1,-1,-1,-1,-1,-1,-1,-1,-1,-1,-1,-1],"split_conditions":[1.9626271E-2,1.2862071E-2,1.741775E-2,2.9280863E-4,3.9031023E-1,-4.526943E-3,1.19524986E-1,2.023E3,2.5088012E-2,7.0710677E-1,1.8026901E-2,-4.5123038E-1,5.496922E-3,1.14813E-1,1.3972716E-1,-1.8198727E-2,-7.0904107E-3,-8.8333414E-4,-1.8525725E-2,-1.0080846E-3,-6.550924E-3,1.5094591E-3,6.7950026E-3,-2.334605E-2,2.228076E-3,1.0905131E-2,3.989085E-3,9.127966E-3,-8.364721E-3,2.1643644E-2,-1.4167413E-2],"split_indices":[36,36,24,99,28,19,110,0,105,6,72,26,37,39,44,0,0,0,0,0,0,0,0,0,0,0,0,0,0,0,0],"split_type":[0,0,0,0,0,0,0,0,0,0,0,0,0,0,0,0,0,0,0,0,0,0,0,0,0,0,0,0,0,0,0],"sum_hessian":[1.1420184E4,8.465876E3,2.954307E3,1.9796748E3,6.4862017E3,2.2771394E3,6.7716736E2,1.1451375E3,8.3453735E2,3.7506196E3,2.735582E3,1.0786824E3,1.198457E3,5.495423E2,1.27625015E2,1.5071725E2,9.9442017E2,7.9064746E2,4.3889893E1,2.8223281E3,9.282913E2,2.1714666E3,5.6411554E2,4.3029194E1,1.0356532E3,5.5756146E2,6.4089557E2,5.156698E2,3.387252E1,1.1975739E2,7.867622E0],"tree_param":{"num_deleted":"0","num_feature":"113","num_nodes":"31","size_leaf_vector":"1"}},{"base_weights":[0E0],"categories":[],"categories_nodes":[],"categories_segments":[],"categories_sizes":[],"default_left":[0],"id":44,"left_children":[-1],"loss_changes":[0E0],"parents":[2147483647],"right_children":[-1],"split_conditions":[0E0],"split_indices":[0],"split_type":[0],"sum_hessian":[5.3242736E-2],"tree_param":{"num_deleted":"0","num_feature":"113","num_nodes":"1","size_leaf_vector":"1"}},{"base_weights":[3.7113293E-3,5.1454227E-2,-8.704741E-2,1.0329763E-1,1.5093356E-2,1.4363307E-1,-9.6438125E-2,1.9648488E-1,7.222265E-2,3.9689485E-2,-8.2982935E-2,5.236012E-1,6.1660998E-2,-5.4139532E-2,-1.4063118E-1,1.1973728E-2,1.9666364E-3,7.836176E-3,2.0257945E-3,5.1748795E-3,2.5808657E-4,-1.5073934E-3,-1.1454805E-2,3.8906965E-2,-1.9543257E-4,-2.7777342E-2,6.2658796E-3,-3.2843277E-3,9.464829E-3,-4.1656345E-3,-9.351897E-3],"categories":[],"categories_nodes":[],"categories_segments":[],"categories_sizes":[],"default_left":[0,0,0,0,0,0,0,0,0,0,0,0,0,0,0,0,0,0,0,0,0,0,0,0,0,0,0,0,0,0,0],"id":45,"left_children":[1,3,5,7,9,11,13,15,17,19,21,23,25,27,29,-1,-1,-1,-1,-1,-1,-1,-1,-1,-1,-1,-1,-1,-1,-1,-1],"loss_changes":[4.9684128E1,1.4152748E1,8.570377E0,8.92606E0,1.0659652E1,4.7237577E0,7.0735016E0,5.185026E0,6.202119E0,7.7761164E0,6.803841E0,3.7165284E0,5.0751543E0,5.46358E0,4.893955E0,0E0,0E0,0E0,0E0,0E0,0E0,0E0,0E0,0E0,0E0,0E0,0E0,0E0,0E0,0E0,0E0],"parents":[2147483647,0,0,1,1,2,2,3,3,4,4,5,5,6,6,7,7,8,8,9,9,10,10,11,11,12,12,13,13,14,14],"right_children":[2,4,6,8,10,12,14,16,18,20,22,24,26,28,30,-1,-1,-1,-1,-1,-1,-1,-1,-1,-1,-1,-1,-1,-1,-1,-1],"split_conditions":[1.8070197E-2,-4.841052E-4,5.1451046E-2,1.2830382E-2,1.151058E-2,9.551261E-1,2.2077674E-2,1.0019871E-1,1.3460318E-2,1.3661202E-2,1.0276165E-2,5.157425E-3,-3.6441244E-3,2.692139E-2,1E1,1.1973728E-2,1.9666364E-3,7.836176E-3,2.0257945E-3,5.1748795E-3,2.5808657E-4,-1.5073934E-3,-1.1454805E-2,3.8906965E-2,-1.9543257E-4,-2.7777342E-2,6.2658796E-3,-3.2843277E-3,9.464829E-3,-4.1656345E-3,-9.351897E-3],"split_indices":[36,99,38,41,72,25,36,38,36,41,23,71,67,104,4,0,0,0,0,0,0,0,0,0,0,0,0,0,0,0,0],"split_type":[0,0,0,0,0,0,0,0,0,0,0,0,0,0,0,0,0,0,0,0,0,0,0,0,0,0,0,0,0,0,0],"sum_hessian":[1.1465012E4,7.513913E3,3.951098E3,3.095604E3,4.418309E3,1.5357683E2,3.7975212E3,7.719997E2,2.3236042E3,3.5337183E3,8.84591E2,2.6079962E1,1.27496864E2,1.9426432E3,1.854878E3,6.0526624E2,1.6673344E2,6.320494E2,1.6915549E3,1.2390433E3,2.294675E3,6.5105707E2,2.3353394E2,1.7398941E1,8.681021E0,1.1050843E1,1.1644602E2,1.855759E3,8.688415E1,8.3208856E2,1.0227894E3],"tree_param":{"num_deleted":"0","num_feature":"113","num_nodes":"31","size_leaf_vector":"1"}},{"base_weights":[2.253724E-3,5.400123E-2,-6.021968E-2,1.5334521E-1,3.1039504E-2,-8.2048915E-2,4.424065E-2,-4.8023683E-1,1.6192567E-1,1.634099E-2,1.401543E-1,-1.0036842E-1,2.7197428E-2,2.4753645E-1,7.76838E-3,2.6542058E-2,-4.206204E-2,5.6247204E-3,1.32574765E-2,6.636224E-3,1.6580787E-4,9.421777E-3,6.046224E-4,5.8404626E-3,-5.4640304E-3,-9.75178E-3,2.9899399E-3,-2.1186681E-2,1.4303957E-2,-8.728269E-3,2.4503206E-3],"categories":[],"categories_nodes":[],"categories_segments":[],"categories_sizes":[],"default_left":[0,0,0,0,0,0,0,0,0,0,0,0,0,0,0,0,0,0,0,0,0,0,0,0,0,0,0,0,0,0,0],"id":46,"left_children":[1,3,5,7,9,11,13,15,17,19,21,23,25,27,29,-1,-1,-1,-1,-1,-1,-1,-1,-1,-1,-1,-1,-1,-1,-1,-1],"loss_changes":[3.687189E1,1.420904E1,1.1788343E1,6.408041E0,8.113295E0,8.564859E0,6.5929265E0,6.220356E0,5.828539E0,6.761866E0,3.6932344E0,7.099304E0,4.445635E0,3.6098337E0,5.6992764E0,0E0,0E0,0E0,0E0,0E0,0E0,0E0,0E0,0E0,0E0,0E0,0E0,0E0,0E0,0E0,0E0],"parents":[2147483647,0,0,1,1,2,2,3,3,4,4,5,5,6,6,7,7,8,8,9,9,10,10,11,11,12,12,13,13,14,14],"right_children":[2,4,6,8,10,12,14,16,18,20,22,24,26,28,30,-1,-1,-1,-1,-1,-1,-1,-1,-1,-1,-1,-1,-1,-1,-1,-1],"split_conditions":[1.05321884E2,2.022E3,1.3399354E-2,1.6885553E-2,2.6027376E-3,7.473269E-3,-2.387618E-1,-7.3642908E-3,2.0442832E-2,-1.55939665E-2,1.0095311E0,-1.7651463E-2,-2.1281518E-2,1.5838733E-2,2.8140144E-2,2.6542058E-2,-4.206204E-2,5.6247204E-3,1.32574765E-2,6.636224E-3,1.6580787E-4,9.421777E-3,6.046224E-4,5.8404626E-3,-5.4640304E-3,-9.75178E-3,2.9899399E-3,-2.1186681E-2,1.4303957E-2,-8.728269E-3,2.4503206E-3],"split_indices":[30,0,19,45,65,71,26,72,20,70,25,103,42,45,38,0,0,0,0,0,0,0,0,0,0,0,0,0,0,0,0],"split_type":[0,0,0,0,0,0,0,0,0,0,0,0,0,0,0,0,0,0,0,0,0,0,0,0,0,0,0,0,0,0,0],"sum_hessian":[1.1403595E4,6.238174E3,5.1654214E3,1.1692738E3,5.0689E3,4.2735444E3,8.9187714E2,1.4733426E1,1.1545403E3,4.468966E3,5.999342E2,3.6606816E3,6.1286255E2,1.3437036E2,7.575068E2,3.6798003E0,1.1053625E1,7.827568E2,3.7178357E2,4.4809973E2,4.020866E3,4.347679E2,1.651663E2,1.4338022E2,3.5173015E3,7.737466E1,5.354879E2,6.6127377E0,1.2775762E2,1.3867921E2,6.188276E2],"tree_param":{"num_deleted":"0","num_feature":"113","num_nodes":"31","size_leaf_vector":"1"}},{"base_weights":[0E0],"categories":[],"categories_nodes":[],"categories_segments":[],"categories_sizes":[],"default_left":[0],"id":47,"left_children":[-1],"loss_changes":[0E0],"parents":[2147483647],"right_children":[-1],"split_conditions":[0E0],"split_indices":[0],"split_type":[0],"sum_hessian":[5.2799325E-2],"tree_param":{"num_deleted":"0","num_feature":"113","num_nodes":"1","size_leaf_vector":"1"}},{"base_weights":[2.054751E-3,6.257342E-2,-4.1432243E-2,8.198554E-2,-3.8902402E-2,-1.2673921E-2,-1.1766963E-1,2.4123875E-2,1.17898665E-1,5.514536E-1,-5.007943E-2,7.4129477E-3,-1.3241506E-1,-7.483415E-2,-1.8497542E-1,-2.3100868E-2,1.7296864E-3,3.4835034E-3,9.298156E-3,4.7112014E-2,-6.0785445E-3,7.4550295E-3,-4.075703E-3,2.807822E-3,-1.0957638E-3,-1.5617469E-2,-4.666611E-3,4.5840996E-3,-5.5280416E-3,-2.0584216E-2,-7.342825E-3],"categories":[],"categories_nodes":[],"categories_segments":[],"categories_sizes":[],"default_left":[0,0,0,0,0,0,0,0,0,0,0,0,0,0,0,0,0,0,0,0,0,0,0,0,0,0,0,0,0,0,0],"id":48,"left_children":[1,3,5,7,9,11,13,15,17,19,21,23,25,27,29,-1,-1,-1,-1,-1,-1,-1,-1,-1,-1,-1,-1,-1,-1,-1,-1],"loss_changes":[3.002949E1,9.406746E0,1.4539111E1,8.308361E0,5.0322733E0,1.1611367E1,5.1989746E0,7.7947173E0,8.072193E0,3.9184852E0,4.7194724E0,5.908014E0,4.806942E0,6.6332383E0,5.977112E0,0E0,0E0,0E0,0E0,0E0,0E0,0E0,0E0,0E0,0E0,0E0,0E0,0E0,0E0,0E0,0E0],"parents":[2147483647,0,0,1,1,2,2,3,3,4,4,5,5,6,6,7,7,8,8,9,9,10,10,11,11,12,12,13,13,14,14],"right_children":[2,4,6,8,10,12,14,16,18,20,22,24,26,28,30,-1,-1,-1,-1,-1,-1,-1,-1,-1,-1,-1,-1,-1,-1,-1,-1],"split_conditions":[9.246963E-3,1.0989011E-2,1.0502283E-3,5.4533E-2,-1.4907391E0,1.5969057E-2,3.5E1,-1.2668304E-2,2.5881904E-1,7.7939235E-2,2.8140144E-2,-5.3608817E-1,-1.4876513E-2,-1.4822513E0,-7.4334657E-3,-2.3100868E-2,1.7296864E-3,3.4835034E-3,9.298156E-3,4.7112014E-2,-6.0785445E-3,7.4550295E-3,-4.075703E-3,2.807822E-3,-1.0957638E-3,-1.5617469E-2,-4.666611E-3,4.5840996E-3,-5.5280416E-3,-2.0584216E-2,-7.342825E-3],"split_indices":[24,37,65,66,27,24,5,69,6,44,38,27,103,28,103,0,0,0,0,0,0,0,0,0,0,0,0,0,0,0,0],"split_type":[0,0,0,0,0,0,0,0,0,0,0,0,0,0,0,0,0,0,0,0,0,0,0,0,0,0,0,0,0,0,0],"sum_hessian":[1.1407568E4,4.770527E3,6.637042E3,4.0054663E3,7.6506036E2,4.8209556E3,1.8160863E3,1.5356884E3,2.469778E3,1.3151112E1,7.5190924E2,4.1284937E3,6.92462E2,1.1119835E3,7.0410284E2,3.1265676E1,1.5044226E3,1.4475658E3,1.0222123E3,8.161039E0,4.990073E0,1.0154742E2,6.503618E2,1.5518367E3,2.576657E3,1.2186312E2,5.705989E2,1.9566339E2,9.1632007E2,9.955933E1,6.045435E2],"tree_param":{"num_deleted":"0","num_feature":"113","num_nodes":"31","size_leaf_vector":"1"}},{"base_weights":[-3.5372158E-3,-6.590852E-2,4.550529E-2,3.5358388E-2,-8.459344E-2,1.5906215E-2,1.2408509E-1,3.64822E-1,1.038126E-2,-1.3333283E-1,-4.392715E-2,-3.4766824E-3,1.7641464E-1,1.3415393E-1,-1.0631258E-1,-2.2178462E-2,2.1648413E-2,-7.2399736E-3,3.036166E-3,-1.4137313E-2,-5.5505E-3,3.4012476E-3,-4.133746E-3,4.4020507E-3,-1.4402734E-3,-6.8643834E-3,1.0702384E-2,4.7868774E-3,1.1642989E-2,-1.3233437E-2,1.35422E-2],"categories":[],"categories_nodes":[],"categories_segments":[],"categories_sizes":[],"default_left":[0,0,0,0,0,0,0,0,0,0,0,0,0,0,0,0,0,0,0,0,0,0,0,0,0,0,0,0,0,0,0],"id":49,"left_children":[1,3,5,7,9,11,13,15,17,19,21,23,25,27,29,-1,-1,-1,-1,-1,-1,-1,-1,-1,-1,-1,-1,-1,-1,-1,-1],"loss_changes":[3.503508E1,9.548782E0,1.4894701E1,6.42107E0,8.415974E0,1.4511843E1,4.0836906E0,3.2224665E0,5.7132583E0,6.383583E0,1.0087702E1,9.633156E0,5.969905E0,6.3169537E0,4.4634447E0,0E0,0E0,0E0,0E0,0E0,0E0,0E0,0E0,0E0,0E0,0E0,0E0,0E0,0E0,0E0,0E0],"parents":[2147483647,0,0,1,1,2,2,3,3,4,4,5,5,6,6,7,7,8,8,9,9,10,10,11,11,12,12,13,13,14,14],"right_children":[2,4,6,8,10,12,14,16,18,20,22,24,26,28,30,-1,-1,-1,-1,-1,-1,-1,-1,-1,-1,-1,-1,-1,-1,-1,-1],"split_conditions":[9.16906E-3,5.1030144E-2,1.0502283E-3,-1.9940089E0,-2.2212999E-1,1.6966816E-2,3.995414E-2,5.277602E-3,-5.334515E-3,-2.6031864E-1,-1.23950325E-1,-1.2244898E-2,1E0,1.0609479E-2,1.9300194E-2,-2.2178462E-2,2.1648413E-2,-7.2399736E-3,3.036166E-3,-1.4137313E-2,-5.5505E-3,3.4012476E-3,-4.133746E-3,4.4020507E-3,-1.4402734E-3,-6.8643834E-3,1.0702384E-2,4.7868774E-3,1.1642989E-2,-1.3233437E-2,1.35422E-2],"split_indices":[23,66,65,27,27,24,104,23,71,26,26,37,3,71,24,0,0,0,0,0,0,0,0,0,0,0,0,0,0,0,0],"split_type":[0,0,0,0,0,0,0,0,0,0,0,0,0,0,0,0,0,0,0,0,0,0,0,0,0,0,0,0,0,0,0],"sum_hessian":[1.1451047E4,5.041306E3,6.4097407E3,7.843124E2,4.2569937E3,4.6577544E3,1.7519862E3,5.402885E1,7.302835E2,1.9341439E3,2.3228499E3,4.1562085E3,5.015459E2,1.6794429E3,7.25433E1,3.6580765E0,5.0370773E1,1.7793414E2,5.5234937E2,2.4930765E2,1.6848363E3,5.9639056E2,1.7264595E3,8.995479E2,3.256661E3,5.315447E1,4.4839142E2,1.2110747E3,4.683682E2,5.1488358E1,2.1054941E1],"tree_param":{"num_deleted":"0","num_feature":"113","num_nodes":"31","size_leaf_vector":"1"}},{"base_weights":[0E0],"categories":[],"categories_nodes":[],"categories_segments":[],"categories_sizes":[],"default_left":[0],"id":50,"left_children":[-1],"loss_changes":[0E0],"parents":[2147483647],"right_children":[-1],"split_conditions":[0E0],"split_indices":[0],"split_type":[0],"sum_hessian":[5.31858E-2],"tree_param":{"num_deleted":"0","num_feature":"113","num_nodes":"1","size_leaf_vector":"1"}},{"base_weights":[-4.2481814E-4,4.9442258E-2,-5.242129E-2,1.2320726E-1,2.5395209E-2,-1.10112615E-1,-2.84621E-3,8.042238E-3,3.313067E-1,6.027798E-2,-2.4153003E-2,-4.2164465E-3,-1.3903548E-1,-1.4272493E-1,1.5052222E-2,-1.5016762E-2,1.6799299E-3,2.1230035E-2,5.873155E-3,-1.5820975E-4,4.6408954E-3,1.10339215E-2,-2.090064E-3,3.6254767E-2,-1.2509096E-3,-5.504872E-3,-1.1091168E-2,-6.602181E-4,-1.6473284E-2,6.221809E-3,-7.275118E-4],"categories":[],"categories_nodes":[],"categories_segments":[],"categories_sizes":[],"default_left":[0,0,0,0,0,0,0,0,0,0,0,0,0,0,0,0,0,0,0,0,0,0,0,0,0,0,0,0,0,0,0],"id":51,"left_children":[1,3,5,7,9,11,13,15,17,19,21,23,25,27,29,-1,-1,-1,-1,-1,-1,-1,-1,-1,-1,-1,-1,-1,-1,-1,-1],"loss_changes":[2.9454004E1,1.02656355E1,1.5895731E1,3.4090874E1,7.565692E0,7.855234E0,7.5090466E0,7.218422E0,1.0010288E1,5.3118515E0,7.798337E0,8.338077E0,4.7758636E0,8.192049E0,8.606651E0,0E0,0E0,0E0,0E0,0E0,0E0,0E0,0E0,0E0,0E0,0E0,0E0,0E0,0E0,0E0,0E0],"parents":[2147483647,0,0,1,1,2,2,3,3,4,4,5,5,6,6,7,7,8,8,9,9,10,10,11,11,12,12,13,13,14,14],"right_children":[2,4,6,8,10,12,14,16,18,20,22,24,26,28,30,-1,-1,-1,-1,-1,-1,-1,-1,-1,-1,-1,-1,-1,-1,-1,-1],"split_conditions":[2.0357292E-2,-5.7334127E-3,2.023E3,-6.3665304E-3,9.307178E-3,-1.8331269E0,-1.3565661E-2,-4.0135033E-2,1.2095523E-1,5.4372545E-2,-5.8027077E-3,-5.8393043E-1,4.625767E-1,7.8530705E-1,-1.4822513E0,-1.5016762E-2,1.6799299E-3,2.1230035E-2,5.873155E-3,-1.5820975E-4,4.6408954E-3,1.10339215E-2,-2.090064E-3,3.6254767E-2,-1.2509096E-3,-5.504872E-3,-1.1091168E-2,-6.602181E-4,-1.6473284E-2,6.221809E-3,-7.275118E-4],"split_indices":[41,18,0,37,24,28,18,40,43,66,37,26,68,102,28,0,0,0,0,0,0,0,0,0,0,0,0,0,0,0,0],"split_type":[0,0,0,0,0,0,0,0,0,0,0,0,0,0,0,0,0,0,0,0,0,0,0,0,0,0,0,0,0,0,0],"sum_hessian":[1.1357315E4,5.79641E3,5.5609053E3,1.4230087E3,4.3734014E3,2.568575E3,2.9923303E3,9.170307E2,5.0597797E2,2.5675823E3,1.8058192E3,5.520267E2,2.0165485E3,3.3929623E2,2.6530342E3,6.905915E1,8.4797156E2,3.512738E2,1.5470418E2,8.6972815E2,1.6978542E3,1.202629E2,1.6855563E3,1.4236278E1,5.3779034E2,1.4968654E3,5.1968304E2,2.0129044E2,1.380058E2,5.65102E2,2.0879321E3],"tree_param":{"num_deleted":"0","num_feature":"113","num_nodes":"31","size_leaf_vector":"1"}},{"base_weights":[-2.710236E-3,-3.5508923E-2,9.113262E-2,-8.086945E-2,-2.6465962E-3,6.571269E-2,1.6427796E-1,-7.538934E-2,-3.9276406E-1,-3.6948115E-2,7.334708E-2,3.338571E-2,1.5094632E-1,3.2726887E-1,1.1598241E-1,-6.9131637E-3,-2.3478887E-3,-3.653082E-2,-2.8438724E-3,-3.8857975E-3,1.364456E-3,2.1205924E-3,8.126929E-3,5.285023E-3,-5.594857E-4,1.4957975E-2,4.885071E-3,1.8485485E-2,-1.4330784E-2,4.6294183E-3,1.7370867E-2],"categories":[],"categories_nodes":[],"categories_segments":[],"categories_sizes":[],"default_left":[0,0,0,0,0,0,0,0,0,0,0,0,0,0,0,0,0,0,0,0,0,0,0,0,0,0,0,0,0,0,0],"id":52,"left_children":[1,3,5,7,9,11,13,15,17,19,21,23,25,27,29,-1,-1,-1,-1,-1,-1,-1,-1,-1,-1,-1,-1,-1,-1,-1,-1],"loss_changes":[3.506185E1,1.2577357E1,5.451149E0,5.984091E0,1.2767834E1,6.0157604E0,5.893177E0,6.2067795E0,6.7648125E0,8.849878E0,4.174348E0,5.1399574E0,4.678481E0,4.6083527E0,3.1052756E0,0E0,0E0,0E0,0E0,0E0,0E0,0E0,0E0,0E0,0E0,0E0,0E0,0E0,0E0,0E0,0E0],"parents":[2147483647,0,0,1,1,2,2,3,3,4,4,5,5,6,6,7,7,8,8,9,9,10,10,11,11,12,12,13,13,14,14],"right_children":[2,4,6,8,10,12,14,16,18,20,22,24,26,28,30,-1,-1,-1,-1,-1,-1,-1,-1,-1,-1,-1,-1,-1,-1,-1,-1],"split_conditions":[1.9540153E-2,1.4207098E-2,8.398871E0,1.8195525E-2,2.5975486E-2,2.4088943E-2,-1.1236073E-2,-3.8342474E-3,3.155959E-2,9.993425E-4,1.0739757E-3,-8.279855E-2,5.0485864E0,9.7289604E1,1.7299796E-2,-6.9131637E-3,-2.3478887E-3,-3.653082E-2,-2.8438724E-3,-3.8857975E-3,1.364456E-3,2.1205924E-3,8.126929E-3,5.285023E-3,-5.594857E-4,1.4957975E-2,4.885071E-3,1.8485485E-2,-1.4330784E-2,4.6294183E-3,1.7370867E-2],"split_indices":[36,36,35,103,22,52,18,18,105,103,65,108,35,30,103,0,0,0,0,0,0,0,0,0,0,0,0,0,0,0,0],"split_type":[0,0,0,0,0,0,0,0,0,0,0,0,0,0,0,0,0,0,0,0,0,0,0,0,0,0,0,0,0,0,0],"sum_hessian":[1.1391157E4,8.44223E3,2.948927E3,3.5447866E3,4.8974434E3,2.1908237E3,7.581033E2,3.4851143E3,5.9672478E1,3.3756118E3,1.5218314E3,1.5902477E3,6.0057623E2,1.7149246E2,5.8661084E2,1.0829296E3,2.4021846E3,2.9014883E1,3.0657595E1,2.065867E3,1.309745E3,1.131855E3,3.899765E2,6.067648E2,9.834829E2,1.5701385E2,4.4356235E2,1.6092741E2,1.056504E1,5.344222E2,5.2188644E1],"tree_param":{"num_deleted":"0","num_feature":"113","num_nodes":"31","size_leaf_vector":"1"}},{"base_weights":[0E0],"categories":[],"categories_nodes":[],"categories_segments":[],"categories_sizes":[],"default_left":[0],"id":53,"left_children":[-1],"loss_changes":[0E0],"parents":[2147483647],"right_children":[-1],"split_conditions":[0E0],"split_indices":[0],"split_type":[0],"sum_hessian":[5.340139E-2],"tree_param":{"num_deleted":"0","num_feature":"113","num_nodes":"1","size_leaf_vector":"1"}},{"base_weights":[-5.0955396E-6,2.528121E-2,-1.0332466E-1,4.27679E-2,-4.843968E-2,-5.9130743E-2,-1.5873596E-1,9.145352E-2,2.1749785E-2,-1.9634946E-1,1.9533386E-2,4.7707792E-2,-1.752433E-1,-8.0878705E-2,-2.1784316E-1,1.1163162E-2,2.5142592E-3,3.6937685E-3,-3.1875046E-5,-1.1480034E-2,4.8690895E-3,-3.6343045E-3,3.7666429E-3,-8.2215285E-3,5.0174682E-3,-1.8238962E-2,-5.725165E-3,-7.0856027E-3,7.912817E-3,-1.3800347E-2,-2.1766152E-3],"categories":[],"categories_nodes":[],"categories_segments":[],"categories_sizes":[],"default_left":[0,0,0,0,0,0,0,0,0,0,0,0,0,0,0,0,0,0,0,0,0,0,0,0,0,0,0,0,0,0,0],"id":54,"left_children":[1,3,5,7,9,11,13,15,17,19,21,23,25,27,29,-1,-1,-1,-1,-1,-1,-1,-1,-1,-1,-1,-1,-1,-1,-1,-1],"loss_changes":[2.980499E1,1.1812605E1,5.4622517E0,7.5662146E0,1.7675694E1,1.5534582E1,4.525547E0,1.2071747E1,6.0478973E0,5.4409466E0,6.198815E0,7.286959E0,6.8169384E0,6.2930665E0,5.6697254E0,0E0,0E0,0E0,0E0,0E0,0E0,0E0,0E0,0E0,0E0,0E0,0E0,0E0,0E0,0E0,0E0],"parents":[2147483647,0,0,1,1,2,2,3,3,4,4,5,5,6,6,7,7,8,8,9,9,10,10,11,11,12,12,13,13,14,14],"right_children":[2,4,6,8,10,12,14,16,18,20,22,24,26,28,30,-1,-1,-1,-1,-1,-1,-1,-1,-1,-1,-1,-1,-1,-1,-1,-1],"split_conditions":[2.094655E-2,1.4366977E-2,1.4659177E-3,1.3661202E-2,-9.847007E-2,9.9849653E-1,-2.3571008E-3,-3.772684E-3,1.4051698E-2,1.6377503E0,-1.0918548E-1,-1.531369E-2,-7.137584E-2,-1.4858841E-2,1.7540686E0,1.1163162E-2,2.5142592E-3,3.6937685E-3,-3.1875046E-5,-1.1480034E-2,4.8690895E-3,-3.6343045E-3,3.7666429E-3,-8.2215285E-3,5.0174682E-3,-1.8238962E-2,-5.725165E-3,-7.0856027E-3,7.912817E-3,-1.3800347E-2,-2.1766152E-3],"split_indices":[36,19,18,41,26,25,52,103,36,102,73,103,22,53,27,0,0,0,0,0,0,0,0,0,0,0,0,0,0,0,0],"split_type":[0,0,0,0,0,0,0,0,0,0,0,0,0,0,0,0,0,0,0,0,0,0,0,0,0,0,0,0,0,0,0],"sum_hessian":[1.1403315E4,9.161041E3,2.2422747E3,7.4060845E3,1.7549563E3,1.2495521E3,9.927226E2,2.2307483E3,5.175336E3,5.524357E2,1.2025206E3,6.506229E2,5.989292E2,4.3016296E2,5.6255963E2,5.292817E2,1.7014667E3,1.5555735E3,3.6197625E3,4.9675983E2,5.5675877E1,4.5253076E2,7.4998987E2,1.2855214E2,5.220708E2,1.4374103E2,4.5518814E2,3.4358438E2,8.657856E1,4.2094293E2,1.416167E2],"tree_param":{"num_deleted":"0","num_feature":"113","num_nodes":"31","size_leaf_vector":"1"}},{"base_weights":[-1.2147954E-3,-5.2798692E-2,5.7525557E-2,-9.260156E-2,-1.972045E-2,4.0719166E-2,1.9230832E-1,-1.9007523E-2,-1.370034E-1,1.6081847E-1,-3.4644406E-2,6.6362467E-4,8.890038E-2,5.7165492E-2,2.6837733E-1,-5.492687E-3,2.684477E-3,-2.4742184E-3,-9.783277E-3,1.56655E-2,1.5119282E-3,-1.9753713E-3,1.410117E-2,8.871844E-3,-7.792314E-4,-1.3578025E-2,4.8202197E-3,4.805777E-3,-2.1728596E-2,1.449719E-2,-1.5337656E-2],"categories":[],"categories_nodes":[],"categories_segments":[],"categories_sizes":[],"default_left":[0,0,0,0,0,0,0,0,0,0,0,0,0,0,0,0,0,0,0,0,0,0,0,0,0,0,0,0,0,0,0],"id":55,"left_children":[1,3,5,7,9,11,13,15,17,19,21,23,25,27,29,-1,-1,-1,-1,-1,-1,-1,-1,-1,-1,-1,-1,-1,-1,-1,-1],"loss_changes":[3.4660015E1,8.006861E0,1.2082184E1,9.010519E0,8.963366E0,9.170864E0,6.0373898E0,6.89136E0,8.808086E0,5.011246E0,4.7245317E0,7.485258E0,5.8462276E0,4.124625E0,4.7758865E0,0E0,0E0,0E0,0E0,0E0,0E0,0E0,0E0,0E0,0E0,0E0,0E0,0E0,0E0,0E0,0E0],"parents":[2147483647,0,0,1,1,2,2,3,3,4,4,5,5,6,6,7,7,8,8,9,9,10,10,11,11,12,12,13,13,14,14],"right_children":[2,4,6,8,10,12,14,16,18,20,22,24,26,28,30,-1,-1,-1,-1,-1,-1,-1,-1,-1,-1,-1,-1,-1,-1,-1,-1],"split_conditions":[1.637765E-2,-2.2164767E-3,2.87544E-2,-1.8360376E-2,-3.5160193E-1,1.3380237E-4,7E0,-3.594673E-2,5.4533E-2,1.6809094E-3,3.8109403E0,-1.9187259E-2,-6.6361554E-2,1.14813E-1,1.562547E0,-5.492687E-3,2.684477E-3,-2.4742184E-3,-9.783277E-3,1.56655E-2,1.5119282E-3,-1.9753713E-3,1.410117E-2,8.871844E-3,-7.792314E-4,-1.3578025E-2,4.8202197E-3,4.805777E-3,-2.1728596E-2,1.449719E-2,-1.5337656E-2],"split_indices":[36,21,36,44,26,67,4,26,66,109,102,103,39,39,29,0,0,0,0,0,0,0,0,0,0,0,0,0,0,0,0],"split_type":[0,0,0,0,0,0,0,0,0,0,0,0,0,0,0,0,0,0,0,0,0,0,0,0,0,0,0,0,0,0,0],"sum_hessian":[1.1436891E4,6.0903467E3,5.3465435E3,2.762011E3,3.3283357E3,4.7556E3,5.909433E2,1.0407295E3,1.7212814E3,2.5286661E2,3.075469E3,2.5984573E3,2.157143E3,2.139355E2,3.770078E2,4.630017E2,5.777278E2,6.921696E2,1.0291117E3,1.15647736E2,1.3721887E2,3.030127E3,4.534214E1,2.1841713E2,2.3800403E3,4.3001827E1,2.114141E3,1.9916754E2,1.4767972E1,3.6402713E2,1.2980678E1],"tree_param":{"num_deleted":"0","num_feature":"113","num_nodes":"31","size_leaf_vector":"1"}},{"base_weights":[0E0],"categories":[],"categories_nodes":[],"categories_segments":[],"categories_sizes":[],"default_left":[0],"id":56,"left_children":[-1],"loss_changes":[0E0],"parents":[2147483647],"right_children":[-1],"split_conditions":[0E0],"split_indices":[0],"split_type":[0],"sum_hessian":[5.3068157E-2],"tree_param":{"num_deleted":"0","num_feature":"113","num_nodes":"1","size_leaf_vector":"1"}},{"base_weights":[-3.8278822E-4,5.4318536E-2,-4.750811E-2,9.165268E-2,1.6253086E-2,5.586939E-3,-7.8255616E-2,5.037435E-1,8.517585E-2,-1.1745307E-1,5.477366E-2,3.9708874E-1,-1.6161766E-2,-1.2063344E-1,-2.3032524E-2,5.2052397E-2,1.3862902E-2,7.601423E-4,6.1127786E-3,4.272349E-2,-6.37218E-3,-1.4614736E-3,4.6082693E-3,-8.5231906E-4,3.0164076E-2,6.9840695E-4,-1.0045873E-2,-9.066717E-3,-3.4967456E-3,8.415293E-4,-5.487961E-3],"categories":[],"categories_nodes":[],"categories_segments":[],"categories_sizes":[],"default_left":[0,0,0,0,0,0,0,0,0,0,0,0,0,0,0,0,0,0,0,0,0,0,0,0,0,0,0,0,0,0,0],"id":57,"left_children":[1,3,5,7,9,11,13,15,17,19,21,23,25,27,29,-1,-1,-1,-1,-1,-1,-1,-1,-1,-1,-1,-1,-1,-1,-1,-1],"loss_changes":[2.9316347E1,7.466263E0,9.983273E0,6.9849186E0,1.3433524E1,1.9122652E1,9.041517E0,4.5254307E0,6.77055E0,5.6980314E0,6.373029E0,1.0162329E1,1.1841893E1,6.6983395E0,5.8294516E0,0E0,0E0,0E0,0E0,0E0,0E0,0E0,0E0,0E0,0E0,0E0,0E0,0E0,0E0,0E0,0E0],"parents":[2147483647,0,0,1,1,2,2,3,3,4,4,5,5,6,6,7,7,8,8,9,9,10,10,11,11,12,12,13,13,14,14],"right_children":[2,4,6,8,10,12,14,16,18,20,22,24,26,28,30,-1,-1,-1,-1,-1,-1,-1,-1,-1,-1,-1,-1,-1,-1,-1,-1],"split_conditions":[1.5662154E-2,4.0249547E-4,-5.3608817E-1,-6.1921424E-1,-1.5303981E-1,-4.098984E-1,2.023E3,-4.6241116E-2,-1.26369E-2,8.948985E-3,4.3744533E-3,-1.8457586E0,8.652174E-2,4.5819017E-3,1.6E1,5.2052397E-2,1.3862902E-2,7.601423E-4,6.1127786E-3,4.272349E-2,-6.37218E-3,-1.4614736E-3,4.6082693E-3,-8.5231906E-4,3.0164076E-2,6.9840695E-4,-1.0045873E-2,-9.066717E-3,-3.4967456E-3,8.415293E-4,-5.487961E-3],"split_indices":[36,19,27,26,26,26,0,22,39,36,39,27,45,37,4,0,0,0,0,0,0,0,0,0,0,0,0,0,0,0,0],"split_type":[0,0,0,0,0,0,0,0,0,0,0,0,0,0,0,0,0,0,0,0,0,0,0,0,0,0,0,0,0,0,0],"sum_hessian":[1.137081E4,5.261352E3,6.1094575E3,2.6541545E3,2.6071978E3,2.2396235E3,3.869834E3,3.96429E1,2.6145117E3,5.820921E2,2.0251056E3,1.17201485E2,2.122422E3,2.187877E3,1.6819569E3,1.0557849E1,2.9085052E1,9.070078E2,1.7075038E3,4.960649E0,5.771315E2,6.2301117E2,1.4020944E3,3.9100685E1,7.81008E1,1.8251588E3,2.9726324E2,9.936452E2,1.1942317E3,1.1520712E3,5.298858E2],"tree_param":{"num_deleted":"0","num_feature":"113","num_nodes":"31","size_leaf_vector":"1"}},{"base_weights":[2.724033E-3,-2.7374145E-2,9.180384E-2,-8.174054E-2,1.5837409E-3,7.147429E-2,1.9126093E-1,4.4064227E-1,-8.578883E-2,-3.652876E-2,5.6122605E-2,4.2115897E-2,1.6291475E-1,1.4870209E-1,3.197067E-1,2.9699633E-2,-2.9540915E-2,-7.1868496E-3,-2.4426745E-3,-5.6361016E-3,-2.905589E-4,1.04985535E-2,1.6306284E-3,-1.980056E-3,4.2428407E-3,8.708146E-3,-2.4145119E-2,9.059161E-3,-1.02443565E-2,2.1790624E-2,8.584422E-4],"categories":[],"categories_nodes":[],"categories_segments":[],"categories_sizes":[],"default_left":[0,0,0,0,0,0,0,0,0,0,0,0,0,0,0,0,0,0,0,0,0,0,0,0,0,0,0,0,0,0,0],"id":58,"left_children":[1,3,5,7,9,11,13,15,17,19,21,23,25,27,29,-1,-1,-1,-1,-1,-1,-1,-1,-1,-1,-1,-1,-1,-1,-1,-1],"loss_changes":[3.0547945E1,1.3411464E1,5.7784653E0,6.261959E0,1.15499735E1,6.393306E0,2.5675373E0,3.9474382E0,6.2625484E0,7.639083E0,8.23877E0,6.3387566E0,4.2671957E0,4.263694E0,4.1531067E0,0E0,0E0,0E0,0E0,0E0,0E0,0E0,0E0,0E0,0E0,0E0,0E0,0E0,0E0,0E0,0E0],"parents":[2147483647,0,0,1,1,2,2,3,3,4,4,5,5,6,6,7,7,8,8,9,9,10,10,11,11,12,12,13,13,14,14],"right_children":[2,4,6,8,10,12,14,16,18,20,22,24,26,28,30,-1,-1,-1,-1,-1,-1,-1,-1,-1,-1,-1,-1,-1,-1,-1,-1],"split_conditions":[1.9626271E-2,1.3699258E-2,2.1785961E-1,-5.0767742E-2,3.9031023E-1,1.4656758E-3,5.8335576E-2,-1.319811E-2,-4.841052E-4,9.8461175E-1,-2.4354272E-1,9.9020326E-1,9.0649605E-2,4.074074E-2,7.181628E-2,2.9699633E-2,-2.9540915E-2,-7.1868496E-3,-2.4426745E-3,-5.6361016E-3,-2.905589E-4,1.04985535E-2,1.6306284E-3,-1.980056E-3,4.2428407E-3,8.708146E-3,-2.4145119E-2,9.059161E-3,-1.02443565E-2,2.1790624E-2,8.584422E-4],"split_indices":[36,36,26,51,28,65,22,39,99,25,26,25,105,42,39,0,0,0,0,0,0,0,0,0,0,0,0,0,0,0,0],"split_type":[0,0,0,0,0,0,0,0,0,0,0,0,0,0,0,0,0,0,0,0,0,0,0,0,0,0,0,0,0,0,0],"sum_hessian":[1.13893E4,8.512632E3,2.8766677E3,2.958982E3,5.5536504E3,2.3907168E3,4.8595093E2,2.1735462E1,2.9372463E3,3.2682498E3,2.2854006E3,1.8116215E3,5.7909534E2,3.6721515E2,1.1873577E2,1.9375868E1,2.3595946E0,1.1412039E3,1.7960426E3,9.373297E2,2.3309202E3,3.0132977E2,1.9840708E3,6.2136255E2,1.1902589E3,5.700519E2,9.0434065E0,3.3702597E2,3.0189207E1,8.524862E1,3.348715E1],"tree_param":{"num_deleted":"0","num_feature":"113","num_nodes":"31","size_leaf_vector":"1"}},{"base_weights":[0E0],"categories":[],"categories_nodes":[],"categories_segments":[],"categories_sizes":[],"default_left":[0],"id":59,"left_children":[-1],"loss_changes":[0E0],"parents":[2147483647],"right_children":[-1],"split_conditions":[0E0],"split_indices":[0],"split_type":[0],"sum_hessian":[5.3027604E-2],"tree_param":{"num_deleted":"0","num_feature":"113","num_nodes":"1","size_leaf_vector":"1"}},{"base_weights":[2.7647526E-3,2.7082223E-2,-9.3920164E-2,-5.1724045E-3,6.381687E-2,-1.8996213E-2,-1.317635E-1,5.893908E-2,-3.13993E-2,8.030888E-2,-8.3499275E-2,5.3408796E-1,-3.0786797E-2,-1.0013028E-1,-2.6227856E-1,-8.880785E-3,3.6986377E-3,1.662548E-3,-2.8973997E-3,6.6193505E-3,2.2794446E-3,-6.6498118E-3,8.75362E-3,4.0252253E-2,-2.47668E-2,1.542667E-2,-2.3683875E-3,-5.633059E-3,9.310621E-3,4.443173E-2,-1.3661044E-2],"categories":[],"categories_nodes":[],"categories_segments":[],"categories_sizes":[],"default_left":[0,0,0,0,0,0,0,0,0,0,0,0,0,0,0,0,0,0,0,0,0,0,0,0,0,0,0,0,0,0,0],"id":60,"left_children":[1,3,5,7,9,11,13,15,17,19,21,23,25,27,29,-1,-1,-1,-1,-1,-1,-1,-1,-1,-1,-1,-1,-1,-1,-1,-1],"loss_changes":[2.6732668E1,1.0774359E1,6.4605923E0,8.134961E0,1.0333147E1,4.979576E0,6.200489E0,4.9957285E0,5.9012527E0,6.889971E0,5.4944735E0,4.871552E0,4.2299705E0,4.402853E0,3.8927174E0,0E0,0E0,0E0,0E0,0E0,0E0,0E0,0E0,0E0,0E0,0E0,0E0,0E0,0E0,0E0,0E0],"parents":[2147483647,0,0,1,1,2,2,3,3,4,4,5,5,6,6,7,7,8,8,9,9,10,10,11,11,12,12,13,13,14,14],"right_children":[2,4,6,8,10,12,14,16,18,20,22,24,26,28,30,-1,-1,-1,-1,-1,-1,-1,-1,-1,-1,-1,-1,-1,-1,-1,-1],"split_conditions":[2.094655E-2,1.2246469E-16,2E1,-1.1790419E0,7.6071777E0,5.443218E-2,2.5618034E-3,-9.024107E-3,1.334466E-2,-1.574497E-3,6.5017873E-3,1.0361273E0,-1.0284102E0,1E0,-4.8504216E-3,-8.880785E-3,3.6986377E-3,1.662548E-3,-2.8973997E-3,6.6193505E-3,2.2794446E-3,-6.6498118E-3,