{"learner":{"attributes":{"best_iteration":"68","best_score":"0.558566684435308","scikit_learn":"{\"_estimator_type\": \"classifier\"}"},"feature_names":[],"feature_types":[],"gradient_booster":{"model":{"cats":{"enc":[],"feature_segments":[],"sorted_idx":[]},"gbtree_model_param":{"num_parallel_tree":"1","num_trees":"297"},"iteration_indptr":[0,3,6,9,12,15,18,21,24,27,30,33,36,39,42,45,48,51,54,57,60,63,66,69,72,75,78,81,84,87,90,93,96,99,102,105,108,111,114,117,120,123,126,129,132,135,138,141,144,147,150,153,156,159,162,165,168,171,174,177,180,183,186,189,192,195,198,201,204,207,210,213,216,219,222,225,228,231,234,237,240,243,246,249,252,255,258,261,264,267,270,273,276,279,282,285,288,291,294,297],"tree_info":[0,1,2,0,1,2,0,1,2,0,1,2,0,1,2,0,1,2,0,1,2,0,1,2,0,1,2,0,1,2,0,1,2,0,1,2,0,1,2,0,1,2,0,1,2,0,1,2,0,1,2,0,1,2,0,1,2,0,1,2,0,1,2,0,1,2,0,1,2,0,1,2,0,1,2,0,1,2,0,1,2,0,1,2,0,1,2,0,1,2,0,1,2,0,1,2,0,1,2,0,1,2,0,1,2,0,1,2,0,1,2,0,1,2,0,1,2,0,1,2,0,1,2,0,1,2,0,1,2,0,1,2,0,1,2,0,1,2,0,1,2,0,1,2,0,1,2,0,1,2,0,1,2,0,1,2,0,1,2,0,1,2,0,1,2,0,1,2,0,1,2,0,1,2,0,1,2,0,1,2,0,1,2,0,1,2,0,1,2,0,1,2,0,1,2,0,1,2,0,1,2,0,1,2,0,1,2,0,1,2,0,1,2,0,1,2,0,1,2,0,1,2,0,1,2,0,1,2,0,1,2,0,1,2,0,1,2,0,1,2,0,1,2,0,1,2,0,1,2,0,1,2,0,1,2,0,1,2,0,1,2,0,1,2,0,1,2,0,1,2,0,1,2,0,1,2,0,1,2,0,1,2,0,1,2,0,1,2,0,1,2,0,1,2,0,1,2],"trees":[{"base_weights":[-5.3674355E-3,1.152274E-1,-7.71703E-2,1.6932765E-1,8.8093727E-4,-1.7120236E-1,-2.614545E-2,2.3121189E-1,1.0396044E-1,-6.853971E-2,9.310105E-2,-4.9191052E-1,-1.6037038E-1,8.172708E-2,-5.5842977E-2,5.1482697E-3,1.447129E-2,9.538228E-3,-1.2237324E-3,1.7658646E-3,-8.425574E-3,-1.0193842E-2,7.6186727E-3,-2.9396543E-2,-1.0169627E-3,-6.493263E-3,-1.4947263E-2,2.6008502E-2,2.3983754E-3,-2.9437947E-3,3.5560038E-2],"categories":[],"categories_nodes":[],"categories_segments":[],"categories_sizes":[],"default_left":[0,0,0,0,0,0,0,0,0,0,0,0,0,0,0,0,0,0,0,0,0,0,0,0,0,0,0,0,0,0,0],"id":0,"left_children":[1,3,5,7,9,11,13,15,17,19,21,23,25,27,29,-1,-1,-1,-1,-1,-1,-1,-1,-1,-1,-1,-1,-1,-1,-1,-1],"loss_changes":[6.0767536E1,1.6182602E1,2.1084501E1,7.1309853E0,5.403481E0,5.228939E0,9.144317E0,6.73407E0,9.6851015E0,5.0103893E0,6.4146137E0,2.1798096E0,6.250458E0,9.032177E0,5.1855855E0,0E0,0E0,0E0,0E0,0E0,0E0,0E0,0E0,0E0,0E0,0E0,0E0,0E0,0E0,0E0,0E0],"parents":[2147483647,0,0,1,1,2,2,3,3,4,4,5,5,6,6,7,7,8,8,9,9,10,10,11,11,12,12,13,13,14,14],"right_children":[2,4,6,8,10,12,14,16,18,20,22,24,26,28,30,-1,-1,-1,-1,-1,-1,-1,-1,-1,-1,-1,-1,-1,-1,-1,-1],"split_conditions":[8.828541E-3,3.574624E-3,7.849533E1,-1.426314E-3,9.986729E-1,-2.412698E0,1.369863E-2,-8.779195E-3,6.4853445E-2,5.930657E1,-9.5290476E-1,6.613337E-1,1.4005287E-2,-9.365756E-3,3.3575054E-2,5.1482697E-3,1.447129E-2,9.538228E-3,-1.2237324E-3,1.7658646E-3,-8.425574E-3,-1.0193842E-2,7.6186727E-3,-2.9396543E-2,-1.0169627E-3,-6.493263E-3,-1.4947263E-2,2.6008502E-2,2.3983754E-3,-2.9437947E-3,3.5560038E-2],"split_indices":[23,18,30,71,25,27,41,42,66,33,29,73,18,18,46,0,0,0,0,0,0,0,0,0,0,0,0,0,0,0,0],"split_type":[0,0,0,0,0,0,0,0,0,0,0,0,0,0,0,0,0,0,0,0,0,0,0,0,0,0,0,0,0,0,0],"sum_hessian":[7.0162153E3,2.6177075E3,4.398508E3,1.776055E3,8.416525E2,1.5456898E3,2.852818E3,9.102444E2,8.6581067E2,4.7971173E2,3.6194077E2,4.8747684E1,1.4969421E3,6.147385E2,2.2380796E3,2.8558377E2,6.246606E2,5.1681177E2,3.489989E2,2.3511052E2,2.4460121E2,5.953257E1,3.024082E2,4.0119778E1,8.627909E0,1.2290457E3,2.6789658E2,4.270815E1,5.7203033E2,2.2303145E3,7.765118E0],"tree_param":{"num_deleted":"0","num_feature":"113","num_nodes":"31","size_leaf_vector":"1"}},{"base_weights":[-2.5358067E-3,1.24685235E-1,-8.066901E-2,4.220004E-1,1.1230257E-1,-1.4224426E-1,-2.826098E-2,-5.2505873E-2,5.264269E-1,-3.7090305E-2,1.324886E-1,-2.1654227E-1,-5.4382257E-2,1.7320544E-2,-9.224123E-2,2.034345E-2,-1.9299634E-2,2.7730083E-2,-8.662858E-3,8.167083E-3,-6.3359025E-3,6.9888006E-3,-1.2590112E-2,-4.9328855E-3,-1.3332106E-2,-7.306284E-3,3.5874997E-3,-1.1306618E-2,1.9054776E-3,-1.9213468E-2,-3.1448093E-3],"categories":[],"categories_nodes":[],"categories_segments":[],"categories_sizes":[],"default_left":[0,0,0,0,0,0,0,0,0,0,0,0,0,0,0,0,0,0,0,0,0,0,0,0,0,0,0,0,0,0,0],"id":1,"left_children":[1,3,5,7,9,11,13,15,17,19,21,23,25,27,29,-1,-1,-1,-1,-1,-1,-1,-1,-1,-1,-1,-1,-1,-1,-1,-1],"loss_changes":[7.016987E1,9.786278E0,1.4094196E1,5.3617344E0,7.7944794E0,1.3082436E1,6.9063277E0,3.216025E0,1.8633003E0,5.537297E0,6.3911705E0,6.3635864E0,1.0697466E1,6.97944E0,8.3722725E0,0E0,0E0,0E0,0E0,0E0,0E0,0E0,0E0,0E0,0E0,0E0,0E0,0E0,0E0,0E0,0E0],"parents":[2147483647,0,0,1,1,2,2,3,3,4,4,5,5,6,6,7,7,8,8,9,9,10,10,11,11,12,12,13,13,14,14],"right_children":[2,4,6,8,10,12,14,16,18,20,22,24,26,28,30,-1,-1,-1,-1,-1,-1,-1,-1,-1,-1,-1,-1,-1,-1,-1,-1],"split_conditions":[8.9284775E1,-9.960432E-3,8.574241E-3,-2.600688E-1,9.575133E-3,6.533813E-4,9.743135E-3,1.3632809E-2,8.245347E1,-1.034636E-1,2.5499735E0,-7.993605E-3,2.6542838E-3,-6.1980348E-2,-1.3509736E0,2.034345E-2,-1.9299634E-2,2.7730083E-2,-8.662858E-3,8.167083E-3,-6.3359025E-3,6.9888006E-3,-1.2590112E-2,-4.9328855E-3,-1.3332106E-2,-7.306284E-3,3.5874997E-3,-1.1306618E-2,1.9054776E-3,-1.9213468E-2,-3.1448093E-3],"split_indices":[30,99,24,26,23,18,44,23,32,75,26,42,70,44,28,0,0,0,0,0,0,0,0,0,0,0,0,0,0,0,0],"split_type":[0,0,0,0,0,0,0,0,0,0,0,0,0,0,0,0,0,0,0,0,0,0,0,0,0,0,0,0,0,0,0],"sum_hessian":[7.057641E3,2.6845784E3,4.373063E3,1.05692055E2,2.5788862E3,2.0090118E3,2.364051E3,1.898143E1,8.6710625E1,3.0629126E2,2.272595E3,1.0871183E3,9.218936E2,1.3800363E3,9.8401465E2,7.765131E0,1.12163E1,8.369086E1,3.019773E0,9.4044365E1,2.122469E2,2.231181E3,4.1414032E1,3.257041E2,7.6141425E2,5.340684E2,3.8782513E2,1.0741764E2,1.2726187E3,8.843621E1,8.955784E2],"tree_param":{"num_deleted":"0","num_feature":"113","num_nodes":"31","size_leaf_vector":"1"}},{"base_weights":[0E0],"categories":[],"categories_nodes":[],"categories_segments":[],"categories_sizes":[],"default_left":[0],"id":2,"left_children":[-1],"loss_changes":[0E0],"parents":[2147483647],"right_children":[-1],"split_conditions":[0E0],"split_indices":[0],"split_type":[0],"sum_hessian":[3.265788E-2],"tree_param":{"num_deleted":"0","num_feature":"113","num_nodes":"1","size_leaf_vector":"1"}},{"base_weights":[-5.5819814E-4,1.1983343E-1,-1.0110535E-1,2.770355E-1,9.934761E-2,-4.6131313E-2,-1.8113194E-1,3.3383042E-1,-7.736702E-2,9.181465E-2,5.371956E-1,-8.0137745E-2,2.2604786E-2,-5.015686E-1,-1.6364998E-1,2.2700066E-2,5.551986E-3,7.6228916E-3,-2.3993539E-2,6.210517E-3,6.787758E-4,-1.788043E-2,3.1353824E-2,7.2681875E-4,-6.503223E-3,5.0505223E-3,-2.444424E-3,-2.615886E-2,2.102098E-2,-2.9694315E-3,-1.0376646E-2],"categories":[],"categories_nodes":[],"categories_segments":[],"categories_sizes":[],"default_left":[0,0,0,0,0,0,0,0,0,0,0,0,0,0,0,0,0,0,0,0,0,0,0,0,0,0,0,0,0,0,0],"id":3,"left_children":[1,3,5,7,9,11,13,15,17,19,21,23,25,27,29,-1,-1,-1,-1,-1,-1,-1,-1,-1,-1,-1,-1,-1,-1,-1,-1],"loss_changes":[8.562357E1,1.0300224E1,1.6928055E1,7.4981194E0,9.2868805E0,5.3538475E0,8.638924E0,8.441467E0,4.885447E0,7.088854E0,4.0929403E0,7.2518578E0,4.2526164E0,1.8315163E0,6.77499E0,0E0,0E0,0E0,0E0,0E0,0E0,0E0,0E0,0E0,0E0,0E0,0E0,0E0,0E0,0E0,0E0],"parents":[2147483647,0,0,1,1,2,2,3,3,4,4,5,5,6,6,7,7,8,8,9,9,10,10,11,11,12,12,13,13,14,14],"right_children":[2,4,6,8,10,12,14,16,18,20,22,24,26,28,30,-1,-1,-1,-1,-1,-1,-1,-1,-1,-1,-1,-1,-1,-1,-1,-1],"split_conditions":[1.6347934E-2,1.1584311E-2,2.0446597E-2,7.367491E1,1.2269937E0,4.3582283E-2,-9.960432E-3,1.6732271E-3,7.2780205E-4,3.686515E-6,-6.9934875E-1,1.5873017E-2,1.8134305E-2,7.956633E-3,-7.4832602E-3,2.2700066E-2,5.551986E-3,7.6228916E-3,-2.3993539E-2,6.210517E-3,6.787758E-4,-1.788043E-2,3.1353824E-2,7.2681875E-4,-6.503223E-3,5.0505223E-3,-2.444424E-3,-2.615886E-2,2.102098E-2,-2.9694315E-3,-1.0376646E-2],"split_indices":[36,36,36,33,25,45,99,70,99,100,73,41,36,49,70,0,0,0,0,0,0,0,0,0,0,0,0,0,0,0,0],"split_type":[0,0,0,0,0,0,0,0,0,0,0,0,0,0,0,0,0,0,0,0,0,0,0,0,0,0,0,0,0,0,0],"sum_hessian":[7.071539E3,3.2176506E3,3.8538884E3,3.6895966E2,2.848691E3,2.2862095E3,1.5676788E3,3.1829187E2,5.0667767E1,2.8019233E3,4.6767597E1,1.5303665E3,7.55843E2,7.937424E1,1.4883046E3,2.0579932E2,1.1249256E2,3.2489456E1,1.8178312E1,1.980155E3,8.217684E2,3.8954425E0,4.2872154E1,5.279469E2,1.0024196E3,3.6096436E2,3.9487866E2,7.8085175E1,1.2890608E0,4.4223404E2,1.0460706E3],"tree_param":{"num_deleted":"0","num_feature":"113","num_nodes":"31","size_leaf_vector":"1"}},{"base_weights":[2.9116552E-3,-1.1679837E-1,1.0127969E-1,-2.4763443E-1,-8.457515E-2,7.561361E-2,2.2696546E-1,-2.045255E-1,-5.3016746E-1,-1.549282E-1,-2.9656487E-2,-7.5974174E-2,8.6390816E-2,4.9652898E-1,1.899959E-1,1.4267296E-2,-1.1573707E-2,1.1069695E-2,-2.9953206E-2,-8.272848E-3,2.5628654E-2,5.339401E-3,-3.3563187E-3,-1.4394151E-2,1.11659095E-2,3.9009084E-3,1.817844E-2,2.6533747E-2,-3.0458739E-2,-1.751799E-2,1.0324157E-2],"categories":[],"categories_nodes":[],"categories_segments":[],"categories_sizes":[],"default_left":[0,0,0,0,0,0,0,0,0,0,0,0,0,0,0,0,0,0,0,0,0,0,0,0,0,0,0,0,0,0,0],"id":4,"left_children":[1,3,5,7,9,11,13,15,17,19,21,23,25,27,29,-1,-1,-1,-1,-1,-1,-1,-1,-1,-1,-1,-1,-1,-1,-1,-1],"loss_changes":[8.29797E1,1.3344849E1,1.2432426E1,7.453865E0,9.83802E0,5.2595997E0,6.363388E0,7.266863E0,4.4193745E0,7.9063377E0,7.341675E0,1.3599005E1,6.8954163E0,3.261732E0,5.206007E0,0E0,0E0,0E0,0E0,0E0,0E0,0E0,0E0,0E0,0E0,0E0,0E0,0E0,0E0,0E0,0E0],"parents":[2147483647,0,0,1,1,2,2,3,3,4,4,5,5,6,6,7,7,8,8,9,9,10,10,11,11,12,12,13,13,14,14],"right_children":[2,4,6,8,10,12,14,16,18,20,22,24,26,28,30,-1,-1,-1,-1,-1,-1,-1,-1,-1,-1,-1,-1,-1,-1,-1,-1],"split_conditions":[1.6273042E-2,1.223305E-2,2.3992112E-2,1E0,-1.481137E-1,-3.9449367E-1,-5.8917936E-2,-2.7638191E-2,-1.0217559E0,3.3135778E-1,-1.6935082E-1,3.1794817E-4,3.710751E0,2.2781366E-2,-8.627859E-2,1.4267296E-2,-1.1573707E-2,1.1069695E-2,-2.9953206E-2,-8.272848E-3,2.5628654E-2,5.339401E-3,-3.3563187E-3,-1.4394151E-2,1.11659095E-2,3.9009084E-3,1.817844E-2,2.6533747E-2,-3.0458739E-2,-1.751799E-2,1.0324157E-2],"split_indices":[36,36,36,14,27,26,72,40,102,76,26,18,102,39,42,0,0,0,0,0,0,0,0,0,0,0,0,0,0,0,0],"split_type":[0,0,0,0,0,0,0,0,0,0,0,0,0,0,0,0,0,0,0,0,0,0,0,0,0,0,0,0,0,0,0],"sum_hessian":[7.044852E3,3.1771643E3,3.8676877E3,6.259261E2,2.551238E3,3.2138003E3,6.5388745E2,5.448679E2,8.105817E1,1.1168567E3,1.4343815E3,2.1230313E2,3.0014973E3,7.703695E1,5.7685046E2,2.7717674E1,5.1715027E2,6.498977E0,7.455919E1,1.1004016E3,1.6455107E1,3.0806412E2,1.1263173E3,1.245148E2,8.778833E1,2.9150842E3,8.641305E1,7.5321396E1,1.7155517E0,1.630046E1,5.6055005E2],"tree_param":{"num_deleted":"0","num_feature":"113","num_nodes":"31","size_leaf_vector":"1"}},{"base_weights":[0E0],"categories":[],"categories_nodes":[],"categories_segments":[],"categories_sizes":[],"default_left":[0],"id":5,"left_children":[-1],"loss_changes":[0E0],"parents":[2147483647],"right_children":[-1],"split_conditions":[0E0],"split_indices":[0],"split_type":[0],"sum_hessian":[3.25346E-2],"tree_param":{"num_deleted":"0","num_feature":"113","num_nodes":"1","size_leaf_vector":"1"}},{"base_weights":[-5.7021435E-4,1.00852914E-1,-1.1268113E-1,1.9700071E-1,7.0577055E-2,-5.7463195E-2,-1.761899E-1,2.6754716E-1,8.2236275E-2,1.7383808E-1,4.0083192E-2,-1.0145156E-1,2.8881913E-2,-1.8168822E-1,4.7650233E-1,1.5958877E-2,-1.0712077E-6,-3.9720666E-3,8.858754E-3,5.9613097E-3,2.4790246E-2,1.1776751E-4,4.988961E-3,9.598559E-5,-7.543864E-3,7.290058E-3,-1.7643413E-3,-9.479834E-3,1.3041819E-2,5.8353316E-2,-5.567614E-3],"categories":[],"categories_nodes":[],"categories_segments":[],"categories_sizes":[],"default_left":[0,0,0,0,0,0,0,0,0,0,0,0,0,0,0,0,0,0,0,0,0,0,0,0,0,0,0,0,0,0,0],"id":6,"left_children":[1,3,5,7,9,11,13,15,17,19,21,23,25,27,29,-1,-1,-1,-1,-1,-1,-1,-1,-1,-1,-1,-1,-1,-1,-1,-1],"loss_changes":[7.938453E1,1.0627903E1,1.1596764E1,7.038021E0,8.755713E0,6.7571044E0,5.5876923E0,7.5158424E0,5.1750917E0,1.1043709E1,4.8446026E0,6.0328674E0,4.5142975E0,5.39373E0,5.512106E0,0E0,0E0,0E0,0E0,0E0,0E0,0E0,0E0,0E0,0E0,0E0,0E0,0E0,0E0,0E0,0E0],"parents":[2147483647,0,0,1,1,2,2,3,3,4,4,5,5,6,6,7,7,8,8,9,9,10,10,11,11,12,12,13,13,14,14],"right_children":[2,4,6,8,10,12,14,16,18,20,22,24,26,28,30,-1,-1,-1,-1,-1,-1,-1,-1,-1,-1,-1,-1,-1,-1,-1,-1],"split_conditions":[1.7063146E-2,1.27521735E-2,2.0446597E-2,1.32993255E-2,-8.816914E-1,4.3582283E-2,6.356333E-6,5.0181313E-3,-2.192412E-3,-3.27654E-3,6.432761E-2,1.5873017E-2,1.8082133E-2,1.471105E1,3.73444E-2,1.5958877E-2,-1.0712077E-6,-3.9720666E-3,8.858754E-3,5.9613097E-3,2.4790246E-2,1.1776751E-4,4.988961E-3,9.598559E-5,-7.543864E-3,7.290058E-3,-1.7643413E-3,-9.479834E-3,1.3041819E-2,5.8353316E-2,-5.567614E-3],"split_indices":[36,36,36,51,27,45,100,18,104,39,75,41,36,43,45,0,0,0,0,0,0,0,0,0,0,0,0,0,0,0,0],"split_type":[0,0,0,0,0,0,0,0,0,0,0,0,0,0,0,0,0,0,0,0,0,0,0,0,0,0,0,0,0,0,0],"sum_hessian":[6.979432E3,3.6639675E3,3.3154646E3,8.753347E2,2.7886328E3,1.7753552E3,1.5401095E3,5.4073737E2,3.345973E2,6.339421E2,2.1546907E3,1.176813E3,5.985422E2,1.5281115E3,1.1998061E1,4.5342477E2,8.73126E1,1.2345963E2,2.1113768E2,5.434442E2,9.04979E1,1.3219402E3,8.327505E2,3.8032382E2,7.964892E2,2.1219554E2,3.8634662E2,1.5020653E3,2.6046186E1,5.1422157E0,6.855846E0],"tree_param":{"num_deleted":"0","num_feature":"113","num_nodes":"31","size_leaf_vector":"1"}},{"base_weights":[-6.1368747E-3,-1.1829915E-1,9.007002E-2,-2.0012908E-1,-8.689087E-2,6.162628E-2,2.215677E-1,-6.786333E-1,-1.8087642E-1,-3.8910064E-1,-7.2246745E-2,9.6884474E-2,1.3756116E-2,-4.3866813E-1,2.3478574E-1,-1.7480208E-2,-5.256628E-2,-6.08408E-3,-1.6283086E-2,-2.1784881E-2,2.8754542E-2,-7.909915E-3,-1.969342E-3,5.0517316E-3,-3.9955415E-2,-7.877103E-4,7.7259177E-3,2.477784E-2,-3.577122E-2,2.3973292E-2,1.0050831E-2],"categories":[],"categories_nodes":[],"categories_segments":[],"categories_sizes":[],"default_left":[0,0,0,0,0,0,0,0,0,0,0,0,0,0,0,0,0,0,0,0,0,0,0,0,0,0,0,0,0,0,0],"id":7,"left_children":[1,3,5,7,9,11,13,15,17,19,21,23,25,27,29,-1,-1,-1,-1,-1,-1,-1,-1,-1,-1,-1,-1,-1,-1,-1,-1],"loss_changes":[7.606545E1,8.319721E0,1.4148136E1,8.093338E0,1.0347296E1,5.2555685E0,5.9618454E0,3.6974802E0,7.353853E0,5.1019382E0,6.3218813E0,6.6893234E0,5.525214E0,3.8469872E0,5.299324E0,0E0,0E0,0E0,0E0,0E0,0E0,0E0,0E0,0E0,0E0,0E0,0E0,0E0,0E0,0E0,0E0],"parents":[2147483647,0,0,1,1,2,2,3,3,4,4,5,5,6,6,7,7,8,8,9,9,10,10,11,11,12,12,13,13,14,14],"right_children":[2,4,6,8,10,12,14,16,18,20,22,24,26,28,30,-1,-1,-1,-1,-1,-1,-1,-1,-1,-1,-1,-1,-1,-1,-1,-1],"split_conditions":[1.6347934E-2,1.27521735E-2,2.3809524E-2,-6.619719E-2,-2.2976741E-1,7.4153395E0,1.134503E-2,4.4931923E1,1.0074601E0,1.30635435E-2,-1.4117882E-2,7.054578E-2,3.9695474E-6,-2.7430959E-2,-5.8917936E-2,-1.7480208E-2,-5.256628E-2,-6.08408E-3,-1.6283086E-2,-2.1784881E-2,2.8754542E-2,-7.909915E-3,-1.969342E-3,5.0517316E-3,-3.9955415E-2,-7.877103E-4,7.7259177E-3,2.477784E-2,-3.577122E-2,2.3973292E-2,1.0050831E-2],"split_indices":[36,36,36,44,76,32,24,33,25,18,21,71,100,20,72,0,0,0,0,0,0,0,0,0,0,0,0,0,0,0,0],"split_type":[0,0,0,0,0,0,0,0,0,0,0,0,0,0,0,0,0,0,0,0,0,0,0,0,0,0,0,0,0,0,0],"sum_hessian":[7.046864E3,3.254007E3,3.7928564E3,9.001737E2,2.3538335E3,3.1201733E3,6.726831E2,3.329206E1,8.6688165E2,1.0729035E2,2.2465432E3,1.7949855E3,1.325188E3,1.242267E1,6.6026044E2,1.8853622E1,1.44384365E1,6.1711005E2,2.4977159E2,1.0296609E2,4.3242607E0,6.194341E2,1.627109E3,1.7877039E3,7.281637E0,1.0956635E3,2.2952444E2,2.5758054E0,9.846865E0,7.811376E1,5.8214667E2],"tree_param":{"num_deleted":"0","num_feature":"113","num_nodes":"31","size_leaf_vector":"1"}},{"base_weights":[0E0],"categories":[],"categories_nodes":[],"categories_segments":[],"categories_sizes":[],"default_left":[0],"id":8,"left_children":[-1],"loss_changes":[0E0],"parents":[2147483647],"right_children":[-1],"split_conditions":[0E0],"split_indices":[0],"split_type":[0],"sum_hessian":[3.251742E-2],"tree_param":{"num_deleted":"0","num_feature":"113","num_nodes":"1","size_leaf_vector":"1"}},{"base_weights":[-8.258683E-4,1.09707676E-1,-9.5278E-2,9.98428E-2,4.5972097E-1,1.2285389E-2,-1.2244909E-1,1.3489711E-1,3.131168E-2,1.0955482E0,3.6073458E-1,1.3610925E-1,-7.962447E-2,6.8331204E-2,-1.3663581E-1,9.191389E-3,2.9250896E-3,7.7591423E-4,2.1613922E-2,1.0311565E-2,6.1523672E-2,1.2505496E-2,4.823869E-2,7.844216E-3,-2.6657233E-2,-5.203355E-3,1.861388E-2,1.5539141E-2,-1.4395261E-2,-2.4893792E-2,-6.4374506E-3],"categories":[],"categories_nodes":[],"categories_segments":[],"categories_sizes":[],"default_left":[0,0,0,0,0,0,0,0,0,0,0,0,0,0,0,0,0,0,0,0,0,0,0,0,0,0,0,0,0,0,0],"id":9,"left_children":[1,3,5,7,9,11,13,15,17,19,21,23,25,27,29,-1,-1,-1,-1,-1,-1,-1,-1,-1,-1,-1,-1,-1,-1,-1,-1],"loss_changes":[7.302178E1,1.1024536E1,1.1036869E1,7.5118713E0,4.983631E0,8.675556E0,8.168888E0,7.714878E0,6.682562E0,9.4613934E-1,4.821146E0,4.5645385E0,4.8375044E0,1.811449E1,7.863472E0,0E0,0E0,0E0,0E0,0E0,0E0,0E0,0E0,0E0,0E0,0E0,0E0,0E0,0E0,0E0,0E0],"parents":[2147483647,0,0,1,1,2,2,3,3,4,4,5,5,6,6,7,7,8,8,9,9,10,10,11,11,12,12,13,13,14,14],"right_children":[2,4,6,8,10,12,14,16,18,20,22,24,26,28,30,-1,-1,-1,-1,-1,-1,-1,-1,-1,-1,-1,-1,-1,-1,-1,-1],"split_conditions":[1.6347934E-2,3.62E2,1.5497553E-2,3.574624E-3,9.507448E-1,-4.664324E-4,-3.9449367E-1,1.4457396E-2,2.579667E2,-5.6947608E-2,1.02685625E-2,2.5436508E-2,8.06142E-2,3.1794817E-4,-1.1329206E-2,9.191389E-3,2.9250896E-3,7.7591423E-4,2.1613922E-2,1.0311565E-2,6.1523672E-2,1.2505496E-2,4.823869E-2,7.844216E-3,-2.6657233E-2,-5.203355E-3,1.861388E-2,1.5539141E-2,-1.4395261E-2,-2.4893792E-2,-6.4374506E-3],"split_indices":[36,2,41,18,25,67,26,36,32,39,39,36,45,18,67,0,0,0,0,0,0,0,0,0,0,0,0,0,0,0,0],"split_type":[0,0,0,0,0,0,0,0,0,0,0,0,0,0,0,0,0,0,0,0,0,0,0,0,0,0,0,0,0,0,0],"sum_hessian":[6.992474E3,3.22139E3,3.771084E3,3.134614E3,8.6775925E1,7.5986017E2,3.0112239E3,2.0722244E3,1.0623898E3,1.0197247E1,7.6578674E1,3.2398477E2,4.358754E2,2.076686E2,2.8035552E3,1.2615167E3,8.1070764E2,1.0233691E3,3.902066E1,1.7740173E0,8.423229E0,6.605997E1,1.051871E1,3.1511786E2,8.86693E0,4.144495E2,2.1425882E1,1.23811676E2,8.385692E1,5.830258E1,2.7452527E3],"tree_param":{"num_deleted":"0","num_feature":"113","num_nodes":"31","size_leaf_vector":"1"}},{"base_weights":[-5.245927E-4,-1.0346953E-1,8.722398E-2,-1.45797E-1,-1.8675813E-2,6.0758393E-2,2.161852E-1,-1.5336245E-1,4.231778E-1,1.2573196E-3,-3.1590903E-1,8.667598E-2,-3.0492628E-2,1.1712147E-1,3.0467722E-1,-9.973768E-3,-3.6415418E-3,-5.1339255E-3,3.013852E-2,-7.236285E-4,1.8672831E-2,-4.8848346E-2,-1.0039544E-2,6.0923514E-3,1.0582998E-3,-5.053377E-3,4.6164985E-3,2.0574091E-3,1.5790395E-2,-2.8157055E-2,1.6174989E-2],"categories":[],"categories_nodes":[],"categories_segments":[],"categories_sizes":[],"default_left":[0,0,0,0,0,0,0,0,0,0,0,0,0,0,0,0,0,0,0,0,0,0,0,0,0,0,0,0,0,0,0],"id":10,"left_children":[1,3,5,7,9,11,13,15,17,19,21,23,25,27,29,-1,-1,-1,-1,-1,-1,-1,-1,-1,-1,-1,-1,-1,-1,-1,-1],"loss_changes":[6.34556E1,1.1583935E1,1.2900053E1,9.316338E0,6.4210396E0,7.4533424E0,5.5728245E0,7.8610764E0,2.7918434E0,5.962042E0,4.8679075E0,5.634491E0,6.0452175E0,4.574646E0,5.700573E0,0E0,0E0,0E0,0E0,0E0,0E0,0E0,0E0,0E0,0E0,0E0,0E0,0E0,0E0,0E0,0E0],"parents":[2147483647,0,0,1,1,2,2,3,3,4,4,5,5,6,6,7,7,8,8,9,9,10,10,11,11,12,12,13,13,14,14],"right_children":[2,4,6,8,10,12,14,16,18,20,22,24,26,28,30,-1,-1,-1,-1,-1,-1,-1,-1,-1,-1,-1,-1,-1,-1,-1,-1],"split_conditions":[1.6310718E-2,3.574624E-3,2.3992112E-2,3.3350438E-2,1.1010857E0,5.6047197E-2,1.1E1,1.4545885E-2,-1.701861E-3,5.631196E-3,-1.7353423E-1,6.743738E-3,6.9444724E-3,1.5840081E-3,1.1124904E-2,-9.973768E-3,-3.6415418E-3,-5.1339255E-3,3.013852E-2,-7.236285E-4,1.8672831E-2,-4.8848346E-2,-1.0039544E-2,6.0923514E-3,1.0582998E-3,-5.053377E-3,4.6164985E-3,2.0574091E-3,1.5790395E-2,-2.8157055E-2,1.6174989E-2],"split_indices":[36,18,36,37,25,45,4,36,101,67,109,42,19,65,24,0,0,0,0,0,0,0,0,0,0,0,0,0,0,0,0],"split_type":[0,0,0,0,0,0,0,0,0,0,0,0,0,0,0,0,0,0,0,0,0,0,0,0,0,0,0,0,0,0,0],"sum_hessian":[7.022476E3,3.2318694E3,3.7906064E3,2.154489E3,1.0773804E3,3.147018E3,6.435884E2,2.1271116E3,2.7377228E1,1.0102876E3,6.709284E1,2.4517932E3,6.952249E2,3.052855E2,3.383029E2,1.3508741E3,7.7623755E2,6.936946E0,2.044028E1,9.6998645E2,4.030113E1,8.711626E0,5.8381218E1,1.593752E3,8.5804126E2,4.4215195E2,2.5307298E2,2.2207814E2,8.320735E1,6.455157E0,3.3184772E2],"tree_param":{"num_deleted":"0","num_feature":"113","num_nodes":"31","size_leaf_vector":"1"}},{"base_weights":[0E0],"categories":[],"categories_nodes":[],"categories_segments":[],"categories_sizes":[],"default_left":[0],"id":11,"left_children":[-1],"loss_changes":[0E0],"parents":[2147483647],"right_children":[-1],"split_conditions":[0E0],"split_indices":[0],"split_type":[0],"sum_hessian":[3.2460608E-2],"tree_param":{"num_deleted":"0","num_feature":"113","num_nodes":"1","size_leaf_vector":"1"}},{"base_weights":[2.1214981E-4,1.1869042E-1,-7.182697E-2,2.6038906E-1,9.526917E-2,-2.6011618E-2,-1.3555321E-1,4.1894606E-1,1.600202E-1,1.5244591E-1,4.917117E-2,1.5070683E-1,-4.0748056E-2,-3.606859E-1,-1.2241997E-1,2.258777E-2,-2.86977E-2,4.6241274E-3,2.6397377E-2,9.050858E-3,-1.6733196E-3,6.277816E-4,1.0099748E-2,2.5289584E-2,1.4113173E-3,-4.622254E-3,-2.9196864E-4,3.7476826E-2,-1.968663E-2,-3.5432584E-3,-9.400415E-3],"categories":[],"categories_nodes":[],"categories_segments":[],"categories_sizes":[],"default_left":[0,0,0,0,0,0,0,0,0,0,0,0,0,0,0,0,0,0,0,0,0,0,0,0,0,0,0,0,0,0,0],"id":12,"left_children":[1,3,5,7,9,11,13,15,17,19,21,23,25,27,29,-1,-1,-1,-1,-1,-1,-1,-1,-1,-1,-1,-1,-1,-1,-1,-1],"loss_changes":[5.992707E1,8.751686E0,1.2726009E1,5.849964E0,5.9838715E0,6.6144934E0,5.302677E0,4.955389E0,5.6519356E0,5.4207916E0,7.0555515E0,8.427616E0,4.226038E0,3.9154072E0,5.7972717E0,0E0,0E0,0E0,0E0,0E0,0E0,0E0,0E0,0E0,0E0,0E0,0E0,0E0,0E0,0E0,0E0],"parents":[2147483647,0,0,1,1,2,2,3,3,4,4,5,5,6,6,7,7,8,8,9,9,10,10,11,11,12,12,13,13,14,14],"right_children":[2,4,6,8,10,12,14,16,18,20,22,24,26,28,30,-1,-1,-1,-1,-1,-1,-1,-1,-1,-1,-1,-1,-1,-1,-1,-1],"split_conditions":[1.547757E-2,1.1584311E-2,1.9736841E-2,-1.3790685E-1,2.07E2,-4.951691E-2,-5.8917936E-2,9.166649E-3,1E0,3.6215723E-1,1.9483931E-1,-1.6935082E-1,-5.2687216E0,1.4174668E-2,1.0416314E-1,2.258777E-2,-2.86977E-2,4.6241274E-3,2.6397377E-2,9.050858E-3,-1.6733196E-3,6.277816E-4,1.0099748E-2,2.5289584E-2,1.4113173E-3,-4.622254E-3,-2.9196864E-4,3.7476826E-2,-1.968663E-2,-3.5432584E-3,-9.400415E-3],"split_indices":[36,36,36,107,2,51,72,24,14,108,26,26,31,41,27,0,0,0,0,0,0,0,0,0,0,0,0,0,0,0,0],"split_type":[0,0,0,0,0,0,0,0,0,0,0,0,0,0,0,0,0,0,0,0,0,0,0,0,0,0,0,0,0,0,0],"sum_hessian":[7.0187266E3,2.654226E3,4.3645005E3,3.74445E2,2.279781E3,2.5407969E3,1.8237035E3,1.4353162E2,2.309134E2,1.0156113E3,1.2641698E3,1.9433469E2,2.3464622E3,9.864437E1,1.7250591E3,1.3956554E2,3.96607E0,1.9638724E2,3.4526173E1,8.808114E2,1.3479997E2,1.0212272E3,2.4294257E2,4.8828697E1,1.4550598E2,9.439836E2,1.4024786E3,2.137187E0,9.650718E1,9.6787744E2,7.571817E2],"tree_param":{"num_deleted":"0","num_feature":"113","num_nodes":"31","size_leaf_vector":"1"}},{"base_weights":[6.4694914E-3,-9.2820354E-2,9.030108E-2,-1.9127847E-1,-5.7249524E-2,6.342213E-2,2.2086453E-1,-2.6000333E-1,-8.9246124E-2,4.27772E-2,-9.392322E-2,-5.7623094E-1,6.667419E-2,4.7775242E-1,1.8736897E-1,-4.6452894E-3,-1.7221423E-2,-7.2725574E-3,5.6325323E-3,-2.0419492E-3,1.0948898E-2,-1.274803E-2,-2.9426627E-3,-5.191476E-2,-2.6104266E-3,2.131E-3,7.434231E-3,2.56844E-2,-3.1004364E-2,6.0595553E-3,1.801259E-2],"categories":[],"categories_nodes":[],"categories_segments":[],"categories_sizes":[],"default_left":[0,0,0,0,0,0,0,0,0,0,0,0,0,0,0,0,0,0,0,0,0,0,0,0,0,0,0,0,0,0,0],"id":13,"left_children":[1,3,5,7,9,11,13,15,17,19,21,23,25,27,29,-1,-1,-1,-1,-1,-1,-1,-1,-1,-1,-1,-1,-1,-1,-1,-1],"loss_changes":[5.8293285E1,1.1190901E1,1.3285574E1,5.8992405E0,8.655444E0,6.543104E0,5.4139957E0,7.070122E0,3.923681E0,9.342397E0,9.699726E0,3.6840892E0,6.162037E0,3.2146587E0,6.48279E0,0E0,0E0,0E0,0E0,0E0,0E0,0E0,0E0,0E0,0E0,0E0,0E0,0E0,0E0,0E0,0E0],"parents":[2147483647,0,0,1,1,2,2,3,3,4,4,5,5,6,6,7,7,8,8,9,9,10,10,11,11,12,12,13,13,14,14],"right_children":[2,4,6,8,10,12,14,16,18,20,22,24,26,28,30,-1,-1,-1,-1,-1,-1,-1,-1,-1,-1,-1,-1,-1,-1,-1,-1],"split_conditions":[1.6273042E-2,-1.373759E-2,2.3992112E-2,1.45959975E-2,-1.3596193E-3,-5.643185E-3,-5.8917936E-2,-2.679783E-2,3.7902132E-6,1.5469718E-3,3.9585534E-1,2.057776E-2,8.9435226E-1,6.75167E-2,7.948597E-3,-4.6452894E-3,-1.7221423E-2,-7.2725574E-3,5.6325323E-3,-2.0419492E-3,1.0948898E-2,-1.274803E-2,-2.9426627E-3,-5.191476E-2,-2.6104266E-3,2.131E-3,7.434231E-3,2.56844E-2,-3.1004364E-2,6.0595553E-3,1.801259E-2],"split_indices":[36,21,36,36,40,49,72,40,100,69,38,36,27,37,70,0,0,0,0,0,0,0,0,0,0,0,0,0,0,0,0],"split_type":[0,0,0,0,0,0,0,0,0,0,0,0,0,0,0,0,0,0,0,0,0,0,0,0,0,0,0,0,0,0,0],"sum_hessian":[7.0013755E3,3.2045808E3,3.7967944E3,8.48577E2,2.356004E3,3.1504636E3,6.463309E2,5.055385E2,3.4303854E2,6.312875E2,1.7247164E3,1.48894615E1,3.1355742E3,7.267959E1,5.7365125E2,1.7078972E2,3.3474878E2,2.6894357E2,7.409497E1,4.2825803E2,2.0302942E2,3.0680057E2,1.4179159E3,7.2895613E0,7.5999002E0,2.4265813E3,7.089929E2,7.09794E1,1.7001853E0,4.1649893E2,1.5715234E2],"tree_param":{"num_deleted":"0","num_feature":"113","num_nodes":"31","size_leaf_vector":"1"}},{"base_weights":[0E0],"categories":[],"categories_nodes":[],"categories_segments":[],"categories_sizes":[],"default_left":[0],"id":14,"left_children":[-1],"loss_changes":[0E0],"parents":[2147483647],"right_children":[-1],"split_conditions":[0E0],"split_indices":[0],"split_type":[0],"sum_hessian":[3.270787E-2],"tree_param":{"num_deleted":"0","num_feature":"113","num_nodes":"1","size_leaf_vector":"1"}},{"base_weights":[4.177791E-3,1.03464894E-1,-8.10809E-2,1.8743002E-1,7.473739E-2,-2.6623614E-2,-1.266582E-1,1.04261294E-1,2.7337325E-1,9.5865324E-2,-6.448346E-2,1.0425057E-2,-1.10826395E-1,-4.2213625E-1,-1.1616556E-1,1.569033E-3,1.5211198E-2,1.5270817E-2,-2.3008669E-2,5.5708387E-3,-7.283953E-3,-4.337582E-3,4.7718316E-2,1.7828916E-3,-6.5987045E-3,-9.858617E-3,2.581752E-3,-2.574774E-2,-7.286694E-3,-6.1171497E-3,1.642844E-2],"categories":[],"categories_nodes":[],"categories_segments":[],"categories_sizes":[],"default_left":[0,0,0,0,0,0,0,0,0,0,0,0,0,0,0,0,0,0,0,0,0,0,0,0,0,0,0,0,0,0,0],"id":15,"left_children":[1,3,5,7,9,11,13,15,17,19,21,23,25,27,29,-1,-1,-1,-1,-1,-1,-1,-1,-1,-1,-1,-1,-1,-1,-1,-1],"loss_changes":[5.9523655E1,7.7966537E0,9.369368E0,5.8426285E0,7.137329E0,5.394384E0,6.2771187E0,6.111629E0,9.652826E0,7.9200478E0,7.23969E0,4.3011804E0,7.4338756E0,1.6512308E0,5.483898E0,0E0,0E0,0E0,0E0,0E0,0E0,0E0,0E0,0E0,0E0,0E0,0E0,0E0,0E0,0E0,0E0],"parents":[2147483647,0,0,1,1,2,2,3,3,4,4,5,5,6,6,7,7,8,8,9,9,10,10,11,11,12,12,13,13,14,14],"right_children":[2,4,6,8,10,12,14,16,18,20,22,24,26,28,30,-1,-1,-1,-1,-1,-1,-1,-1,-1,-1,-1,-1,-1,-1,-1,-1],"split_conditions":[1.6310718E-2,3.3389988E1,1.9246032E-2,3.38137E-2,2E1,8.049876E-4,-1.25E-2,2.08673E-3,7.983588E-1,4.8002154E-1,1.1517924E0,7.529959E-2,3.0395174E0,8.660254E-1,3.0568297E0,1.569033E-3,1.5211198E-2,1.5270817E-2,-2.3008669E-2,5.5708387E-3,-7.283953E-3,-4.337582E-3,4.7718316E-2,1.7828916E-3,-6.5987045E-3,-9.858617E-3,2.581752E-3,-2.574774E-2,-7.286694E-3,-6.1171497E-3,1.642844E-2],"split_indices":[36,34,36,108,4,65,99,103,73,74,25,66,43,6,26,0,0,0,0,0,0,0,0,0,0,0,0,0,0,0,0],"split_type":[0,0,0,0,0,0,0,0,0,0,0,0,0,0,0,0,0,0,0,0,0,0,0,0,0,0,0,0,0,0,0],"sum_hessian":[7.0294087E3,3.247974E3,3.7814346E3,8.256748E2,2.4222993E3,1.7246014E3,2.056833E3,4.213266E2,4.0434824E2,2.1040256E3,3.182738E2,1.1974291E3,5.2717236E2,6.886267E1,1.9879705E3,3.099982E2,1.1132839E2,3.881144E2,1.623382E1,1.9776505E3,1.2637508E2,3.1245767E2,5.8161297E0,1.01841956E3,1.7900955E2,3.4448526E2,1.8268712E2,5.0634327E1,1.8228342E1,1.9616724E3,2.6298143E1],"tree_param":{"num_deleted":"0","num_feature":"113","num_nodes":"31","size_leaf_vector":"1"}},{"base_weights":[-5.3546326E-3,-9.1322996E-2,9.18392E-2,-8.335983E-2,-4.11865E-1,6.4179875E-2,2.0603198E-1,-1.5850103E-1,-5.1908527E-2,-3.1690496E-1,-1.0092266E0,4.6865143E-2,2.3346245E-1,4.7052187E-1,1.709045E-1,-4.312629E-3,-1.5586182E-2,-4.1671963E-3,1.6257117E-3,-4.6241302E-2,-1.0695129E-2,-6.514996E-2,7.917772E-3,4.092787E-3,-2.2589678E-3,1.4264016E-2,-3.696344E-3,2.4705341E-2,-2.3682423E-2,1.3342149E-2,3.796775E-3],"categories":[],"categories_nodes":[],"categories_segments":[],"categories_sizes":[],"default_left":[0,0,0,0,0,0,0,0,0,0,0,0,0,0,0,0,0,0,0,0,0,0,0,0,0,0,0,0,0,0,0],"id":16,"left_children":[1,3,5,7,9,11,13,15,17,19,21,23,25,27,29,-1,-1,-1,-1,-1,-1,-1,-1,-1,-1,-1,-1,-1,-1,-1,-1],"loss_changes":[5.8672245E1,9.428534E0,1.036783E1,8.568075E0,4.6402655E0,7.7427177E0,5.8143806E0,1.1800114E1,6.819999E0,4.6392198E0,4.3380423E0,7.7702694E0,3.9536505E0,1.8904152E0,5.1213875E0,0E0,0E0,0E0,0E0,0E0,0E0,0E0,0E0,0E0,0E0,0E0,0E0,0E0,0E0,0E0,0E0],"parents":[2147483647,0,0,1,1,2,2,3,3,4,4,5,5,6,6,7,7,8,8,9,9,10,10,11,11,12,12,13,13,14,14],"right_children":[2,4,6,8,10,12,14,16,18,20,22,24,26,28,30,-1,-1,-1,-1,-1,-1,-1,-1,-1,-1,-1,-1,-1,-1,-1,-1],"split_conditions":[1.7063146E-2,3.62E2,2.3992112E-2,-7.175838E-3,1.02685625E-2,7.102127E-2,-5.8917936E-2,-9.107468E-3,1.5517024E-2,9.507448E-1,1.590263E-2,1.833389E1,3.6215723E-1,6.9110084E-1,1.2246469E-16,-4.312629E-3,-1.5586182E-2,-4.1671963E-3,1.6257117E-3,-4.6241302E-2,-1.0695129E-2,-6.514996E-2,7.917772E-3,4.092787E-3,-2.2589678E-3,1.4264016E-2,-3.696344E-3,2.4705341E-2,-2.3682423E-2,1.3342149E-2,3.796775E-3],"split_indices":[36,2,36,19,39,22,72,39,36,25,36,31,108,108,6,0,0,0,0,0,0,0,0,0,0,0,0,0,0,0,0],"split_type":[0,0,0,0,0,0,0,0,0,0,0,0,0,0,0,0,0,0,0,0,0,0,0,0,0,0,0,0,0,0,0],"sum_hessian":[7.0199136E3,3.7256497E3,3.294264E3,3.6368713E3,8.877816E1,2.6538875E3,6.403765E2,1.0709691E3,2.5659023E3,7.8066216E1,1.0711944E1,2.4093223E3,2.4456514E2,7.329151E1,5.67085E2,7.293005E2,3.4166867E2,1.8705773E3,6.95325E2,1.0013995E1,6.805222E1,8.534311E0,2.1776326E0,1.7465652E3,6.627572E2,2.0962503E2,3.49401E1,7.207373E1,1.2177793E0,2.806785E2,2.864065E2],"tree_param":{"num_deleted":"0","num_feature":"113","num_nodes":"31","size_leaf_vector":"1"}},{"base_weights":[0E0],"categories":[],"categories_nodes":[],"categories_segments":[],"categories_sizes":[],"default_left":[0],"id":17,"left_children":[-1],"loss_changes":[0E0],"parents":[2147483647],"right_children":[-1],"split_conditions":[0E0],"split_indices":[0],"split_type":[0],"sum_hessian":[3.2462344E-2],"tree_param":{"num_deleted":"0","num_feature":"113","num_nodes":"1","size_leaf_vector":"1"}},{"base_weights":[3.004742E-3,1.0321489E-1,-8.223097E-2,1.7473836E-1,6.6616155E-2,-5.978798E-2,-1.8664122E-1,1.5923281E-1,6.8702185E-1,8.64511E-3,1.313121E-1,-2.4794817E-2,-1.1127985E-1,-4.75391E-1,-1.5094298E-1,3.411064E-3,1.3140325E-2,4.503463E-2,-1.49101345E-2,-1.6518172E-3,9.555138E-3,-1.4357826E-3,8.198726E-3,1.0342172E-2,-2.377995E-3,-1.0256519E-2,-3.0020576E-3,-2.5591254E-2,3.225491E-2,-8.8114524E-4,-1.1760504E-2],"categories":[],"categories_nodes":[],"categories_segments":[],"categories_sizes":[],"default_left":[0,0,0,0,0,0,0,0,0,0,0,0,0,0,0,0,0,0,0,0,0,0,0,0,0,0,0,0,0,0,0],"id":18,"left_children":[1,3,5,7,9,11,13,15,17,19,21,23,25,27,29,-1,-1,-1,-1,-1,-1,-1,-1,-1,-1,-1,-1,-1,-1,-1,-1],"loss_changes":[6.0271675E1,8.455139E0,8.897747E0,8.5151825E0,8.041908E0,5.6418085E0,6.805233E0,9.994776E0,7.0063505E0,8.653173E0,5.3201847E0,9.865766E0,6.064089E0,3.3092957E0,6.721775E0,0E0,0E0,0E0,0E0,0E0,0E0,0E0,0E0,0E0,0E0,0E0,0E0,0E0,0E0,0E0,0E0],"parents":[2147483647,0,0,1,1,2,2,3,3,4,4,5,5,6,6,7,7,8,8,9,9,10,10,11,11,12,12,13,13,14,14],"right_children":[2,4,6,8,10,12,14,16,18,20,22,24,26,28,30,-1,-1,-1,-1,-1,-1,-1,-1,-1,-1,-1,-1,-1,-1,-1,-1],"split_conditions":[1.6273042E-2,-5.6849885E-1,2.3809524E-2,1.1228533E-2,1.2246469E-16,2.7027044E-3,-5.8917936E-2,3.38137E-2,5.2578866E-2,2.2746292E-1,-5.4533063E-3,-3.646215E-1,9.8697746E-1,2.2781366E-2,-1.6528925E-2,3.411064E-3,1.3140325E-2,4.503463E-2,-1.49101345E-2,-1.6518172E-3,9.555138E-3,-1.4357826E-3,8.198726E-3,1.0342172E-2,-2.377995E-3,-1.0256519E-2,-3.0020576E-3,-2.5591254E-2,3.225491E-2,-8.8114524E-4,-1.1760504E-2],"split_indices":[36,28,36,39,6,18,72,108,42,26,42,26,25,39,42,0,0,0,0,0,0,0,0,0,0,0,0,0,0,0,0],"split_type":[0,0,0,0,0,0,0,0,0,0,0,0,0,0,0,0,0,0,0,0,0,0,0,0,0,0,0,0,0,0,0],"sum_hessian":[7.0541084E3,3.2426929E3,3.8114153E3,1.09543E3,2.1472627E3,3.139179E3,6.722364E2,1.06471E3,3.07201E1,1.1339036E3,1.01335925E3,1.8710576E3,1.2681213E3,7.230114E1,5.9993524E2,5.681199E2,4.9659012E2,2.539899E1,5.3211083E0,9.2326056E2,2.10643E2,1.712735E2,8.4208575E2,1.663135E2,1.7047441E3,4.4609106E2,8.2203033E2,7.063676E1,1.6643811E0,2.3327058E2,3.6666464E2],"tree_param":{"num_deleted":"0","num_feature":"113","num_nodes":"31","size_leaf_vector":"1"}},{"base_weights":[-4.45401E-3,8.946585E-2,-6.073954E-2,4.196821E-1,8.077006E-2,-1.176468E-1,-1.4059739E-2,-2.0909183E-1,5.1448506E-1,2.5890622E-2,1.4126736E-1,-1.9721754E-1,-4.3755997E-2,-1.0875077E-1,8.576757E-3,2.5981396E-2,-3.5503965E-2,3.09407E-2,1.5420517E-3,-1.1083236E-2,2.7750372E-3,5.1388226E-4,9.424406E-3,-2.9107535E-2,-8.608631E-3,-3.1968784E-2,-1.6568097E-3,-1.9519202E-3,-1.542719E-2,-1.6966986E-2,8.616416E-4],"categories":[],"categories_nodes":[],"categories_segments":[],"categories_sizes":[],"default_left":[0,0,0,0,0,0,0,0,0,0,0,0,0,0,0,0,0,0,0,0,0,0,0,0,0,0,0,0,0,0,0],"id":19,"left_children":[1,3,5,7,9,11,13,15,17,19,21,23,25,27,29,-1,-1,-1,-1,-1,-1,-1,-1,-1,-1,-1,-1,-1,-1,-1,-1],"loss_changes":[3.7135384E1,7.4735794E0,1.165588E1,4.131729E0,8.498625E0,1.1601198E1,5.188908E0,3.8017557E0,2.8750906E0,9.873199E0,7.5207005E0,9.000282E0,6.413469E0,6.457509E0,5.8453107E0,0E0,0E0,0E0,0E0,0E0,0E0,0E0,0E0,0E0,0E0,0E0,0E0,0E0,0E0,0E0,0E0],"parents":[2147483647,0,0,1,1,2,2,3,3,4,4,5,5,6,6,7,7,8,8,9,9,10,10,11,11,12,12,13,13,14,14],"right_children":[2,4,6,8,10,12,14,16,18,20,22,24,26,28,30,-1,-1,-1,-1,-1,-1,-1,-1,-1,-1,-1,-1,-1,-1,-1,-1],"split_conditions":[8.9284775E1,-1.3387539E-2,8.546624E-3,-3.72912E-1,1.152852E-1,-9.364127E-4,1.9816944E-6,-1.073769E0,9.168082E-3,1.369863E-2,2.022E3,1.1E1,-5.8768494E-3,1.4935416E0,1.71875E1,2.5981396E-2,-3.5503965E-2,3.09407E-2,1.5420517E-3,-1.1083236E-2,2.7750372E-3,5.1388226E-4,9.424406E-3,-2.9107535E-2,-8.608631E-3,-3.1968784E-2,-1.6568097E-3,-1.9519202E-3,-1.542719E-2,-1.6966986E-2,8.616416E-4],"split_indices":[30,101,24,26,27,71,100,29,42,41,0,2,99,43,33,0,0,0,0,0,0,0,0,0,0,0,0,0,0,0,0],"split_type":[0,0,0,0,0,0,0,0,0,0,0,0,0,0,0,0,0,0,0,0,0,0,0,0,0,0,0,0,0,0,0],"sum_hessian":[7.0233115E3,2.6309153E3,4.3923965E3,6.599617E1,2.564919E3,1.9777106E3,2.4146858E3,8.350658E0,5.7645515E1,1.3465198E3,1.2183992E3,9.5080035E2,1.0269102E3,4.6599393E2,1.948692E3,3.3056118E0,5.0450463E0,4.701702E1,1.0628492E1,1.4279759E2,1.2037222E3,3.237253E2,8.946739E2,5.6480137E1,8.9432025E2,1.6786812E1,1.0101234E3,3.4671356E2,1.1928037E2,4.609816E1,1.9025938E3],"tree_param":{"num_deleted":"0","num_feature":"113","num_nodes":"31","size_leaf_vector":"1"}},{"base_weights":[0E0],"categories":[],"categories_nodes":[],"categories_segments":[],"categories_sizes":[],"default_left":[0],"id":20,"left_children":[-1],"loss_changes":[0E0],"parents":[2147483647],"right_children":[-1],"split_conditions":[0E0],"split_indices":[0],"split_type":[0],"sum_hessian":[3.2357335E-2],"tree_param":{"num_deleted":"0","num_feature":"113","num_nodes":"1","size_leaf_vector":"1"}},{"base_weights":[3.6163544E-3,1.0650906E-1,-7.24422E-2,2.1779789E-1,7.814389E-2,-4.3937206E-2,-1.5190537E-1,2.515578E-1,-7.333099E-2,1.5422049E-2,1.4650007E-1,7.716998E-2,-7.1729966E-2,-4.0881896E-1,-1.3049114E-1,6.5232934E-3,1.7415276E-2,-1.6076807E-2,7.033571E-3,7.7343187E-3,-8.2246255E-4,5.3580594E-4,9.717039E-3,4.541101E-4,2.362263E-2,-7.3144096E-3,-1.4905873E-3,-2.1955386E-2,2.4002625E-2,-3.2825135E-3,-1.0727435E-2],"categories":[],"categories_nodes":[],"categories_segments":[],"categories_sizes":[],"default_left":[0,0,0,0,0,0,0,0,0,0,0,0,0,0,0,0,0,0,0,0,0,0,0,0,0,0,0,0,0,0,0],"id":21,"left_children":[1,3,5,7,9,11,13,15,17,19,21,23,25,27,29,-1,-1,-1,-1,-1,-1,-1,-1,-1,-1,-1,-1,-1,-1,-1,-1],"loss_changes":[5.5082977E1,9.398064E0,9.138849E0,5.9964123E0,1.0213517E1,1.0036417E1,5.7625237E0,6.279064E0,3.4351735E0,5.548672E0,7.3898773E0,1.4914282E1,7.557658E0,2.3944416E0,5.335575E0,0E0,0E0,0E0,0E0,0E0,0E0,0E0,0E0,0E0,0E0,0E0,0E0,0E0,0E0,0E0,0E0],"parents":[2147483647,0,0,1,1,2,2,3,3,4,4,5,5,6,6,7,7,8,8,9,9,10,10,11,11,12,12,13,13,14,14],"right_children":[2,4,6,8,10,12,14,16,18,20,22,24,26,28,30,-1,-1,-1,-1,-1,-1,-1,-1,-1,-1,-1,-1,-1,-1,-1,-1],"split_conditions":[1.590263E-2,3.7885464E1,2.1758242E-2,-1.4115092E-2,1.2246469E-16,1.5078914E1,-5.8917936E-2,2.8333334E1,-7.2202166E-3,1.1996368E-2,-3.9229672E-3,-1.1910434E-2,-9.796556E0,8.18372E1,1.0416314E-1,6.5232934E-3,1.7415276E-2,-1.6076807E-2,7.033571E-3,7.7343187E-3,-8.2246255E-4,5.3580594E-4,9.717039E-3,4.541101E-4,2.362263E-2,-7.3144096E-3,-1.4905873E-3,-2.1955386E-2,2.4002625E-2,-3.2825135E-3,-1.0727435E-2],"split_indices":[36,33,36,53,6,34,72,33,39,36,40,40,31,30,27,0,0,0,0,0,0,0,0,0,0,0,0,0,0,0,0],"split_type":[0,0,0,0,0,0,0,0,0,0,0,0,0,0,0,0,0,0,0,0,0,0,0,0,0,0,0,0,0,0,0],"sum_hessian":[7.036154E3,2.9909216E3,4.0452322E3,6.054147E2,2.385507E3,2.9793079E3,1.0659243E3,5.4293427E2,6.248039E1,1.2454257E3,1.1400814E3,5.550963E2,2.4242117E3,8.025984E1,9.856645E2,2.4263193E2,3.0030237E2,2.8912163E1,3.3568226E1,2.3180748E2,1.0136182E3,2.978949E2,8.4218646E2,4.746188E2,8.047755E1,8.706848E2,1.5535267E3,7.821319E1,2.0466583E0,5.581138E2,4.275507E2],"tree_param":{"num_deleted":"0","num_feature":"113","num_nodes":"31","size_leaf_vector":"1"}},{"base_weights":[-5.5940477E-3,-1.0287287E-1,7.152249E-2,-1.24066666E-1,3.5807274E-2,4.902447E-2,1.8255107E-1,-1.6375493E-1,-5.4159407E-2,-1.1366697E-1,1.24778114E-1,2.4561796E-2,1.252554E-1,1.9610803E-1,-5.2438015E-1,-6.1261924E-3,-1.21214185E-2,-1.8598821E-2,-1.9642643E-3,1.2656319E-2,-1.0068931E-2,2.0234218E-2,3.3239642E-4,3.1518794E-3,-1.7992186E-3,1.7130071E-2,4.7942107E-3,2.3442892E-2,8.046417E-3,1.2897159E-2,-5.5475798E-2],"categories":[],"categories_nodes":[],"categories_segments":[],"categories_sizes":[],"default_left":[0,0,0,0,0,0,0,0,0,0,0,0,0,0,0,0,0,0,0,0,0,0,0,0,0,0,0,0,0,0,0],"id":22,"left_children":[1,3,5,7,9,11,13,15,17,19,21,23,25,27,29,-1,-1,-1,-1,-1,-1,-1,-1,-1,-1,-1,-1,-1,-1,-1,-1],"loss_changes":[5.2643982E1,9.134838E0,9.743879E0,7.4407806E0,5.488611E0,6.05442E0,6.379019E0,5.501133E0,4.565606E0,4.9896836E0,8.516571E0,5.7531266E0,4.965575E0,6.067564E0,6.1026382E0,0E0,0E0,0E0,0E0,0E0,0E0,0E0,0E0,0E0,0E0,0E0,0E0,0E0,0E0,0E0,0E0],"parents":[2147483647,0,0,1,1,2,2,3,3,4,4,5,5,6,6,7,7,8,8,9,9,10,10,11,11,12,12,13,13,14,14],"right_children":[2,4,6,8,10,12,14,16,18,20,22,24,26,28,30,-1,-1,-1,-1,-1,-1,-1,-1,-1,-1,-1,-1,-1,-1,-1,-1],"split_conditions":[1.607717E-2,2E1,2.3809524E-2,3.0257208E-3,-5.4054055E-3,1.348335E-2,8.8427666E1,4.9443757E-3,1.0629252E-2,-1.2048192E-2,3.5868005E-3,4.0665433E-2,-1.9465335E-2,-5.8917936E-2,1.0525162E-2,-6.1261924E-3,-1.21214185E-2,-1.8598821E-2,-1.9642643E-3,1.2656319E-2,-1.0068931E-2,2.0234218E-2,3.3239642E-4,3.1518794E-3,-1.7992186E-3,1.7130071E-2,4.7942107E-3,2.3442892E-2,8.046417E-3,1.2897159E-2,-5.5475798E-2],"split_indices":[36,4,36,18,53,19,30,42,36,37,44,45,21,72,24,0,0,0,0,0,0,0,0,0,0,0,0,0,0,0,0],"split_type":[0,0,0,0,0,0,0,0,0,0,0,0,0,0,0,0,0,0,0,0,0,0,0,0,0,0,0,0,0,0,0],"sum_hessian":[7.015109E3,3.102463E3,3.912646E3,2.6919E3,4.105632E2,3.2553484E3,6.572976E2,1.7153026E3,9.7659717E2,1.5267018E2,2.57893E2,2.4664827E3,7.888658E2,6.4577747E2,1.1520144E1,1.1279803E3,5.8732227E2,4.2288235E1,9.343089E2,2.8878756E1,1.23791435E2,7.556694E1,1.8232607E2,1.5090953E3,9.5738727E2,9.2237976E1,6.966278E2,7.204435E1,5.7373315E2,5.095612E0,6.424533E0],"tree_param":{"num_deleted":"0","num_feature":"113","num_nodes":"31","size_leaf_vector":"1"}},{"base_weights":[0E0],"categories":[],"categories_nodes":[],"categories_segments":[],"categories_sizes":[],"default_left":[0],"id":23,"left_children":[-1],"loss_changes":[0E0],"parents":[2147483647],"right_children":[-1],"split_conditions":[0E0],"split_indices":[0],"split_type":[0],"sum_hessian":[3.2556064E-2],"tree_param":{"num_deleted":"0","num_feature":"113","num_nodes":"1","size_leaf_vector":"1"}},{"base_weights":[1.1970823E-3,7.6983616E-2,-8.627527E-2,1.385221E-1,3.3725377E-2,-6.3089825E-2,-1.800108E-1,2.7141023E-1,1.0019292E-1,-2.3435764E-2,9.6652836E-2,1.0761062E-1,-7.569011E-2,-1.3802366E-1,-3.8996562E-1,1.1777726E-2,5.3296655E-2,8.883673E-3,1.2713823E-3,-4.912313E-3,1.6756889E-3,7.378073E-3,-1.5283638E-3,1.6748302E-2,-1.0914873E-2,-1.3386689E-2,-3.2922921E-3,3.7744245E-5,-1.0496712E-2,-2.1979174E-2,1.5385901E-2],"categories":[],"categories_nodes":[],"categories_segments":[],"categories_sizes":[],"default_left":[0,0,0,0,0,0,0,0,0,0,0,0,0,0,0,0,0,0,0,0,0,0,0,0,0,0,0,0,0,0,0],"id":24,"left_children":[1,3,5,7,9,11,13,15,17,19,21,23,25,27,29,-1,-1,-1,-1,-1,-1,-1,-1,-1,-1,-1,-1,-1,-1,-1,-1],"loss_changes":[4.661231E1,1.0008675E1,7.0568523E0,7.851368E0,7.9766207E0,5.6375036E0,5.5859547E0,9.496546E0,6.9749804E0,4.954426E0,6.850998E0,1.3413456E1,4.561615E0,5.4108934E0,3.8412037E0,0E0,0E0,0E0,0E0,0E0,0E0,0E0,0E0,0E0,0E0,0E0,0E0,0E0,0E0,0E0,0E0],"parents":[2147483647,0,0,1,1,2,2,3,3,4,4,5,5,6,6,7,7,8,8,9,9,10,10,11,11,12,12,13,13,14,14],"right_children":[2,4,6,8,10,12,14,16,18,20,22,24,26,28,30,-1,-1,-1,-1,-1,-1,-1,-1,-1,-1,-1,-1,-1,-1,-1,-1],"split_conditions":[1.7063146E-2,-2.7991622E-3,2.3809524E-2,1.27521735E-2,1.2246469E-16,-3.828783E-1,1.3047507E0,2.9612819E-2,9.955256E-1,6.8198135E-3,3.7073073E-6,3.1794817E-4,-6.090278E-3,-8.087152E-3,3.8071666E-2,1.1777726E-2,5.3296655E-2,8.883673E-3,1.2713823E-3,-4.912313E-3,1.6756889E-3,7.378073E-3,-1.5283638E-3,1.6748302E-2,-1.0914873E-2,-1.3386689E-2,-3.2922921E-3,3.7744245E-5,-1.0496712E-2,-2.1979174E-2,1.5385901E-2],"split_indices":[36,20,36,36,6,26,68,106,25,39,100,18,67,104,42,0,0,0,0,0,0,0,0,0,0,0,0,0,0,0,0],"split_type":[0,0,0,0,0,0,0,0,0,0,0,0,0,0,0,0,0,0,0,0,0,0,0,0,0,0,0,0,0,0,0],"sum_hessian":[7.0294727E3,3.7669927E3,3.2624802E3,1.553085E3,2.2139077E3,2.6177266E3,6.447537E2,3.4573254E2,1.2073524E3,1.1596029E3,1.0543049E3,1.7888142E2,2.4388452E3,5.39081E2,1.056727E2,3.3216473E2,1.35678005E1,5.9157697E2,6.157754E2,5.0165097E2,6.579519E2,7.534351E2,3.0086978E2,1.0553714E2,7.334429E1,1.1714801E2,2.321697E3,1.8385756E2,3.5522345E2,9.9135635E1,6.537057E0],"tree_param":{"num_deleted":"0","num_feature":"113","num_nodes":"31","size_leaf_vector":"1"}},{"base_weights":[6.5460936E-3,-7.158709E-2,9.687181E-2,-1.4670481E-1,-4.303594E-2,5.0311897E-2,1.5342867E-1,-2.3199269E-1,-5.590736E-2,1.7356273E-2,-1.0819234E-1,1.036239E-1,-8.045544E-2,2.2701678E-1,8.82873E-2,-1.267112E-2,1.695813E-2,6.9426964E-3,-6.1831777E-3,1.2691231E-2,-1.31523E-4,-8.079537E-3,-2.7876752E-4,-5.5081914E-3,6.741001E-3,-5.4288968E-3,1.6508406E-2,-3.475036E-2,1.2002422E-2,1.0513379E-2,1.361697E-4],"categories":[],"categories_nodes":[],"categories_segments":[],"categories_sizes":[],"default_left":[0,0,0,0,0,0,0,0,0,0,0,0,0,0,0,0,0,0,0,0,0,0,0,0,0,0,0,0,0,0,0],"id":25,"left_children":[1,3,5,7,9,11,13,15,17,19,21,23,25,27,29,-1,-1,-1,-1,-1,-1,-1,-1,-1,-1,-1,-1,-1,-1,-1,-1],"loss_changes":[4.9322945E1,8.009975E0,8.508688E0,7.9379864E0,1.0702656E1,1.2423658E1,6.9583206E0,6.5700703E0,6.6268706E0,6.6906114E0,7.149352E0,8.459732E0,5.968761E0,8.355465E0,8.098648E0,0E0,0E0,0E0,0E0,0E0,0E0,0E0,0E0,0E0,0E0,0E0,0E0,0E0,0E0,0E0,0E0],"parents":[2147483647,0,0,1,1,2,2,3,3,4,4,5,5,6,6,7,7,8,8,9,9,10,10,11,11,12,12,13,13,14,14],"right_children":[2,4,6,8,10,12,14,16,18,20,22,24,26,28,30,-1,-1,-1,-1,-1,-1,-1,-1,-1,-1,-1,-1,-1,-1,-1,-1],"split_conditions":[1.7063146E-2,3.5074524E1,1.0416314E-1,9.9512744E-1,1.2246469E-16,-4.601227E-3,5.1297844E1,3.9433697E-3,1.0009049E0,-1.2995452E-2,6.7943975E-2,-2.5482318E-1,1.4074247E0,-1.6977929E-1,-5.5991746E-2,-1.267112E-2,1.695813E-2,6.9426964E-3,-6.1831777E-3,1.2691231E-2,-1.31523E-4,-8.079537E-3,-2.7876752E-4,-5.5081914E-3,6.741001E-3,-5.4288968E-3,1.6508406E-2,-3.475036E-2,1.2002422E-2,1.0513379E-2,1.361697E-4],"split_indices":[36,34,27,25,6,39,34,65,25,39,66,26,29,44,26,0,0,0,0,0,0,0,0,0,0,0,0,0,0,0,0],"split_type":[0,0,0,0,0,0,0,0,0,0,0,0,0,0,0,0,0,0,0,0,0,0,0,0,0,0,0,0,0,0,0],"sum_hessian":[6.98645E3,3.7455713E3,3.2408787E3,1.029453E3,2.7161184E3,1.7795437E3,1.461335E3,5.294621E2,4.9999094E2,1.4091776E3,1.3069408E3,1.2648531E3,5.1469055E2,6.842922E2,7.7704285E2,5.1102002E2,1.8442053E1,1.2839673E2,3.715942E2,1.09301865E2,1.2998757E3,8.586035E2,4.4833722E2,1.6033524E2,1.104518E3,4.8261655E2,3.2073994E1,8.700529E0,6.755916E2,3.1926752E2,4.5777533E2],"tree_param":{"num_deleted":"0","num_feature":"113","num_nodes":"31","size_leaf_vector":"1"}},{"base_weights":[0E0],"categories":[],"categories_nodes":[],"categories_segments":[],"categories_sizes":[],"default_left":[0],"id":26,"left_children":[-1],"loss_changes":[0E0],"parents":[2147483647],"right_children":[-1],"split_conditions":[0E0],"split_indices":[0],"split_type":[0],"sum_hessian":[3.232185E-2],"tree_param":{"num_deleted":"0","num_feature":"113","num_nodes":"1","size_leaf_vector":"1"}},{"base_weights":[8.994529E-3,7.508174E-2,-6.789652E-2,1.107893E-1,7.0889127E-3,-4.4059344E-2,-1.6967629E-1,1.4361756E-1,7.4566654E-3,-1.4651014E-1,4.5806453E-2,1.3538614E-1,-5.6864943E-2,-4.254444E-1,-1.3800487E-1,5.94911E-3,1.3860101E-2,5.6774607E-3,-5.531814E-3,3.537403E-2,-9.742573E-3,1.9754013E-2,1.5341719E-3,1.6222501E-2,-5.569014E-3,-2.121946E-3,-1.0665818E-2,-2.3199046E-2,3.230825E-2,-4.3450217E-3,-1.6527627E-2],"categories":[],"categories_nodes":[],"categories_segments":[],"categories_sizes":[],"default_left":[0,0,0,0,0,0,0,0,0,0,0,0,0,0,0,0,0,0,0,0,0,0,0,0,0,0,0,0,0,0,0],"id":27,"left_children":[1,3,5,7,9,11,13,15,17,19,21,23,25,27,29,-1,-1,-1,-1,-1,-1,-1,-1,-1,-1,-1,-1,-1,-1,-1,-1],"loss_changes":[3.5881588E1,9.208286E0,7.887932E0,8.427584E0,7.7859445E0,6.080223E0,4.891596E0,6.141369E0,7.5541816E0,1.0960875E1,5.4776597E0,8.269853E0,5.542402E0,3.0597115E0,5.3591785E0,0E0,0E0,0E0,0E0,0E0,0E0,0E0,0E0,0E0,0E0,0E0,0E0,0E0,0E0,0E0,0E0],"parents":[2147483647,0,0,1,1,2,2,3,3,4,4,5,5,6,6,7,7,8,8,9,9,10,10,11,11,12,12,13,13,14,14],"right_children":[2,4,6,8,10,12,14,16,18,20,22,24,26,28,30,-1,-1,-1,-1,-1,-1,-1,-1,-1,-1,-1,-1,-1,-1,-1,-1],"split_conditions":[1.7063146E-2,3.574624E-3,2.3992112E-2,3.7804934E-6,-1.7643197E-1,-3.9449367E-1,-5.8917936E-2,4.5600515E-2,1.4496778E-2,1E1,1.0795852E-2,-3.0408604E-5,2.1693285E0,6.75167E-2,1.2722948E-2,5.94911E-3,1.3860101E-2,5.6774607E-3,-5.531814E-3,3.537403E-2,-9.742573E-3,1.9754013E-2,1.5341719E-3,1.6222501E-2,-5.569014E-3,-2.121946E-3,-1.0665818E-2,-2.3199046E-2,3.230825E-2,-4.3450217E-3,-1.6527627E-2],"split_indices":[36,18,36,100,26,26,72,45,36,2,36,65,102,37,70,0,0,0,0,0,0,0,0,0,0,0,0,0,0,0,0],"split_type":[0,0,0,0,0,0,0,0,0,0,0,0,0,0,0,0,0,0,0,0,0,0,0,0,0,0,0,0,0,0,0],"sum_hessian":[7.059054E3,3.7969402E3,3.2621143E3,2.488148E3,1.3087921E3,2.6450496E3,6.170646E2,1.8872277E3,6.0092035E2,2.6240805E2,1.0463842E3,1.7502563E2,2.470024E3,6.62732E1,5.507914E2,1.5956083E3,2.9161942E2,3.170098E2,2.8391055E2,1.3216876E1,2.4919118E2,4.2109386E1,1.0042747E3,9.915044E1,7.587519E1,2.2632458E3,2.067782E2,6.461008E1,1.6631246E0,4.368238E2,1.1396758E2],"tree_param":{"num_deleted":"0","num_feature":"113","num_nodes":"31","size_leaf_vector":"1"}},{"base_weights":[-1.293504E-4,-1.0044317E-1,4.877132E-2,-1.079367E-1,3.489682E-1,2.0508802E-2,1.452831E-1,-1.4177279E-1,-2.6007386E-2,5.0243425E-1,-9.936365E-2,5.2356947E-2,-5.144644E-2,3.7524465E-1,1.2594278E-1,-2.5616137E-2,-6.663447E-3,9.840268E-4,-1.0801197E-2,2.986264E-2,-1.9968877E-2,6.9715865E-3,-3.477055E-2,-9.336849E-4,4.553369E-3,-4.890601E-3,2.1286428E-3,2.3210686E-2,2.0051189E-3,-1.8365921E-2,6.8103047E-3],"categories":[],"categories_nodes":[],"categories_segments":[],"categories_sizes":[],"default_left":[0,0,0,0,0,0,0,0,0,0,0,0,0,0,0,0,0,0,0,0,0,0,0,0,0,0,0,0,0,0,0],"id":28,"left_children":[1,3,5,7,9,11,13,15,17,19,21,23,25,27,29,-1,-1,-1,-1,-1,-1,-1,-1,-1,-1,-1,-1,-1,-1,-1,-1],"loss_changes":[3.4269405E1,7.7248535E0,1.278736E1,6.225849E0,2.6752877E0,8.329818E0,4.628294E0,4.8886375E0,5.759413E0,2.6800485E0,1.6114656E0,6.9387255E0,4.8676047E0,2.3617525E0,4.9983616E0,0E0,0E0,0E0,0E0,0E0,0E0,0E0,0E0,0E0,0E0,0E0,0E0,0E0,0E0,0E0,0E0],"parents":[2147483647,0,0,1,1,2,2,3,3,4,4,5,5,6,6,7,7,8,8,9,9,10,10,11,11,12,12,13,13,14,14],"right_children":[2,4,6,8,10,12,14,16,18,20,22,24,26,28,30,-1,-1,-1,-1,-1,-1,-1,-1,-1,-1,-1,-1,-1,-1,-1,-1],"split_conditions":[1.4912581E-2,6.39197E-2,2.1758242E-2,6.952276E-4,7.0710677E-1,4.500768E-2,-5.8917936E-2,-2.740711E-1,2.454939E-1,2.6143265E-1,9E0,1.5639963E-2,8.669611E-3,4.3290113E-3,-8.627859E-2,-2.5616137E-2,-6.663447E-3,9.840268E-4,-1.0801197E-2,2.986264E-2,-1.9968877E-2,6.9715865E-3,-3.477055E-2,-9.336849E-4,4.553369E-3,-4.890601E-3,2.1286428E-3,2.3210686E-2,2.0051189E-3,-1.8365921E-2,6.8103047E-3],"split_indices":[36,53,36,65,7,45,72,76,26,109,1,41,19,19,42,0,0,0,0,0,0,0,0,0,0,0,0,0,0,0,0],"split_type":[0,0,0,0,0,0,0,0,0,0,0,0,0,0,0,0,0,0,0,0,0,0,0,0,0,0,0,0,0,0,0],"sum_hessian":[6.982987E3,2.2887937E3,4.694193E3,2.2522224E3,3.6571472E1,3.6326548E3,1.0615382E3,1.5925585E3,6.596638E2,2.7321552E1,9.24992E0,2.5192642E3,1.1133906E3,8.052321E1,9.81015E2,3.413523E1,1.5584232E3,5.320959E2,1.2756793E2,2.5128132E1,2.1934202E0,7.031271E0,2.2186484E0,8.8792487E2,1.6313392E3,7.4635114E2,3.6703946E2,6.3091125E1,1.7432085E1,1.9088253E1,9.6192676E2],"tree_param":{"num_deleted":"0","num_feature":"113","num_nodes":"31","size_leaf_vector":"1"}},{"base_weights":[0E0],"categories":[],"categories_nodes":[],"categories_segments":[],"categories_sizes":[],"default_left":[0],"id":29,"left_children":[-1],"loss_changes":[0E0],"parents":[2147483647],"right_children":[-1],"split_conditions":[0E0],"split_indices":[0],"split_type":[0],"sum_hessian":[3.230404E-2],"tree_param":{"num_deleted":"0","num_feature":"113","num_nodes":"1","size_leaf_vector":"1"}},{"base_weights":[4.4544935E-3,7.5388215E-2,-7.850669E-2,1.7274834E-1,5.341916E-2,-3.0172378E-2,-1.3049982E-1,1.8171844E-1,-3.2046538E-2,2.9975298E-1,4.4848483E-2,1.0544241E-1,-5.9547234E-2,-1.0731222E-1,-2.6046723E-1,3.1002617E-2,8.240461E-3,1.8886445E-2,-1.1711193E-2,5.4939664E-3,5.7849527E-4,-7.4273004E-4,1.6135603E-2,5.0560064E-3,-4.2957817E-3,-4.732093E-3,-1.9234395E-2,6.9886344E-3,-1.5971867E-2],"categories":[],"categories_nodes":[],"categories_segments":[],"categories_sizes":[],"default_left":[0,0,0,0,0,0,0,0,0,0,0,0,0,0,0,0,0,0,0,0,0,0,0,0,0,0,0,0,0],"id":30,"left_children":[1,3,5,7,9,11,13,15,-1,17,19,21,23,25,27,-1,-1,-1,-1,-1,-1,-1,-1,-1,-1,-1,-1,-1,-1],"loss_changes":[4.1294785E1,8.060698E0,8.106749E0,5.1451817E0,6.4741974E0,6.686968E0,4.6264267E0,4.9230843E0,0E0,4.4039927E0,6.450671E0,7.8384285E0,5.856286E0,4.566414E0,5.5931263E0,0E0,0E0,0E0,0E0,0E0,0E0,0E0,0E0,0E0,0E0,0E0,0E0,0E0,0E0],"parents":[2147483647,0,0,1,1,2,2,3,3,4,4,5,5,6,6,7,7,9,9,10,10,11,11,12,12,13,13,14,14],"right_children":[2,4,6,8,10,12,14,16,-1,18,20,22,24,26,28,-1,-1,-1,-1,-1,-1,-1,-1,-1,-1,-1,-1,-1,-1],"split_conditions":[1.7063146E-2,1.2297844E-2,2.0298736E-2,1.0699381E-2,-2.535506E-1,-1.7966475E-2,2.7442314E-3,-5.307489E-1,-3.2046538E-2,1.2787724E-2,-7.5036427E-3,2.53614E-4,5.3462964E-2,1.6017228E-2,-5.565371E-1,3.1002617E-2,8.240461E-3,1.8886445E-2,-1.1711193E-2,5.4939664E-3,5.7849527E-4,-7.4273004E-4,1.6135603E-2,5.0560064E-3,-4.2957817E-3,-4.732093E-3,-1.9234395E-2,6.9886344E-3,-1.5971867E-2],"split_indices":[36,36,36,24,76,19,65,26,0,37,20,44,66,69,73,0,0,0,0,0,0,0,0,0,0,0,0,0,0],"split_type":[0,0,0,0,0,0,0,0,0,0,0,0,0,0,0,0,0,0,0,0,0,0,0,0,0,0,0,0,0],"sum_hessian":[7.015306E3,3.7824885E3,3.2328179E3,6.942719E2,3.0882166E3,1.6771731E3,1.5556448E3,6.8759143E2,6.680521E0,1.0230078E2,2.9859158E3,2.9753775E2,1.3796353E3,1.322323E3,2.3332176E2,2.3994852E1,6.6359656E2,8.968421E1,1.2616575E1,1.00896155E3,1.9769542E3,1.9180904E2,1.0572871E2,1.9356741E2,1.1860679E3,1.266186E3,5.6136963E1,2.9568636E1,2.0375313E2],"tree_param":{"num_deleted":"0","num_feature":"113","num_nodes":"29","size_leaf_vector":"1"}},{"base_weights":[-1.8737174E-3,1.09854564E-1,-3.647105E-2,5.6642795E-1,1.0294569E-1,-9.515297E-2,-7.2611547E-3,7.244985E-2,3.213459E-2,7.71405E-2,2.3711713E-1,-1.5574987E-1,5.6456095E-3,-1.3372125E-1,4.1503664E-3,2.2917261E-2,-2.6278382E-2,4.3763905E-3,-2.4567617E-2,1.2676537E-2,-3.4257658E-2,1.9357586E-2,-8.4952125E-3,-2.1859588E-2,1.4241464E-3,5.3978693E-3,-1.1745134E-2,-2.0677391E-3,1.5591244E-3],"categories":[],"categories_nodes":[],"categories_segments":[],"categories_sizes":[],"default_left":[0,0,0,0,0,0,0,0,0,0,0,0,0,0,0,0,0,0,0,0,0,0,0,0,0,0,0,0,0],"id":31,"left_children":[1,3,5,7,9,11,13,15,-1,17,19,21,23,25,27,-1,-1,-1,-1,-1,-1,-1,-1,-1,-1,-1,-1,-1,-1],"loss_changes":[2.7022123E1,5.0878143E0,9.1420145E0,7.934866E-1,5.591898E0,1.0848034E1,5.161648E0,1.2815291E0,0E0,8.084963E0,4.092557E0,8.560162E0,6.70884E0,7.276917E0,4.025633E0,0E0,0E0,0E0,0E0,0E0,0E0,0E0,0E0,0E0,0E0,0E0,0E0,0E0,0E0],"parents":[2147483647,0,0,1,1,2,2,3,3,4,4,5,5,6,6,7,7,9,9,10,10,11,11,12,12,13,13,14,14],"right_children":[2,4,6,8,10,12,14,16,-1,18,20,22,24,26,28,-1,-1,-1,-1,-1,-1,-1,-1,-1,-1,-1,-1,-1,-1],"split_conditions":[7.947601E1,-2.8622754E0,2.2190493E-6,5.1451335E0,1.4285957E-2,2.6212335E-3,6.2191566E-3,1.2246469E-16,3.213459E-2,2.5499735E0,2.4801572E2,-4.307298E-2,1E1,-1.2443886E-1,-5.768343E-4,2.2917261E-2,-2.6278382E-2,4.3763905E-3,-2.4567617E-2,1.2676537E-2,-3.4257658E-2,1.9357586E-2,-8.4952125E-3,-2.1859588E-2,1.4241464E-3,5.3978693E-3,-1.1745134E-2,-2.0677391E-3,1.5591244E-3],"split_indices":[30,27,100,35,18,18,23,6,0,26,31,20,2,75,65,0,0,0,0,0,0,0,0,0,0,0,0,0,0],"split_type":[0,0,0,0,0,0,0,0,0,0,0,0,0,0,0,0,0,0,0,0,0,0,0,0,0,0,0,0,0],"sum_hessian":[6.99045E3,1.6516294E3,5.338821E3,2.3196941E1,1.6284324E3,1.7724115E3,3.5664094E3,3.5385017E0,1.965844E1,1.3677025E3,2.6072992E2,1.107228E3,6.651835E2,2.9502698E2,3.2713826E3,2.3942752E0,1.1442266E0,1.3441643E3,2.3538174E1,2.569898E2,3.7401092E0,2.7284733E1,1.0799432E3,3.151696E1,6.336665E2,8.675398E1,2.08273E2,1.2175546E3,2.053828E3],"tree_param":{"num_deleted":"0","num_feature":"113","num_nodes":"29","size_leaf_vector":"1"}},{"base_weights":[0E0],"categories":[],"categories_nodes":[],"categories_segments":[],"categories_sizes":[],"default_left":[0],"id":32,"left_children":[-1],"loss_changes":[0E0],"parents":[2147483647],"right_children":[-1],"split_conditions":[0E0],"split_indices":[0],"split_type":[0],"sum_hessian":[3.2434106E-2],"tree_param":{"num_deleted":"0","num_feature":"113","num_nodes":"1","size_leaf_vector":"1"}},{"base_weights":[4.5119942E-4,-7.363745E-2,4.3196857E-2,-3.845071E-2,-1.694288E-1,5.7913914E-2,-5.3299405E-2,8.12986E-2,-7.845734E-2,-3.3848065E-1,-1.2643264E-1,2.870815E-1,5.078008E-2,3.4787998E-2,-1.5742421E-1,-2.554073E-2,5.439663E-3,-2.822118E-3,-1.5889553E-2,2.9751116E-3,-2.122449E-2,-1.1278684E-2,-1.3797892E-3,1.7455483E-2,-3.165568E-2,8.6109026E-4,5.1503633E-3,2.1806272E-2,-4.3658234E-4,-1.6070632E-2,-1.2747066E-3],"categories":[],"categories_nodes":[],"categories_segments":[],"categories_sizes":[],"default_left":[0,0,0,0,0,0,0,0,0,0,0,0,0,0,0,0,0,0,0,0,0,0,0,0,0,0,0,0,0,0,0],"id":33,"left_children":[1,3,5,7,9,11,13,15,17,19,21,23,25,27,29,-1,-1,-1,-1,-1,-1,-1,-1,-1,-1,-1,-1,-1,-1,-1,-1],"loss_changes":[2.224759E1,8.633965E0,6.331953E0,9.019394E0,4.920744E0,6.27499E0,5.4229956E0,7.683378E0,7.3811016E0,4.809247E0,5.373268E0,6.821151E0,6.56345E0,5.6276836E0,5.815315E0,0E0,0E0,0E0,0E0,0E0,0E0,0E0,0E0,0E0,0E0,0E0,0E0,0E0,0E0,0E0,0E0],"parents":[2147483647,0,0,1,1,2,2,3,3,4,4,5,5,6,6,7,7,8,8,9,9,10,10,11,11,12,12,13,13,14,14],"right_children":[2,4,6,8,10,12,14,16,18,20,22,24,26,28,30,-1,-1,-1,-1,-1,-1,-1,-1,-1,-1,-1,-1,-1,-1,-1,-1],"split_conditions":[8.9284775E1,1.3933094E-2,2E1,-1.3727975E-1,-1.7643197E-1,-6.619719E-2,1.6998827E-2,-4.9500644E-2,2.1693285E0,-2.2099456E-3,5.228046E1,1.6228722E1,4.9443757E-3,-2.0851324E0,-4.4419765E-3,-2.554073E-2,5.439663E-3,-2.822118E-3,-1.5889553E-2,2.9751116E-3,-2.122449E-2,-1.1278684E-2,-1.3797892E-3,1.7455483E-2,-3.165568E-2,8.6109026E-4,5.1503633E-3,2.1806272E-2,-4.3658234E-4,-1.6070632E-2,-1.2747066E-3],"split_indices":[30,19,4,26,26,44,41,19,102,18,34,35,42,28,39,0,0,0,0,0,0,0,0,0,0,0,0,0,0,0,0],"split_type":[0,0,0,0,0,0,0,0,0,0,0,0,0,0,0,0,0,0,0,0,0,0,0,0,0,0,0,0,0,0,0],"sum_hessian":[7.0238433E3,2.5686626E3,4.4551807E3,1.88039E3,6.882725E2,3.8668647E3,5.883159E2,4.7000928E2,1.4103807E3,1.3769325E2,5.505793E2,1.1513101E2,3.751734E3,3.1854178E2,2.6977414E2,1.9914892E1,4.500944E2,1.2930902E3,1.1729051E2,2.4317308E1,1.13375946E2,2.737214E2,2.7685788E2,1.0854363E2,6.587378E0,2.2860745E3,1.4656593E3,3.0504673E1,2.880371E2,1.1929584E2,1.5047832E2],"tree_param":{"num_deleted":"0","num_feature":"113","num_nodes":"31","size_leaf_vector":"1"}},{"base_weights":[-4.4247736E-3,-8.1309676E-2,4.287401E-2,-1.238661E-1,8.013301E-3,3.6205658E-1,3.6157172E-2,-1.6603182E-1,-4.613247E-2,2.3415284E-2,-3.3682546E-1,4.4920072E-1,-1.3224275E-1,7.524135E-3,9.186023E-2,-3.6539144E-3,-1.1197428E-2,-1.286404E-3,-3.0527225E-2,3.053133E-2,6.395078E-4,-2.5906121E-2,3.0434236E-2,-2.3305675E-2,2.3588024E-2,-2.1502323E-2,2.6485115E-2,-1.5564243E-2,7.2836917E-4,6.1361827E-3,-1.3004491E-3],"categories":[],"categories_nodes":[],"categories_segments":[],"categories_sizes":[],"default_left":[0,0,0,0,0,0,0,0,0,0,0,0,0,0,0,0,0,0,0,0,0,0,0,0,0,0,0,0,0,0,0],"id":34,"left_children":[1,3,5,7,9,11,13,15,17,19,21,23,25,27,29,-1,-1,-1,-1,-1,-1,-1,-1,-1,-1,-1,-1,-1,-1,-1,-1],"loss_changes":[2.5511194E1,1.0170755E1,9.2556E0,5.9063683E0,4.5575376E0,3.927762E0,6.773954E0,6.2675896E0,7.2800794E0,5.0887346E0,6.591189E0,1.7922573E0,2.96775E0,6.2887583E0,5.262047E0,0E0,0E0,0E0,0E0,0E0,0E0,0E0,0E0,0E0,0E0,0E0,0E0,0E0,0E0,0E0,0E0],"parents":[2147483647,0,0,1,1,2,2,3,3,4,4,5,5,6,6,7,7,8,8,9,9,10,10,11,11,12,12,13,13,14,14],"right_children":[2,4,6,8,10,12,14,16,18,20,22,24,26,28,30,-1,-1,-1,-1,-1,-1,-1,-1,-1,-1,-1,-1,-1,-1,-1,-1],"split_conditions":[8.7644085E-3,3.4533513E-3,-1.25E-2,4.372923E-4,2.579667E2,-3.6112862E-3,6.952276E-4,1E0,3.62E2,-5.424926E-3,7.5996596E-1,-4.749531E-3,1.2541012E0,-4.1683447E-1,6.1227367E1,-3.6539144E-3,-1.1197428E-2,-1.286404E-3,-3.0527225E-2,3.053133E-2,6.395078E-4,-2.5906121E-2,3.0434236E-2,-2.3305675E-2,2.3588024E-2,-2.1502323E-2,2.6485115E-2,-1.5564243E-2,7.2836917E-4,6.1361827E-3,-1.3004491E-3],"split_indices":[23,18,99,99,32,104,65,112,2,67,26,46,102,75,32,0,0,0,0,0,0,0,0,0,0,0,0,0,0,0,0],"split_type":[0,0,0,0,0,0,0,0,0,0,0,0,0,0,0,0,0,0,0,0,0,0,0,0,0,0,0,0,0,0,0],"sum_hessian":[7.0121797E3,2.6713135E3,4.340866E3,1.8097982E3,8.6151514E2,8.8068726E1,4.2527974E3,1.1717653E3,6.38033E2,8.258512E2,3.5663982E1,7.511893E1,1.2949795E1,2.8108608E3,1.4419364E3,4.5135336E2,7.2041187E2,6.1695197E2,2.1081038E1,1.3506661E1,8.1234454E2,3.0393883E1,5.2700977E0,1.2273617E0,7.389156E1,9.277377E0,3.6724176E0,5.9515778E1,2.7513452E3,1.1433607E3,2.9857574E2],"tree_param":{"num_deleted":"0","num_feature":"113","num_nodes":"31","size_leaf_vector":"1"}},{"base_weights":[0E0],"categories":[],"categories_nodes":[],"categories_segments":[],"categories_sizes":[],"default_left":[0],"id":35,"left_children":[-1],"loss_changes":[0E0],"parents":[2147483647],"right_children":[-1],"split_conditions":[0E0],"split_indices":[0],"split_type":[0],"sum_hessian":[3.255114E-2],"tree_param":{"num_deleted":"0","num_feature":"113","num_nodes":"1","size_leaf_vector":"1"}},{"base_weights":[5.577906E-3,5.3860202E-2,-7.938278E-2,8.985981E-2,-8.710577E-3,-6.1419033E-2,-1.8640395E-1,1.0157052E-1,-6.7361034E-2,-1.4431922E-1,2.5668161E-2,1.09756805E-1,-7.8049496E-2,-2.1674928E-1,1.8572898E-1,6.1570415E-3,2.433589E-4,2.5694445E-2,-6.1252727E-3,1.8745322E-2,-9.0429075E-3,2.3590298E-3,-8.520703E-3,1.0832231E-2,-1.1438269E-2,-1.3295573E-2,-3.1852063E-3,-1.640624E-2,-5.33229E-3,-5.679217E-4,4.6806008E-2],"categories":[],"categories_nodes":[],"categories_segments":[],"categories_sizes":[],"default_left":[0,0,0,0,0,0,0,0,0,0,0,0,0,0,0,0,0,0,0,0,0,0,0,0,0,0,0,0,0,0,0],"id":36,"left_children":[1,3,5,7,9,11,13,15,17,19,21,23,25,27,29,-1,-1,-1,-1,-1,-1,-1,-1,-1,-1,-1,-1,-1,-1,-1,-1],"loss_changes":[2.8701889E1,1.0060899E1,4.837138E0,5.2278576E0,7.6133094E0,6.1909695E0,4.1430426E0,5.490082E0,6.3208294E0,6.31548E0,5.48092E0,7.006258E0,5.2903395E0,4.046527E0,4.1941543E0,0E0,0E0,0E0,0E0,0E0,0E0,0E0,0E0,0E0,0E0,0E0,0E0,0E0,0E0,0E0,0E0],"parents":[2147483647,0,0,1,1,2,2,3,3,4,4,5,5,6,6,7,7,8,8,9,9,10,10,11,11,12,12,13,13,14,14],"right_children":[2,4,6,8,10,12,14,16,18,20,22,24,26,28,30,-1,-1,-1,-1,-1,-1,-1,-1,-1,-1,-1,-1,-1,-1,-1,-1],"split_conditions":[1.8134305E-2,3.1212093E-3,1.2048872E0,3.2258064E-3,-1.7643197E-1,-3.3766782E-1,1.1474572E1,5E1,-1.0647819E-3,1E1,6.341882E-1,5.1151006E-3,-6.401029E-3,-1.8555809E-2,3.579584E-3,6.1570415E-3,2.433589E-4,2.5694445E-2,-6.1252727E-3,1.8745322E-2,-9.0429075E-3,2.3590298E-3,-8.520703E-3,1.0832231E-2,-1.1438269E-2,-1.3295573E-2,-3.1852063E-3,-1.640624E-2,-5.33229E-3,-5.679217E-4,4.6806008E-2],"split_indices":[36,18,27,99,26,26,35,5,65,2,73,18,67,26,101,0,0,0,0,0,0,0,0,0,0,0,0,0,0,0,0],"split_type":[0,0,0,0,0,0,0,0,0,0,0,0,0,0,0,0,0,0,0,0,0,0,0,0,0,0,0,0,0,0,0],"sum_hessian":[6.995462E3,4.461551E3,2.5339111E3,2.832853E3,1.6286978E3,2.1718667E3,3.6204453E2,2.637395E3,1.9545819E2,3.2933405E2,1.2993638E3,1.91293E2,1.9805736E3,3.3538223E2,2.6662262E1,2.1553276E3,4.820673E2,1.6058727E1,1.7939946E2,2.0863415E1,3.0847064E2,1.1720464E3,1.2731736E2,1.4588538E2,4.5407627E1,1.3877094E2,1.8418027E3,1.6529213E2,1.7009012E2,2.1790634E1,4.8716283E0],"tree_param":{"num_deleted":"0","num_feature":"113","num_nodes":"31","size_leaf_vector":"1"}},{"base_weights":[2.861902E-3,-7.545604E-2,7.376072E-2,-7.0311114E-2,-5.475797E-1,-8.569552E-2,8.558081E-2,-6.2197823E-2,-3.597573E-1,3.9489773E-1,-6.85133E-1,-2.7824798E-1,2.1926755E-1,7.104451E-2,2.4322753E-1,-5.52502E-3,-1.3624624E-3,-1.7500119E-3,-2.7906362E-2,-0E0,2.6725993E-2,1.6856063E-2,-4.0880587E-2,-2.3831597E-2,-2.7278713E-3,-2.9596522E-2,1.2739261E-2,1.7854462E-3,6.1260313E-3,1.6030839E-2,-2.3548339E-4],"categories":[],"categories_nodes":[],"categories_segments":[],"categories_sizes":[],"default_left":[0,0,0,0,0,0,0,0,0,0,0,0,0,0,0,0,0,0,0,0,0,0,0,0,0,0,0,0,0,0,0],"id":37,"left_children":[1,3,5,7,9,11,13,15,17,19,21,23,25,27,29,-1,-1,-1,-1,-1,-1,-1,-1,-1,-1,-1,-1,-1,-1,-1,-1],"loss_changes":[3.8855305E1,7.9743347E0,6.9309654E0,7.660904E0,4.898959E0,1.4948455E1,7.790882E0,5.3878136E0,5.6645794E0,2.7419746E-1,4.578473E0,6.842964E0,2.95338E0,5.6807003E0,5.555704E0,0E0,0E0,0E0,0E0,0E0,0E0,0E0,0E0,0E0,0E0,0E0,0E0,0E0,0E0,0E0,0E0],"parents":[2147483647,0,0,1,1,2,2,3,3,4,4,5,5,6,6,7,7,8,8,9,9,10,10,11,11,12,12,13,13,14,14],"right_children":[2,4,6,8,10,12,14,16,18,20,22,24,26,28,30,-1,-1,-1,-1,-1,-1,-1,-1,-1,-1,-1,-1,-1,-1,-1,-1],"split_conditions":[1.6347934E-2,1.2743773E0,-3.9449367E-1,3.62E2,-8.3239466E-1,1.0465726E-3,2.1693285E0,-1.2743625E-1,-4.1322373E-3,-1.1700745E-1,-4.6674923E1,-9.2641456E-4,-8.295633E-1,2.0446597E-2,3.4152206E1,-5.52502E-3,-1.3624624E-3,-1.7500119E-3,-2.7906362E-2,-0E0,2.6725993E-2,1.6856063E-2,-4.0880587E-2,-2.3831597E-2,-2.7278713E-3,-2.9596522E-2,1.2739261E-2,1.7854462E-3,6.1260313E-3,1.6030839E-2,-2.3548339E-4],"split_indices":[36,25,26,2,68,18,102,28,18,26,32,101,73,36,32,0,0,0,0,0,0,0,0,0,0,0,0,0,0,0,0],"split_type":[0,0,0,0,0,0,0,0,0,0,0,0,0,0,0,0,0,0,0,0,0,0,0,0,0,0,0,0,0,0,0],"sum_hessian":[6.9956436E3,3.3232078E3,3.6724355E3,3.28873E3,3.4477848E1,2.5242635E2,3.4200093E3,3.200577E3,8.81531E1,4.0602517E0,3.0417599E1,1.5498497E2,9.7441376E1,3.1331887E3,2.868204E2,1.3414836E3,1.8590933E3,3.4064953E1,5.4088146E1,1.338615E0,2.7216368E0,3.225891E0,2.7191708E1,8.130255E1,7.368242E1,3.3121834E0,9.4129196E1,1.8600209E3,1.273168E3,2.18675E2,6.81454E1],"tree_param":{"num_deleted":"0","num_feature":"113","num_nodes":"31","size_leaf_vector":"1"}},{"base_weights":[0E0],"categories":[],"categories_nodes":[],"categories_segments":[],"categories_sizes":[],"default_left":[0],"id":38,"left_children":[-1],"loss_changes":[0E0],"parents":[2147483647],"right_children":[-1],"split_conditions":[0E0],"split_indices":[0],"split_type":[0],"sum_hessian":[3.256558E-2],"tree_param":{"num_deleted":"0","num_feature":"113","num_nodes":"1","size_leaf_vector":"1"}},{"base_weights":[5.246306E-3,9.111561E-2,-4.30419E-2,1.1029491E-1,-5.818403E-2,-1.3374391E-2,-1.04054086E-1,1.4670882E-1,3.254252E-2,-1.600383E-1,6.718087E-2,6.1366023E-3,-1.09478466E-1,-1.0789774E-1,5.834397E-1,1.5528502E-2,5.7695284E-3,9.5586025E-4,3.3885885E-2,7.6477723E-3,-1.1328508E-2,4.2220823E-2,9.879976E-4,6.6788606E-3,-4.2199026E-4,1.3261219E-2,-6.476088E-3,-1.828561E-2,-4.9201376E-3,-2.0277001E-2,4.572131E-2],"categories":[],"categories_nodes":[],"categories_segments":[],"categories_sizes":[],"default_left":[0,0,0,0,0,0,0,0,0,0,0,0,0,0,0,0,0,0,0,0,0,0,0,0,0,0,0,0,0,0,0],"id":39,"left_children":[1,3,5,7,9,11,13,15,17,19,21,23,25,27,29,-1,-1,-1,-1,-1,-1,-1,-1,-1,-1,-1,-1,-1,-1,-1,-1],"loss_changes":[2.906837E1,7.2378693E0,8.106292E0,6.3115826E0,3.689104E0,5.6744313E0,3.8901339E0,7.734871E0,6.1169233E0,3.358727E0,4.654052E0,4.677634E0,3.8557386E0,3.4895363E0,3.0940485E0,0E0,0E0,0E0,0E0,0E0,0E0,0E0,0E0,0E0,0E0,0E0,0E0,0E0,0E0,0E0,0E0],"parents":[2147483647,0,0,1,1,2,2,3,3,4,4,5,5,6,6,7,7,8,8,9,9,10,10,11,11,12,12,13,13,14,14],"right_children":[2,4,6,8,10,12,14,16,18,20,22,24,26,28,30,-1,-1,-1,-1,-1,-1,-1,-1,-1,-1,-1,-1,-1,-1,-1,-1],"split_conditions":[1.5201131E-2,7.367491E1,2.0446597E-2,3.245998E-3,6.311839E-3,3.999548E-6,6.5431614E-6,1.1652688E-2,3.9465696E-2,-2.204178E-1,4.9140146E-3,-3.6827617E-3,-6.415929E-2,-1.25E-2,6.7943975E-2,1.5528502E-2,5.7695284E-3,9.5586025E-4,3.3885885E-2,7.6477723E-3,-1.1328508E-2,4.2220823E-2,9.879976E-4,6.6788606E-3,-4.2199026E-4,1.3261219E-2,-6.476088E-3,-1.828561E-2,-4.9201376E-3,-2.0277001E-2,4.572131E-2],"split_indices":[36,33,36,71,37,100,100,36,39,75,20,67,44,99,66,0,0,0,0,0,0,0,0,0,0,0,0,0,0,0,0],"split_type":[0,0,0,0,0,0,0,0,0,0,0,0,0,0,0,0,0,0,0,0,0,0,0,0,0,0,0,0,0,0,0],"sum_hessian":[7.007277E3,2.522602E3,4.484675E3,2.2362593E3,2.8634283E2,3.0193552E3,1.4653198E3,1.5215133E3,7.147459E2,1.5827303E2,1.280698E2,2.5097273E3,5.0962778E2,1.458156E3,7.163782E0,2.4219698E2,1.2793164E3,7.0133655E2,1.3409339E1,2.7254484E1,1.3101854E2,6.276786E0,1.21793015E2,2.5746075E2,2.2522666E3,2.5001993E1,4.846258E2,5.0087864E1,1.4080681E3,1.6641042E0,5.4996777E0],"tree_param":{"num_deleted":"0","num_feature":"113","num_nodes":"31","size_leaf_vector":"1"}},{"base_weights":[3.4219034E-3,-2.7275596E-2,8.694027E-2,-2.1609288E-1,-2.0454243E-2,9.568022E-2,-3.4380853E-1,5.237577E-1,-2.7896848E-1,8.933407E-3,-6.51376E-2,3.5346594E-1,8.3275676E-2,-9.2558324E-2,-9.837941E-1,4.134464E-3,3.231335E-2,-4.4905776E-3,-2.2789018E-2,-3.994677E-3,1.6845076E-3,-5.161283E-3,4.364859E-3,9.660456E-3,3.0093212E-2,-1.101268E-4,6.402296E-3,-1.4565872E-2,2.3427732E-2,2.0181588E-3,-5.9982818E-2],"categories":[],"categories_nodes":[],"categories_segments":[],"categories_sizes":[],"default_left":[0,0,0,0,0,0,0,0,0,0,0,0,0,0,0,0,0,0,0,0,0,0,0,0,0,0,0,0,0,0,0],"id":40,"left_children":[1,3,5,7,9,11,13,15,17,19,21,23,25,27,29,-1,-1,-1,-1,-1,-1,-1,-1,-1,-1,-1,-1,-1,-1,-1,-1],"loss_changes":[1.7953833E1,6.5640974E0,7.0946703E0,8.394527E0,6.4948797E0,5.829689E0,5.81897E0,6.3841033E-1,5.412527E0,6.552166E0,1.1401568E1,3.1508121E0,6.7591696E0,3.2515311E0,2.4490166E0,0E0,0E0,0E0,0E0,0E0,0E0,0E0,0E0,0E0,0E0,0E0,0E0,0E0,0E0,0E0,0E0],"parents":[2147483647,0,0,1,1,2,2,3,3,4,4,5,5,6,6,7,7,8,8,9,9,10,10,11,11,12,12,13,13,14,14],"right_children":[2,4,6,8,10,12,14,16,18,20,22,24,26,28,30,-1,-1,-1,-1,-1,-1,-1,-1,-1,-1,-1,-1,-1,-1,-1,-1],"split_conditions":[1.2170945E-2,-6.619719E-2,2.5499735E0,-1.5185642E-2,4.9443757E-3,-6.695941E-2,7.846927E-2,-2.4641903E-2,-7.128444E-2,1.5078914E1,2.4787502E0,6.307096E-5,-8.583744E-3,1.2100407E-2,-3.0130604E-2,4.134464E-3,3.231335E-2,-4.4905776E-3,-2.2789018E-2,-3.994677E-3,1.6845076E-3,-5.161283E-3,4.364859E-3,9.660456E-3,3.0093212E-2,-1.101268E-4,6.402296E-3,-1.4565872E-2,2.3427732E-2,2.0181588E-3,-5.9982818E-2],"split_indices":[24,44,26,18,42,20,45,18,22,34,28,101,19,18,19,0,0,0,0,0,0,0,0,0,0,0,0,0,0,0,0],"split_type":[0,0,0,0,0,0,0,0,0,0,0,0,0,0,0,0,0,0,0,0,0,0,0,0,0,0,0,0,0,0,0],"sum_hessian":[6.998555E3,5.117189E3,1.8813665E3,1.7684073E2,4.940348E3,1.8449424E3,3.6424095E1,1.3152786E1,1.6368794E2,2.9793992E3,1.960949E3,8.306967E1,1.7618727E3,2.7089844E1,9.33425E0,3.4006615E0,9.752125E0,8.008495E1,8.360299E1,6.480251E2,2.331374E3,1.5697123E3,3.9123663E2,5.1818687E1,3.125098E1,6.0516675E2,1.1567059E3,2.0490631E1,6.599213E0,1.6857895E0,7.648461E0],"tree_param":{"num_deleted":"0","num_feature":"113","num_nodes":"31","size_leaf_vector":"1"}},{"base_weights":[0E0],"categories":[],"categories_nodes":[],"categories_segments":[],"categories_sizes":[],"default_left":[0],"id":41,"left_children":[-1],"loss_changes":[0E0],"parents":[2147483647],"right_children":[-1],"split_conditions":[0E0],"split_indices":[0],"split_type":[0],"sum_hessian":[3.2491665E-2],"tree_param":{"num_deleted":"0","num_feature":"113","num_nodes":"1","size_leaf_vector":"1"}},{"base_weights":[-2.3938706E-3,7.306777E-2,-4.483966E-2,1.13818854E-1,5.97747E-4,-2.849563E-2,-1.4988267E-1,1.2234411E-1,-3.3204773E-1,-1.7627358E-2,3.2811013E-1,1.7720634E-2,-6.0969315E-2,-1.0219997E-1,-3.1922776E-1,-3.3578102E-3,7.1009644E-3,2.6911477E-2,-2.0466713E-2,4.4231187E-3,-3.3402673E-3,-1.9153746E-2,2.2678027E-2,-1.797396E-2,1.3265962E-3,1.6852679E-2,-3.3808493E-3,4.1125226E-4,-9.05894E-3,-1.8984145E-2,9.532426E-3],"categories":[],"categories_nodes":[],"categories_segments":[],"categories_sizes":[],"default_left":[0,0,0,0,0,0,0,0,0,0,0,0,0,0,0,0,0,0,0,0,0,0,0,0,0,0,0,0,0,0,0],"id":42,"left_children":[1,3,5,7,9,11,13,15,17,19,21,23,25,27,29,-1,-1,-1,-1,-1,-1,-1,-1,-1,-1,-1,-1,-1,-1,-1,-1],"loss_changes":[2.2545902E1,7.470339E0,7.714506E0,6.1801643E0,5.4908843E0,5.8610544E0,4.816106E0,5.9499207E0,2.2559671E0,4.5231137E0,4.5084925E0,5.32605E0,6.0630035E0,4.1574473E0,4.1645803E0,0E0,0E0,0E0,0E0,0E0,0E0,0E0,0E0,0E0,0E0,0E0,0E0,0E0,0E0,0E0,0E0],"parents":[2147483647,0,0,1,1,2,2,3,3,4,4,5,5,6,6,7,7,8,8,9,9,10,10,11,11,12,12,13,13,14,14],"right_children":[2,4,6,8,10,12,14,16,18,20,22,24,26,28,30,-1,-1,-1,-1,-1,-1,-1,-1,-1,-1,-1,-1,-1,-1,-1,-1],"split_conditions":[1.5201131E-2,3.0257208E-3,2.3992112E-2,2.3054754E-2,1.1088024E0,-4.4380067E-4,2.429261E-3,-2.7059149E-2,-5.738881E-3,5.706213E-1,-5.7695187E-3,-4.3481294E-2,-3.493033E-2,9E0,3.902875E-2,-3.3578102E-3,7.1009644E-3,2.6911477E-2,-2.0466713E-2,4.4231187E-3,-3.3402673E-3,-1.9153746E-2,2.2678027E-2,-1.797396E-2,1.3265962E-3,1.6852679E-2,-3.3808493E-3,4.1125226E-4,-9.05894E-3,-1.8984145E-2,9.532426E-3],"split_indices":[36,18,36,37,25,65,65,20,51,38,103,104,37,4,70,0,0,0,0,0,0,0,0,0,0,0,0,0,0,0,0],"split_type":[0,0,0,0,0,0,0,0,0,0,0,0,0,0,0,0,0,0,0,0,0,0,0,0,0,0,0,0,0,0,0],"sum_hessian":[7.0377905E3,2.532444E3,4.5053467E3,1.6197062E3,9.127378E2,3.9006528E3,6.046937E2,1.5902495E3,2.9456717E1,8.65231E2,4.750673E1,1.6086339E3,2.2920188E3,4.7354974E2,1.3114397E2,1.4887476E2,1.4413748E3,1.8106065E0,2.764611E1,2.731478E2,5.9208325E2,6.696004E0,4.0810722E1,3.5552017E1,1.5730819E3,3.658824E1,2.2554307E3,1.9730939E2,2.7624036E2,1.1764632E2,1.3497652E1],"tree_param":{"num_deleted":"0","num_feature":"113","num_nodes":"31","size_leaf_vector":"1"}},{"base_weights":[1.8608347E-3,-7.841241E-2,4.720177E-2,-2.2812189E-1,-5.655236E-2,-8.908814E-2,5.976321E-2,-4.1901508E-1,-6.197885E-2,-1.5079708E-1,-2.5756706E-2,6.332493E-2,-2.2622316E-1,2.50193E-2,1.0022411E-1,-2.6845518E-2,-6.918762E-3,-7.4625607E-3,1.6274935E-2,-1.8229096E-3,-1.2362855E-2,3.685423E-3,-3.2493044E-3,1.575238E-2,-2.8526795E-3,-2.3770614E-2,-6.2579387E-3,-4.9787736E-3,2.9155898E-3,1.0678998E-2,3.5486815E-3],"categories":[],"categories_nodes":[],"categories_segments":[],"categories_sizes":[],"default_left":[0,0,0,0,0,0,0,0,0,0,0,0,0,0,0,0,0,0,0,0,0,0,0,0,0,0,0,0,0,0,0],"id":43,"left_children":[1,3,5,7,9,11,13,15,17,19,21,23,25,27,29,-1,-1,-1,-1,-1,-1,-1,-1,-1,-1,-1,-1,-1,-1,-1,-1],"loss_changes":[2.5515322E1,8.238243E0,7.674288E0,1.0120337E1,6.3911657E0,7.929146E0,5.7547464E0,4.7920246E0,5.8916464E0,5.9532347E0,6.509807E0,5.480423E0,4.9042616E0,9.17242E0,6.238041E0,0E0,0E0,0E0,0E0,0E0,0E0,0E0,0E0,0E0,0E0,0E0,0E0,0E0,0E0,0E0,0E0],"parents":[2147483647,0,0,1,1,2,2,3,3,4,4,5,5,6,6,7,7,8,8,9,9,10,10,11,11,12,12,13,13,14,14],"right_children":[2,4,6,8,10,12,14,16,18,20,22,24,26,28,30,-1,-1,-1,-1,-1,-1,-1,-1,-1,-1,-1,-1,-1,-1,-1,-1],"split_conditions":[1.5201131E-2,4.3E1,1.6686083E-6,5.539069E-1,-1.5239477E-2,-2.4193549E-3,1.152852E-1,9.598243E-2,8.660254E-1,-1.44014405E-2,-9.995003E-4,-4.4451762E-2,-1.3198837E-3,-1.6329974E-1,-1.7643197E-1,-2.6845518E-2,-6.918762E-3,-7.4625607E-3,1.6274935E-2,-1.8229096E-3,-1.2362855E-2,3.685423E-3,-3.2493044E-3,1.575238E-2,-2.8526795E-3,-2.3770614E-2,-6.2579387E-3,-4.9787736E-3,2.9155898E-3,1.0678998E-2,3.5486815E-3],"split_indices":[36,2,100,38,51,39,27,26,6,39,40,22,101,26,26,0,0,0,0,0,0,0,0,0,0,0,0,0,0,0,0],"split_type":[0,0,0,0,0,0,0,0,0,0,0,0,0,0,0,0,0,0,0,0,0,0,0,0,0,0,0,0,0,0,0],"sum_hessian":[7.009191E3,2.528936E3,4.480255E3,3.2043216E2,2.208504E3,3.7689902E2,4.103356E3,1.481214E2,1.7231078E2,5.4216345E2,1.6663403E3,1.7841548E2,1.9848352E2,2.2098445E3,1.8935115E3,1.03409935E2,4.471146E1,1.4134764E2,3.0963127E1,2.4919489E2,2.929686E2,4.7035028E2,1.1959901E3,5.7464798E1,1.2095068E2,5.5917408E1,1.4256612E2,4.6492007E2,1.7449244E3,3.863909E2,1.5071206E3],"tree_param":{"num_deleted":"0","num_feature":"113","num_nodes":"31","size_leaf_vector":"1"}},{"base_weights":[0E0],"categories":[],"categories_nodes":[],"categories_segments":[],"categories_sizes":[],"default_left":[0],"id":44,"left_children":[-1],"loss_changes":[0E0],"parents":[2147483647],"right_children":[-1],"split_conditions":[0E0],"split_indices":[0],"split_type":[0],"sum_hessian":[3.2706756E-2],"tree_param":{"num_deleted":"0","num_feature":"113","num_nodes":"1","size_leaf_vector":"1"}},{"base_weights":[-2.3078083E-3,4.2285517E-2,-7.6276876E-2,-1.4001906E-1,5.288516E-2,-5.4568868E-2,-1.6336069E-1,-4.9736744E-1,-6.904076E-2,9.020887E-2,1.645791E-2,-3.837273E-2,-2.1118768E-1,-2.0724571E-1,1.5925609E-1,-1.0716959E-2,-3.5253126E-2,8.895858E-4,-1.8114466E-2,7.943234E-3,1.4844143E-3,-8.680715E-4,6.8742866E-3,-2.896611E-3,4.346205E-3,-1.2913224E-2,1.2640466E-2,-1.0373793E-3,-1.2355887E-2,1.5531311E-2,-2.1024354E-2],"categories":[],"categories_nodes":[],"categories_segments":[],"categories_sizes":[],"default_left":[0,0,0,0,0,0,0,0,0,0,0,0,0,0,0,0,0,0,0,0,0,0,0,0,0,0,0,0,0,0,0],"id":45,"left_children":[1,3,5,7,9,11,13,15,17,19,21,23,25,27,29,-1,-1,-1,-1,-1,-1,-1,-1,-1,-1,-1,-1,-1,-1,-1,-1],"loss_changes":[2.3132025E1,8.450338E0,4.956382E0,5.998467E0,5.6093254E0,5.329646E0,7.470442E0,2.0723972E0,5.1767025E0,8.455383E0,8.589547E0,4.7021236E0,4.3762836E0,3.4096642E0,5.661706E0,0E0,0E0,0E0,0E0,0E0,0E0,0E0,0E0,0E0,0E0,0E0,0E0,0E0,0E0,0E0,0E0],"parents":[2147483647,0,0,1,1,2,2,3,3,4,4,5,5,6,6,7,7,8,8,9,9,10,10,11,11,12,12,13,13,14,14],"right_children":[2,4,6,8,10,12,14,16,18,20,22,24,26,28,30,-1,-1,-1,-1,-1,-1,-1,-1,-1,-1,-1,-1,-1,-1,-1,-1],"split_conditions":[1.7948251E-2,-1.8600224E-2,6.111111E1,-5.784894E-1,1.4633944E-2,2.1693285E0,7.878788E1,-8.0119325E-3,1.0233813E-1,-4.104248E-4,4.9668875E-2,5.3070004E1,2.3248792E-2,-1.3635333E-2,4.0507784E0,-1.0716959E-2,-3.5253126E-2,8.895858E-4,-1.8114466E-2,7.943234E-3,1.4844143E-3,-8.680715E-4,6.8742866E-3,-2.896611E-3,4.346205E-3,-1.2913224E-2,1.2640466E-2,-1.0373793E-3,-1.2355887E-2,1.5531311E-2,-2.1024354E-2],"split_indices":[36,104,33,102,36,102,33,103,110,18,45,34,51,72,28,0,0,0,0,0,0,0,0,0,0,0,0,0,0,0,0],"split_type":[0,0,0,0,0,0,0,0,0,0,0,0,0,0,0,0,0,0,0,0,0,0,0,0,0,0,0,0,0,0,0],"sum_hessian":[7.0098267E3,4.372736E3,2.6370908E3,2.3908247E2,4.1336533E3,2.1131145E3,5.239763E2,3.8389572E1,2.006929E2,2.0396187E3,2.0940347E3,1.9167812E3,1.9633316E2,4.618229E2,6.215341E1,1.731191E1,2.107766E1,1.5530467E2,4.538823E1,9.540487E2,1.08557E3,1.6367114E3,4.5732324E2,1.6591198E3,2.576615E2,1.7884644E2,1.7486729E1,8.2053406E1,3.797695E2,4.9790005E1,1.2363409E1],"tree_param":{"num_deleted":"0","num_feature":"113","num_nodes":"31","size_leaf_vector":"1"}},{"base_weights":[4.0929532E-4,4.0877156E-2,-4.599431E-2,6.547227E-2,-5.1307667E-2,1.3192053E-1,-5.7078727E-2,5.921098E-3,1.1278284E-1,-2.965573E-1,-6.7285E-4,1.8866758E-1,-2.486867E-1,-4.9388256E-2,-3.303768E-1,1.3349885E-2,-6.4673956E-4,-6.10532E-3,6.549652E-3,-2.5263575E-3,-2.4725178E-2,2.0441446E-3,-9.17649E-3,-2.0173832E-3,1.55426655E-2,-3.8755E-2,2.912889E-3,-1.1499785E-2,-1.9164637E-3,1.1656743E-2,-2.0453403E-2],"categories":[],"categories_nodes":[],"categories_segments":[],"categories_sizes":[],"default_left":[0,0,0,0,0,0,0,0,0,0,0,0,0,0,0,0,0,0,0,0,0,0,0,0,0,0,0,0,0,0,0],"id":46,"left_children":[1,3,5,7,9,11,13,15,17,19,21,23,25,27,29,-1,-1,-1,-1,-1,-1,-1,-1,-1,-1,-1,-1,-1,-1,-1,-1],"loss_changes":[1.311286E1,8.464741E0,6.4129877E0,8.289621E0,9.725253E0,4.155141E0,6.3821793E0,6.4610043E0,7.036705E0,6.4509087E0,4.979685E0,4.7005997E0,4.1431937E0,5.9165936E0,3.806038E0,0E0,0E0,0E0,0E0,0E0,0E0,0E0,0E0,0E0,0E0,0E0,0E0,0E0,0E0,0E0,0E0],"parents":[2147483647,0,0,1,1,2,2,3,3,4,4,5,5,6,6,7,7,8,8,9,9,10,10,11,11,12,12,13,13,14,14],"right_children":[2,4,6,8,10,12,14,16,18,20,22,24,26,28,30,-1,-1,-1,-1,-1,-1,-1,-1,-1,-1,-1,-1,-1,-1,-1,-1],"split_conditions":[1.0208118E2,3.0716723E-2,-1.7485097E-2,-5.123933E-1,-7.085376E-3,1.4740657E2,3.62E2,-9.445621E-2,1.6159563E-6,-2.3638733E-2,4.7179595E-1,-1.821599E-3,-2.3905886E-2,1.2E1,-8.7401175E-1,1.3349885E-2,-6.4673956E-4,-6.10532E-3,6.549652E-3,-2.5263575E-3,-2.4725178E-2,2.0441446E-3,-9.17649E-3,-2.0173832E-3,1.55426655E-2,-3.8755E-2,2.912889E-3,-1.1499785E-2,-1.9164637E-3,1.1656743E-2,-2.0453403E-2],"split_indices":[30,44,104,28,22,30,2,21,100,108,73,65,72,2,102,0,0,0,0,0,0,0,0,0,0,0,0,0,0,0,0],"split_type":[0,0,0,0,0,0,0,0,0,0,0,0,0,0,0,0,0,0,0,0,0,0,0,0,0,0,0,0,0,0,0],"sum_hessian":[6.9811646E3,3.7303013E3,3.2508635E3,2.9457446E3,7.845566E2,1.8948798E2,3.0613755E3,1.3055945E3,1.6401501E3,1.3309235E2,6.5146423E2,1.6556927E2,2.3918694E1,2.979092E3,8.228354E1,8.741394E1,1.2181805E3,1.1720122E2,1.522949E3,6.012393E1,7.296842E1,5.3101605E2,1.204482E2,5.7551205E1,1.08018074E2,8.368021E0,1.5550673E1,1.7022694E2,2.808865E3,9.686267E0,7.259727E1],"tree_param":{"num_deleted":"0","num_feature":"113","num_nodes":"31","size_leaf_vector":"1"}},{"base_weights":[0E0],"categories":[],"categories_nodes":[],"categories_segments":[],"categories_sizes":[],"default_left":[0],"id":47,"left_children":[-1],"loss_changes":[0E0],"parents":[2147483647],"right_children":[-1],"split_conditions":[0E0],"split_indices":[0],"split_type":[0],"sum_hessian":[3.225203E-2],"tree_param":{"num_deleted":"0","num_feature":"113","num_nodes":"1","size_leaf_vector":"1"}},{"base_weights":[-2.9273776E-4,3.6174364E-2,-6.0363356E-2,2.4961093E-1,2.8889539E-2,-5.334481E-1,-5.3952165E-2,4.6258593E-1,9.439692E-4,-7.1756467E-3,6.881459E-2,-5.8334386E-1,8.016998E-2,-9.93992E-3,-1.1993793E-1,3.466555E-2,2.4169923E-3,-9.411043E-3,2.2686688E-2,-7.5587765E-3,7.334578E-4,-1.5753343E-3,4.828243E-3,2.297395E-3,-3.0550433E-2,2.5146967E-2,-1.6519869E-2,2.1566708E-2,-9.695681E-4,-7.517267E-3,1.743041E-3],"categories":[],"categories_nodes":[],"categories_segments":[],"categories_sizes":[],"default_left":[0,0,0,0,0,0,0,0,0,0,0,0,0,0,0,0,0,0,0,0,0,0,0,0,0,0,0,0,0,0,0],"id":48,"left_children":[1,3,5,7,9,11,13,15,17,19,21,23,25,27,29,-1,-1,-1,-1,-1,-1,-1,-1,-1,-1,-1,-1,-1,-1,-1,-1],"loss_changes":[1.5373772E1,6.752271E0,7.955144E0,7.5524244E0,6.087059E0,1.1727743E0,7.587671E0,7.2587624E0,5.886327E0,6.993631E0,5.5928965E0,6.5496445E-1,7.684594E-1,6.524396E0,4.941907E0,0E0,0E0,0E0,0E0,0E0,0E0,0E0,0E0,0E0,0E0,0E0,0E0,0E0,0E0,0E0,0E0],"parents":[2147483647,0,0,1,1,2,2,3,3,4,4,5,5,6,6,7,7,8,8,9,9,10,10,11,11,12,12,13,13,14,14],"right_children":[2,4,6,8,10,12,14,16,18,20,22,24,26,28,30,-1,-1,-1,-1,-1,-1,-1,-1,-1,-1,-1,-1,-1,-1,-1,-1],"split_conditions":[1.1055149E-2,2.4894415E-1,-1.238445E-2,5.4767612E-2,1.2246469E-16,4.418605E-2,4.1970474E-4,1.6832817E-1,1.5441751E-2,2.875181E-1,-1.889107E-2,-6.3874096E-1,4E1,-4.1683447E-1,7.225953E1,3.466555E-2,2.4169923E-3,-9.411043E-3,2.2686688E-2,-7.5587765E-3,7.334578E-4,-1.5753343E-3,4.828243E-3,2.297395E-3,-3.0550433E-2,2.5146967E-2,-1.6519869E-2,2.1566708E-2,-9.695681E-4,-7.517267E-3,1.743041E-3],"split_indices":[24,38,65,66,6,44,65,107,41,43,40,73,5,75,32,0,0,0,0,0,0,0,0,0,0,0,0,0,0,0,0],"split_type":[0,0,0,0,0,0,0,0,0,0,0,0,0,0,0,0,0,0,0,0,0,0,0,0,0,0,0,0,0,0,0],"sum_hessian":[7.014959E3,4.3642715E3,2.6506873E3,1.4249016E2,4.2217812E3,3.4133812E1,2.6165535E3,7.60734E1,6.641675E1,2.2172268E3,2.0045546E3,3.1763315E1,2.3704987E0,1.5712212E3,1.0453323E3,4.8271988E1,2.780141E1,4.7102077E1,1.9314672E1,2.9187277E2,1.9253539E3,4.3353247E2,1.5710221E3,1.1575229E0,3.0605791E1,1.1770482E0,1.1934506E0,3.178969E1,1.5394315E3,8.742721E2,1.710602E2],"tree_param":{"num_deleted":"0","num_feature":"113","num_nodes":"31","size_leaf_vector":"1"}},{"base_weights":[8.402742E-3,-2.287188E-2,9.192446E-2,-6.640789E-2,1.0296104E-2,9.980241E-2,-3.1354222E-1,-4.5648405E-1,-5.432383E-2,-4.7535947E-1,1.683636E-2,5.50846E-1,9.396915E-2,-4.8930395E-1,2.705325E-1,-1.1632195E-2,-3.9214164E-2,-2.2893557E-3,-2.0094821E-2,1.788749E-2,-2.8718397E-2,1.9822536E-4,8.338997E-3,-1.3129825E-2,3.1474385E-2,-1.1169456E-3,6.060122E-3,-0E0,-3.9520886E-2,-1.8604606E-2,2.8685704E-2],"categories":[],"categories_nodes":[],"categories_segments":[],"categories_sizes":[],"default_left":[0,0,0,0,0,0,0,0,0,0,0,0,0,0,0,0,0,0,0,0,0,0,0,0,0,0,0,0,0,0,0],"id":49,"left_children":[1,3,5,7,9,11,13,15,17,19,21,23,25,27,29,-1,-1,-1,-1,-1,-1,-1,-1,-1,-1,-1,-1,-1,-1,-1,-1],"loss_changes":[1.8385715E1,7.397398E0,6.135561E0,1.0363799E1,9.188502E0,4.8358173E0,3.90632E0,4.5706673E0,6.314925E0,3.396947E0,5.5163164E0,1.7120957E0,5.9026394E0,4.1471887E0,1.9806453E0,0E0,0E0,0E0,0E0,0E0,0E0,0E0,0E0,0E0,0E0,0E0,0E0,0E0,0E0,0E0,0E0],"parents":[2147483647,0,0,1,1,2,2,3,3,4,4,5,5,6,6,7,7,8,8,9,9,10,10,11,11,12,12,13,13,14,14],"right_children":[2,4,6,8,10,12,14,16,18,20,22,24,26,28,30,-1,-1,-1,-1,-1,-1,-1,-1,-1,-1,-1,-1,-1,-1,-1,-1],"split_conditions":[1.2085142E-2,1.5639963E-2,2.5499735E0,-1.2001556E-2,2.4894415E-1,-4.335384E0,1.5174195E-2,1.5088995E-1,1.994282E-2,-1.3869848E-2,1E0,-9.711121E-3,-4.482173E-2,-1.2746903E-1,2E1,-1.1632195E-2,-3.9214164E-2,-2.2893557E-3,-2.0094821E-2,1.788749E-2,-2.8718397E-2,1.9822536E-4,8.338997E-3,-1.3129825E-2,3.1474385E-2,-1.1169456E-3,6.060122E-3,-0E0,-3.9520886E-2,-1.8604606E-2,2.8685704E-2],"split_indices":[24,41,26,18,38,28,24,107,104,18,13,48,51,74,5,0,0,0,0,0,0,0,0,0,0,0,0,0,0,0,0],"split_type":[0,0,0,0,0,0,0,0,0,0,0,0,0,0,0,0,0,0,0,0,0,0,0,0,0,0,0,0,0,0,0],"sum_hessian":[7.034197E3,5.1174873E3,1.9167092E3,2.2137505E3,2.903737E3,1.8811599E3,3.554923E1,6.51648E1,2.1485857E3,3.742893E1,2.866308E3,2.2606262E1,1.8585537E3,2.7582485E1,7.9667454E0,3.9919945E1,2.5244858E1,2.0984648E3,5.0120857E1,3.5907896E0,3.383814E1,2.6412632E3,2.2504494E2,1.6745515E0,2.0931711E1,3.5195026E2,1.5066034E3,1.0991156E1,1.659133E1,2.3751802E0,5.591565E0],"tree_param":{"num_deleted":"0","num_feature":"113","num_nodes":"31","size_leaf_vector":"1"}},{"base_weights":[0E0],"categories":[],"categories_nodes":[],"categories_segments":[],"categories_sizes":[],"default_left":[0],"id":50,"left_children":[-1],"loss_changes":[0E0],"parents":[2147483647],"right_children":[-1],"split_conditions":[0E0],"split_indices":[0],"split_type":[0],"sum_hessian":[3.2680064E-2],"tree_param":{"num_deleted":"0","num_feature":"113","num_nodes":"1","size_leaf_vector":"1"}},{"base_weights":[9.835932E-3,6.861019E-2,-2.713837E-2,1.3613248E-1,3.9047614E-2,-8.651278E-2,1.2183756E-3,4.6347496E-1,1.0493485E-1,-2.8101802E-2,8.978487E-2,-4.1545153E-1,-7.583186E-2,-3.1817988E-2,5.8476806E-2,3.0126957E-2,-1.34571865E-2,2.2935728E-3,1.4496242E-2,2.5653949E-3,-7.1909428E-3,1.3120427E-2,2.59516E-3,-2.3777826E-2,1.9435965E-2,-2.054435E-3,-9.211174E-3,3.626557E-3,-3.1609216E-3,4.887819E-2,2.5932987E-3],"categories":[],"categories_nodes":[],"categories_segments":[],"categories_sizes":[],"default_left":[0,0,0,0,0,0,0,0,0,0,0,0,0,0,0,0,0,0,0,0,0,0,0,0,0,0,0,0,0,0,0],"id":51,"left_children":[1,3,5,7,9,11,13,15,17,19,21,23,25,27,29,-1,-1,-1,-1,-1,-1,-1,-1,-1,-1,-1,-1,-1,-1,-1,-1],"loss_changes":[1.514503E1,5.349737E0,7.207896E0,8.249551E0,6.3945804E0,4.7791986E0,5.478294E0,7.3899946E0,8.131512E0,7.428687E0,6.943722E0,2.2711911E0,5.0208836E0,6.014659E0,6.2879777E0,0E0,0E0,0E0,0E0,0E0,0E0,0E0,0E0,0E0,0E0,0E0,0E0,0E0,0E0,0E0,0E0],"parents":[2147483647,0,0,1,1,2,2,3,3,4,4,5,5,6,6,7,7,8,8,9,9,10,10,11,11,12,12,13,13,14,14],"right_children":[2,4,6,8,10,12,14,16,18,20,22,24,26,28,30,-1,-1,-1,-1,-1,-1,-1,-1,-1,-1,-1,-1,-1,-1,-1,-1],"split_conditions":[8.800784E-3,-7.175838E-3,7.738788E1,-3.828783E-1,3.3069565E-3,-1.0073631E-2,1.3793103E-2,-6.760366E-1,0E0,-9.465856E-3,3.9016905E-1,1.3223071E0,1.0861239E-2,-1.4253548E-1,-6.303114E-2,3.0126957E-2,-1.34571865E-2,2.2935728E-3,1.4496242E-2,2.5653949E-3,-7.1909428E-3,1.3120427E-2,2.59516E-3,-2.3777826E-2,1.9435965E-2,-2.054435E-3,-9.211174E-3,3.626557E-3,-3.1609216E-3,4.887819E-2,2.5932987E-3],"split_indices":[23,19,30,26,44,65,44,27,40,44,38,25,18,26,72,0,0,0,0,0,0,0,0,0,0,0,0,0,0,0,0],"split_type":[0,0,0,0,0,0,0,0,0,0,0,0,0,0,0,0,0,0,0,0,0,0,0,0,0,0,0,0,0,0,0],"sum_hessian":[6.965436E3,2.6904895E3,4.2749463E3,8.1713293E2,1.8733564E3,1.3822389E3,2.8927078E3,6.961656E1,7.4751636E2,8.056178E2,1.0677388E3,4.1984665E1,1.3402542E3,1.8335203E3,1.0591874E3,5.8774216E1,1.0842347E1,5.679655E2,1.7955086E2,4.775774E2,3.2804037E2,1.906042E2,8.771345E2,3.9560818E1,2.4238474E0,1.0166768E3,3.235774E2,4.2307474E2,1.4104456E3,6.407226E0,1.0527802E3],"tree_param":{"num_deleted":"0","num_feature":"113","num_nodes":"31","size_leaf_vector":"1"}},{"base_weights":[3.2923806E-3,-6.229307E-2,5.4686956E-2,-1.3051647E-1,-3.1964686E-2,3.0398963E-2,1.2894727E-1,-5.33815E-1,-1.1451722E-1,-3.728748E-2,4.042965E-1,1.3256922E-1,1.4260025E-2,5.770641E-2,2.1567038E-1,-4.18245E-2,-9.227888E-3,1.5179982E-3,-7.799785E-3,-2.8528327E-3,4.3561524E-3,2.5275359E-2,-2.8680807E-2,2.2401728E-2,4.8627686E-3,1.2842589E-3,-7.49307E-3,2.1446688E-2,1.2708999E-3,2.442885E-2,9.386152E-3],"categories":[],"categories_nodes":[],"categories_segments":[],"categories_sizes":[],"default_left":[0,0,0,0,0,0,0,0,0,0,0,0,0,0,0,0,0,0,0,0,0,0,0,0,0,0,0,0,0,0,0],"id":52,"left_children":[1,3,5,7,9,11,13,15,17,19,21,23,25,27,29,-1,-1,-1,-1,-1,-1,-1,-1,-1,-1,-1,-1,-1,-1,-1,-1],"loss_changes":[2.3526876E1,6.3230066E0,7.0398865E0,5.953083E0,4.9120965E0,4.8507414E0,5.9120483E0,3.489646E0,5.4718657E0,5.1673613E0,2.803885E0,4.376972E0,4.7750664E0,6.3070455E0,3.1467342E0,0E0,0E0,0E0,0E0,0E0,0E0,0E0,0E0,0E0,0E0,0E0,0E0,0E0,0E0,0E0,0E0],"parents":[2147483647,0,0,1,1,2,2,3,3,4,4,5,5,6,6,7,7,8,8,9,9,10,10,11,11,12,12,13,13,14,14],"right_children":[2,4,6,8,10,12,14,16,18,20,22,24,26,28,30,-1,-1,-1,-1,-1,-1,-1,-1,-1,-1,-1,-1,-1,-1,-1,-1],"split_conditions":[1.5946519E-2,1.27521735E-2,2.1978023E-2,-6.619719E-2,5.3032706E-3,4.4E1,2.034256E-2,6.134633E0,-4.230463E-3,2E1,1.28303645E-2,-6.0940075E-1,4.8002154E-1,-5.8917936E-2,-6.46144E-2,-4.18245E-2,-9.227888E-3,1.5179982E-3,-7.799785E-3,-2.8528327E-3,4.3561524E-3,2.5275359E-2,-2.8680807E-2,2.2401728E-2,4.8627686E-3,1.2842589E-3,-7.49307E-3,2.1446688E-2,1.2708999E-3,2.442885E-2,9.386152E-3],"split_indices":[36,36,36,44,48,2,75,35,103,4,18,107,74,72,109,0,0,0,0,0,0,0,0,0,0,0,0,0,0,0,0],"split_type":[0,0,0,0,0,0,0,0,0,0,0,0,0,0,0,0,0,0,0,0,0,0,0,0,0,0,0,0,0,0,0],"sum_hessian":[6.977959E3,3.0647825E3,3.9131763E3,9.411268E2,2.1236558E3,2.9508203E3,9.6235596E2,3.4437336E1,9.066894E2,2.0991875E3,2.4468292E1,4.0070154E2,2.550119E3,5.298862E2,4.3246973E2,1.754823E1,1.6889107E1,2.0133124E2,7.0535815E2,1.8125184E3,2.86669E2,2.2703854E1,1.7644384E0,3.8878006E1,3.6182352E2,2.3855068E3,1.6461195E2,4.116949E1,4.8871674E2,3.8310116E1,3.941596E2],"tree_param":{"num_deleted":"0","num_feature":"113","num_nodes":"31","size_leaf_vector":"1"}},{"base_weights":[0E0],"categories":[],"categories_nodes":[],"categories_segments":[],"categories_sizes":[],"default_left":[0],"id":53,"left_children":[-1],"loss_changes":[0E0],"parents":[2147483647],"right_children":[-1],"split_conditions":[0E0],"split_indices":[0],"split_type":[0],"sum_hessian":[3.2647207E-2],"tree_param":{"num_deleted":"0","num_feature":"113","num_nodes":"1","size_leaf_vector":"1"}},{"base_weights":[-5.341305E-3,6.147351E-2,-4.916866E-2,7.088782E-1,5.7508085E-2,-2.720722E-2,-1.19076125E-1,1.0103828E0,-6.1650027E-2,-1.2773597E-1,6.8235174E-2,2.712072E-1,-3.2626446E-2,-4.2101958E-1,-9.438484E-2,-0E0,5.7169456E-2,2.7104119E-2,-2.646452E-2,9.178935E-3,-1.2699087E-2,3.2505926E-3,3.507887E-2,1.7600538E-2,-2.1728478E-2,-3.0519504E-3,1.4385179E-3,-7.0214467E-3,-2.5755635E-2,-1.5644905E-3,-8.976E-3],"categories":[],"categories_nodes":[],"categories_segments":[],"categories_sizes":[],"default_left":[0,0,0,0,0,0,0,0,0,0,0,0,0,0,0,0,0,0,0,0,0,0,0,0,0,0,0,0,0,0,0],"id":54,"left_children":[1,3,5,7,9,11,13,15,17,19,21,23,25,27,29,-1,-1,-1,-1,-1,-1,-1,-1,-1,-1,-1,-1,-1,-1,-1,-1],"loss_changes":[2.0423458E1,6.9733257E0,6.4499836E0,4.007324E0,5.4602947E0,5.1731205E0,7.406624E0,1.6741257E0,1.8413454E0,5.95578E0,5.179965E0,3.3953419E0,5.503708E0,1.8535604E0,4.975746E0,0E0,0E0,0E0,0E0,0E0,0E0,0E0,0E0,0E0,0E0,0E0,0E0,0E0,0E0,0E0,0E0],"parents":[2147483647,0,0,1,1,2,2,3,3,4,4,5,5,6,6,7,7,8,8,9,9,10,10,11,11,12,12,13,13,14,14],"right_children":[2,4,6,8,10,12,14,16,18,20,22,24,26,28,30,-1,-1,-1,-1,-1,-1,-1,-1,-1,-1,-1,-1,-1,-1,-1,-1],"split_conditions":[1.5517024E-2,-8.325721E-1,2.1875417E-2,3.7902132E-6,-1.7485097E-2,-5.90086E-1,-5.8917936E-2,-3.993144E-1,3E0,-2.3905886E-2,2.171638E-2,1.1936009E2,4.500768E-2,-5.0333136E-1,1.0416314E-1,-0E0,5.7169456E-2,2.7104119E-2,-2.646452E-2,9.178935E-3,-1.2699087E-2,3.2505926E-3,3.507887E-2,1.7600538E-2,-2.1728478E-2,-3.0519504E-3,1.4385179E-3,-7.0214467E-3,-2.5755635E-2,-1.5644905E-3,-8.976E-3],"split_indices":[36,26,36,100,104,74,72,108,3,72,18,30,45,102,27,0,0,0,0,0,0,0,0,0,0,0,0,0,0,0,0],"split_type":[0,0,0,0,0,0,0,0,0,0,0,0,0,0,0,0,0,0,0,0,0,0,0,0,0,0,0,0,0,0,0],"sum_hessian":[6.9728584E3,2.7610115E3,4.2118467E3,1.5572823E1,2.7454385E3,3.2071423E3,1.0047045E3,1.1062577E1,4.5102453E0,1.4917276E2,2.5962659E3,5.5999214E1,3.151143E3,7.442906E1,9.3027545E2,1.3626051E0,9.699972E0,1.8058426E0,2.7044024E0,4.2680042E1,1.0649272E2,2.5843735E3,1.1892343E1,5.082343E1,5.175784E0,2.1553486E3,9.9579456E2,1.9583939E1,5.4845123E1,5.357584E2,3.9451706E2],"tree_param":{"num_deleted":"0","num_feature":"113","num_nodes":"31","size_leaf_vector":"1"}},{"base_weights":[-2.4714516E-4,-6.699416E-2,4.3153778E-2,-8.645986E-2,2.7664531E-2,4.7253636E-1,3.8188104E-2,-1.0851913E-1,2.1077305E-2,9.3888596E-2,-1.3868558E-1,-1.3920432E-1,5.9844434E-1,2.2353292E-2,1.32562E-1,-4.4167633E-3,-1.32530695E-2,-1.3067222E-3,1.9164344E-2,1.2610383E-2,1.1596489E-3,-2.6132295E-2,-2.6961742E-3,2.3822675E-2,-2.5252268E-2,-4.9228347E-3,3.1121368E-2,2.588134E-3,-1.9449706E-3,4.5958757E-3,1.4110255E-2],"categories":[],"categories_nodes":[],"categories_segments":[],"categories_sizes":[],"default_left":[0,0,0,0,0,0,0,0,0,0,0,0,0,0,0,0,0,0,0,0,0,0,0,0,0,0,0,0,0,0,0],"id":55,"left_children":[1,3,5,7,9,11,13,15,17,19,21,23,25,27,29,-1,-1,-1,-1,-1,-1,-1,-1,-1,-1,-1,-1,-1,-1,-1,-1],"loss_changes":[2.027808E1,5.0915165E0,8.972173E0,5.4417095E0,5.190944E0,3.8386745E0,6.247908E0,5.946335E0,6.7105117E0,3.7440913E0,4.272784E0,2.2471845E0,7.8664494E-1,6.475516E0,3.5943232E0,0E0,0E0,0E0,0E0,0E0,0E0,0E0,0E0,0E0,0E0,0E0,0E0,0E0,0E0,0E0,0E0],"parents":[2147483647,0,0,1,1,2,2,3,3,4,4,5,5,6,6,7,7,8,8,9,9,10,10,11,11,12,12,13,13,14,14],"right_children":[2,4,6,8,10,12,14,16,18,20,22,24,26,28,30,-1,-1,-1,-1,-1,-1,-1,-1,-1,-1,-1,-1,-1,-1,-1,-1],"split_conditions":[1.5517024E-2,6.0221883E-3,-1.238445E-2,1.0600533E0,2.2981877E0,-2.600688E-1,2.3809524E-2,1.5696784E-2,2.1937385E-3,-1.2742912E-3,-8.0549926E-1,-5.417597E-2,-1.2592867E-1,4.500768E-2,1.1646971E-2,-4.4167633E-3,-1.32530695E-2,-1.3067222E-3,1.9164344E-2,1.2610383E-2,1.1596489E-3,-2.6132295E-2,-2.6961742E-3,2.3822675E-2,-2.5252268E-2,-4.9228347E-3,3.1121368E-2,2.588134E-3,-1.9449706E-3,4.5958757E-3,1.4110255E-2],"split_indices":[36,70,65,29,43,26,36,39,99,52,102,71,39,45,70,0,0,0,0,0,0,0,0,0,0,0,0,0,0,0,0],"split_type":[0,0,0,0,0,0,0,0,0,0,0,0,0,0,0,0,0,0,0,0,0,0,0,0,0,0,0,0,0,0,0],"sum_hessian":[6.9971465E3,2.7577366E3,4.2394097E3,2.2883096E3,4.6942703E2,4.7160206E1,4.1922495E3,1.899569E3,3.8874072E2,3.365021E2,1.3292493E2,7.896103E0,3.9264103E1,3.5918726E3,6.003769E2,1.6845709E3,2.1499796E2,3.4449036E2,4.4250393E1,1.0264717E2,2.3385493E2,2.2890118E1,1.10034805E2,2.7285879E0,5.167515E0,1.0642445E0,3.819986E1,2.4279321E3,1.1639404E3,4.739344E2,1.2644254E2],"tree_param":{"num_deleted":"0","num_feature":"113","num_nodes":"31","size_leaf_vector":"1"}},{"base_weights":[0E0],"categories":[],"categories_nodes":[],"categories_segments":[],"categories_sizes":[],"default_left":[0],"id":56,"left_children":[-1],"loss_changes":[0E0],"parents":[2147483647],"right_children":[-1],"split_conditions":[0E0],"split_indices":[0],"split_type":[0],"sum_hessian":[3.238149E-2],"tree_param":{"num_deleted":"0","num_feature":"113","num_nodes":"1","size_leaf_vector":"1"}},{"base_weights":[-6.9092064E-5,8.192587E-2,-3.578553E-2,1.4009035E-1,1.7263712E-2,7.913222E-2,-5.1572032E-2,1.3268803E-1,9.8415637E-1,-6.586087E-2,1.2580627E-1,1.0268702E-1,-4.2752406E-1,-6.22674E-2,1.03991665E-1,4.0454835E-2,6.3203066E-3,-0E0,5.8295347E-2,-9.057499E-3,1.8994343E-3,4.0326654E-3,2.428899E-2,4.0070026E-5,1.0978464E-2,2.8887173E-2,-2.6415324E-2,9.959321E-3,-3.4069065E-3,1.0274055E-3,1.906333E-2],"categories":[],"categories_nodes":[],"categories_segments":[],"categories_sizes":[],"default_left":[0,0,0,0,0,0,0,0,0,0,0,0,0,0,0,0,0,0,0,0,0,0,0,0,0,0,0,0,0,0,0],"id":57,"left_children":[1,3,5,7,9,11,13,15,17,19,21,23,25,27,29,-1,-1,-1,-1,-1,-1,-1,-1,-1,-1,-1,-1,-1,-1,-1,-1],"loss_changes":[2.0384623E1,7.9238224E0,8.80093E0,6.6975784E0,9.054178E0,6.9986396E0,7.1002245E0,4.4881516E0,1.7813988E0,6.8160872E0,6.9809732E0,6.652144E0,2.9359665E0,6.129203E0,6.2962523E0,0E0,0E0,0E0,0E0,0E0,0E0,0E0,0E0,0E0,0E0,0E0,0E0,0E0,0E0,0E0,0E0],"parents":[2147483647,0,0,1,1,2,2,3,3,4,4,5,5,6,6,7,7,8,8,9,9,10,10,11,11,12,12,13,13,14,14],"right_children":[2,4,6,8,10,12,14,16,18,20,22,24,26,28,30,-1,-1,-1,-1,-1,-1,-1,-1,-1,-1,-1,-1,-1,-1,-1,-1],"split_conditions":[1.45959975E-2,1.9483683E-4,1.8844551E-6,4.3384373E-2,9.9900055E-1,3.13255E0,8.448294E0,-6.045606E-2,-1.4191181E-2,-6.05563E-2,3.37E2,1.4058469E-2,7.727115E-3,-4.1683447E-1,9.088648E-3,4.0454835E-2,6.3203066E-3,-0E0,5.8295347E-2,-9.057499E-3,1.8994343E-3,4.0326654E-3,2.428899E-2,4.0070026E-5,1.0978464E-2,2.8887173E-2,-2.6415324E-2,9.959321E-3,-3.4069065E-3,1.0274055E-3,1.906333E-2],"split_indices":[36,18,100,105,25,102,43,21,18,26,2,108,24,75,71,0,0,0,0,0,0,0,0,0,0,0,0,0,0,0,0],"split_type":[0,0,0,0,0,0,0,0,0,0,0,0,0,0,0,0,0,0,0,0,0,0,0,0,0,0,0,0,0,0,0],"sum_hessian":[6.9601846E3,2.1106436E3,4.849541E3,1.1097213E3,1.00092224E3,5.8447943E2,4.265062E3,1.1013384E3,8.382891E0,5.665308E2,4.343914E2,5.5946423E2,2.5015184E1,3.991855E3,2.7320682E2,8.811717E0,1.0925266E3,1.3868512E0,6.9960394E0,2.6858188E2,2.9794894E2,3.873112E2,4.70802E1,2.9990292E2,2.595613E2,1.7577238E0,2.3257462E1,8.656816E1,3.9052869E3,2.1110983E2,6.2096973E1],"tree_param":{"num_deleted":"0","num_feature":"113","num_nodes":"31","size_leaf_vector":"1"}},{"base_weights":[-2.2043686E-3,-5.518375E-2,4.5850165E-2,-1.6062227E-3,-8.9730114E-2,3.2086086E-2,1.6169319E-1,-1.572326E-1,3.606278E-2,-1.8950067E-1,-5.2745443E-2,5.6846265E-2,-4.8267096E-2,1.9350399E-1,-5.177829E-1,-1.1449921E-2,1.3069317E-2,-2.557338E-3,5.885955E-3,-1.6404105E-2,-6.5809153E-3,1.4669436E-2,-3.3273846E-3,-4.182815E-3,3.6797568E-3,-9.848333E-3,9.502991E-5,2.0374404E-2,7.0390585E-3,1.5977489E-2,-3.8635578E-2],"categories":[],"categories_nodes":[],"categories_segments":[],"categories_sizes":[],"default_left":[0,0,0,0,0,0,0,0,0,0,0,0,0,0,0,0,0,0,0,0,0,0,0,0,0,0,0,0,0,0,0],"id":58,"left_children":[1,3,5,7,9,11,13,15,17,19,21,23,25,27,29,-1,-1,-1,-1,-1,-1,-1,-1,-1,-1,-1,-1,-1,-1,-1,-1],"loss_changes":[1.7783253E1,6.141447E0,5.813775E0,7.667312E0,7.416643E0,6.5189595E0,8.450781E0,7.7172904E0,7.4961834E0,4.2822685E0,7.044726E0,5.8995714E0,5.7713647E0,4.0774565E0,4.0228195E0,0E0,0E0,0E0,0E0,0E0,0E0,0E0,0E0,0E0,0E0,0E0,0E0,0E0,0E0,0E0,0E0],"parents":[2147483647,0,0,1,1,2,2,3,3,4,4,5,5,6,6,7,7,8,8,9,9,10,10,11,11,12,12,13,13,14,14],"right_children":[2,4,6,8,10,12,14,16,18,20,22,24,26,28,30,-1,-1,-1,-1,-1,-1,-1,-1,-1,-1,-1,-1,-1,-1,-1,-1],"split_conditions":[1.6310718E-2,-2.645003E-3,6.595797E-2,1.2297844E-2,-3.0211504E-3,2.5545504E1,9.614919E0,1.5680951E-1,4.3835617E1,-1.3103636E-2,-1.8600224E-2,-3.01197E-1,2E0,-6.4171343E-3,8.6128837E-1,-1.1449921E-2,1.3069317E-2,-2.557338E-3,5.885955E-3,-1.6404105E-2,-6.5809153E-3,1.4669436E-2,-3.3273846E-3,-4.182815E-3,3.6797568E-3,-9.848333E-3,9.502991E-5,2.0374404E-2,7.0390585E-3,1.5977489E-2,-3.8635578E-2],"split_indices":[36,42,22,36,20,32,43,110,33,19,104,26,3,18,25,0,0,0,0,0,0,0,0,0,0,0,0,0,0,0,0],"split_type":[0,0,0,0,0,0,0,0,0,0,0,0,0,0,0,0,0,0,0,0,0,0,0,0,0,0,0,0,0,0,0],"sum_hessian":[6.982697E3,3.3220837E3,3.6606133E3,1.3038698E3,2.018214E3,3.2737744E3,3.8683878E2,2.5399422E2,1.0498755E3,5.43968E2,1.474246E3,2.5037893E3,7.699852E2,3.7036203E2,1.6476732E1,2.1741379E2,3.6580433E1,5.0726346E2,5.4261206E2,1.583801E2,3.855879E2,5.547738E1,1.4187687E3,2.6561758E2,2.2381716E3,1.9400671E2,5.759785E2,7.150833E1,2.988537E2,3.6948745E0,1.27818575E1],"tree_param":{"num_deleted":"0","num_feature":"113","num_nodes":"31","size_leaf_vector":"1"}},{"base_weights":[0E0],"categories":[],"categories_nodes":[],"categories_segments":[],"categories_sizes":[],"default_left":[0],"id":59,"left_children":[-1],"loss_changes":[0E0],"parents":[2147483647],"right_children":[-1],"split_conditions":[0E0],"split_indices":[0],"split_type":[0],"sum_hessian":[3.237603E-2],"tree_param":{"num_deleted":"0","num_feature":"113","num_nodes":"1","size_leaf_vector":"1"}},{"base_weights":[1.8395534E-3,4.0607616E-2,-6.9412254E-2,6.118851E-2,-2.0322602E-2,-3.32574E-1,-6.1613802E-2,3.885658E-2,1.6669591E-1,-1.09328404E-1,4.261854E-2,-1.8471752E-1,-5.957058E-1,-4.713719E-2,-1.826077E-1,-4.6332027E-3,3.4515269E-3,7.116066E-3,2.7408475E-2,-7.59405E-3,7.725169E-3,3.2428883E-3,-1.9146314E-2,-1.3611862E-2,5.5804204E-2,-3.163886E-2,-3.32518E-3,-1.3758684E-2,-1.940382E-3,-1.084096E-2,8.91255E-3],"categories":[],"categories_nodes":[],"categories_segments":[],"categories_sizes":[],"default_left":[0,0,0,0,0,0,0,0,0,0,0,0,0,0,0,0,0,0,0,0,0,0,0,0,0,0,0,0,0,0,0],"id":60,"left_children":[1,3,5,7,9,11,13,15,17,19,21,23,25,27,29,-1,-1,-1,-1,-1,-1,-1,-1,-1,-1,-1,-1,-1,-1,-1,-1],"loss_changes":[1.9333622E1,5.691424E0,5.000477E0,7.962679E0,6.4224906E0,2.5497327E0,4.165909E0,1.1118538E1,5.350729E0,5.3557973E0,6.3377843E0,5.541382E0,3.7106133E-1,4.027292E0,3.1905785E0,0E0,0E0,0E0,0E0,0E0,0E0,0E0,0E0,0E0,0E0,0E0,0E0,0E0,0E0,0E0,0E0],"parents":[2147483647,0,0,1,1,2,2,3,3,4,4,5,5,6,6,7,7,8,8,9,9,10,10,11,11,12,12,13,13,14,14],"right_children":[2,4,6,8,10,12,14,16,18,20,22,24,26,28,30,-1,-1,-1,-1,-1,-1,-1,-1,-1,-1,-1,-1,-1,-1,-1,-1],"split_conditions":[1.8134305E-2,3.7804934E-6,-1.25E-2,4.500768E-2,0E0,6.976792E-2,6.595797E-2,-1.010101E-2,1E0,2.4567958E2,5.1856036E-3,3.4150892E-1,4.332113E0,-5.3701013E-1,6.4255345E-1,-4.6332027E-3,3.4515269E-3,7.116066E-3,2.7408475E-2,-7.59405E-3,7.725169E-3,3.2428883E-3,-1.9146314E-2,-1.3611862E-2,5.5804204E-2,-3.163886E-2,-3.32518E-3,-1.3758684E-2,-1.940382E-3,-1.084096E-2,8.91255E-3],"split_indices":[36,100,99,45,10,110,22,42,17,32,67,74,102,108,73,0,0,0,0,0,0,0,0,0,0,0,0,0,0,0,0],"split_type":[0,0,0,0,0,0,0,0,0,0,0,0,0,0,0,0,0,0,0,0,0,0,0,0,0,0,0,0,0,0,0],"sum_hessian":[6.9981396E3,4.5333696E3,2.46477E3,3.389954E3,1.1434154E3,6.937038E1,2.3953997E3,2.799683E3,5.902711E2,4.73991E2,6.6942444E2,4.5746807E1,2.3623571E1,2.1414023E3,2.5399727E2,5.2144617E2,2.2782368E3,5.5635736E2,3.391372E1,4.0885193E2,6.513908E1,6.3720624E2,3.2218204E1,4.3675827E1,2.070978E0,2.1717545E1,1.9060278E0,7.3911125E1,2.0674912E3,2.3261983E2,2.1377445E1],